
\data\
ngram 1=1122
ngram 2=2341
ngram 3=2787

\1-grams:
-1.850864	</s>
-99	<s>	-0.159946
-3.213074	”/“	-0.035206
-1.591237	、/、	-0.065232
-2.290157	「/「	-0.035206
-2.138908	」/」	-0.205003
-2.767151	あ/あ	-0.232227
-3.339621	あ/ア	-0.035206
-3.339621	あいだ/間	-0.035206
-3.339621	あいて/相手	-0.035206
-3.339621	あいてむ/アイテム	-0.035206
-3.339621	あいりっしゅ/アイリッシュ	-0.035206
-3.339621	あいるらんど/アイルランド	-0.035206
-3.339621	あお/青	-0.035206
-3.339621	あか/あか	-0.035206
-3.339621	あかね/茜	-0.035206
-3.339621	あきひろ/空広	-0.035206
-3.339621	あこがれ/憧れ	-0.035206
-3.339621	あさ/朝	-0.035206
-3.339621	あさくら/朝倉	-0.035206
-3.339621	あた/あた	-0.035206
-3.339621	あたえ/与え	-0.035206
-3.339621	あたり/あたり	-0.035206
-3.339621	あっか/悪化	-0.035206
-3.339621	あっぷ/アップ	-0.035206
-3.339621	あつま/集ま	-0.035206
-2.892027	あと/後	-0.035206
-3.339621	あにか/アニカ	-0.035206
-3.339621	あにめ/アニメ	-0.035206
-2.892027	あふりか/アフリカ	-0.035206
-3.339621	あぶどぅん/アブドゥン	-0.035206
-3.339621	あぶらむし/アブラムシ	-0.035206
-3.339621	あぷろーち/アプローチ	-0.035206
-3.339621	あまーすと/アマースト	-0.035206
-3.213074	あめりか/アメリカ	-0.035206
-3.339621	あやし/怪し	-0.035206
-3.339621	あらぶ/アラブ	-0.035206
-3.339621	あらわ/表	-0.035206
-3.339621	ある/ある	-0.035206
-3.339621	あるばむ/アルバム	-0.035206
-3.339621	あわー/アワー	-0.035206
-3.339621	あんな/アンナ	-0.035206
-2.047146	い/い	-0.136900
-2.767151	い/位	-0.035206
-3.339621	い/行	-0.035206
-3.213074	い/言	-0.035206
-3.339621	いぇーがん/イェーガン	-0.035206
-3.339621	いか/生か	-0.035206
-3.339621	いがい/以外	-0.035206
-3.339621	いき/生き	-0.035206
-3.339621	いぎりす/イギリス	-0.035206
-3.339621	いく/いく	-0.035206
-3.339621	いし/石	-0.035206
-3.339621	いしょう/衣装	-0.035206
-3.339621	いじ/意地	-0.035206
-3.339621	いじゅう/移住	-0.035206
-3.339621	いた/至	-0.035206
-3.339621	いたりあ/イタリア	-0.035206
-3.339621	いだ/抱	-0.035206
-3.339621	いち/一	-0.035206
-3.213074	いち/位置	-0.035206
-3.339621	いちよ/一代	-0.035206
-3.339621	いっしゅ/一種	-0.035206
-3.339621	いっしょ/一緒	-0.035206
-3.339621	いってい/一定	-0.035206
-3.339621	いのち/命	-0.035206
-3.339621	いま/今	-0.035206
-3.339621	いみ/意味	-0.035206
-3.213074	いりょう/医療	-0.035206
-3.339621	いわ/祝	-0.035206
-3.339621	いわゆる/いわゆる	-0.035206
-3.339621	いん/員	-0.035206
-3.213074	いんたい/引退	-0.035206
-3.339621	いんちょう/院長	-0.035206
-3.339621	いんなー/インナー	-0.035206
-3.339621	いんよう/飲用	-0.035206
-2.767151	う/う	-0.035206
-3.339621	うぃーくりーらんきんぐ/ウィークリーランキング	-0.035206
-3.339621	うぇい/ウェイ	-0.035206
-3.339621	うぇすたん/ウェスタン	-0.035206
-3.339621	うえ/うえ	-0.035206
-3.339621	うえ/上	-0.035206
-3.339621	うえるず/ウエルズ	-0.035206
-3.339621	うかがえ/伺え	-0.035206
-3.339621	うけ/受け	-0.035206
-3.339621	うごか/動か	-0.035206
-3.339621	うち/うち	-0.035206
-3.339621	うちとみ/内冨	-0.035206
-3.339621	うちのめ/打ちのめ	-0.035206
-3.339621	うっど/ウッド	-0.035206
-3.339621	うつ/移	-0.035206
-3.339621	うなぎ/鰻	-0.035206
-3.339621	うみず/海津	-0.035206
-3.339621	うら/裏	-0.035206
-3.339621	うれし/うれし	-0.035206
-3.339621	うんえい/運営	-0.035206
-3.339621	うんこう/運行	-0.035206
-3.339621	え/え	-0.035206
-3.339621	え/得	-0.035206
-3.339621	えいいちろう/英一郎	-0.035206
-3.339621	えいが/映画	-0.035206
-3.339621	えいきょう/影響	-0.035206
-3.339621	えいじゃっくす/エイジャックス	-0.035206
-3.339621	えいせい/衛生	-0.035206
-3.339621	えいぞう/映像	-0.035206
-3.339621	えいだっく/エイダック	-0.035206
-2.767151	えき/駅	-0.035206
-3.339621	えきがく/疫学	-0.035206
-3.339621	えぎ/榎木	-0.035206
-3.339621	えさ/餌	-0.035206
-3.339621	えぴそーど/エピソード	-0.035206
-3.339621	えら/選	-0.035206
-3.339621	えん/演	-0.035206
-3.339621	えんげき/演劇	-0.035206
-3.213074	えんじん/エンジン	-0.035206
-3.339621	えんだん/縁談	-0.035206
-2.892027	お/お	-0.035206
-3.339621	お/逐	-0.035206
-3.339621	おう/王	-0.035206
-3.339621	おうごん/黄金	-0.035206
-2.892027	おお/多	-0.191600
-3.339621	おおいた/大分	-0.035206
-3.339621	おおきな/大きな	-0.035206
-3.339621	おおく/多く	-0.035206
-3.339621	おおさか/大阪	-0.035206
-3.339621	おおしま/大島	-0.035206
-3.339621	おおつき/大槻	-0.035206
-3.339621	おぐら/小倉	-0.035206
-3.339621	おけ/おけ	-0.035206
-2.591123	おこな/行	-0.206847
-3.339621	おそく/遅く	-0.035206
-3.339621	おとずれ/訪れ	-0.035206
-3.339621	おにごっこ/鬼ごっこ	-0.035206
-2.892027	おふぃす/オフィス	-0.035206
-3.339621	おも/思	-0.035206
-3.339621	おや/親	-0.035206
-3.339621	および/および	-0.035206
-3.339621	および/及び	-0.035206
-3.213074	おりこん/オリコン	-0.035206
-3.339621	おりじんきー/オリジンキー	-0.035206
-3.339621	おわ/終わ	-0.035206
-3.339621	おん/オン	-0.035206
-3.339621	おんがく/音楽	-0.035206
-3.339621	おんせん/温泉	-0.035206
-3.339621	おんど/温度	-0.035206
-3.339621	おんなのこ/女の子	-0.035206
-3.339621	おーすとらりあ/オーストラリア	-0.035206
-2.591123	か/か	-0.191600
-3.339621	か/化	-0.035206
-3.339621	か/家	-0.035206
-3.213074	か/日	-0.297697
-3.213074	か/書	-0.035206
-3.213074	か/科	-0.035206
-3.339621	か/駆	-0.035206
-3.339621	かい/会	-0.035206
-3.339621	かいきょう/海峡	-0.035206
-3.213074	かいさい/開催	-0.035206
-3.213074	かいしゃ/会社	-0.035206
-3.339621	かいしゅう/改修	-0.035206
-3.339621	かいどう/街道	-0.035206
-3.339621	かいふく/回復	-0.035206
-3.339621	かえ/変え	-0.035206
-3.339621	かかわ/かかわ	-0.035206
-3.339621	かかわ/関わ	-0.035206
-3.339621	かがく/科学	-0.035206
-3.339621	かくち/各地	-0.035206
-3.339621	かくとく/獲得	-0.035206
-3.339621	かけ/かけ	-0.035206
-3.339621	かけ/懸け	-0.035206
-3.339621	かけい/家系	-0.035206
-3.339621	かげ/影	-0.035206
-3.339621	かさい/火災	-0.035206
-3.339621	かず/数	-0.035206
-3.339621	かせぎ/稼ぎ	-0.035206
-3.339621	かせつ/仮説	-0.035206
-3.339621	かた/語	-0.035206
-3.339621	かっ/かっ	-0.035206
-3.339621	かつて/かつて	-0.035206
-3.339621	かつどう/活動	-0.035206
-3.339621	かなか/かなか	-0.035206
-3.339621	かねず/かねず	-0.035206
-3.339621	かのう/可能	-0.035206
-3.339621	かぶしき/株式	-0.035206
-3.339621	かみのうがね/上納金	-0.035206
-3.339621	かめむし/カメムシ	-0.035206
-2.415074	から/から	-0.035206
-3.339621	からき/唐木	-0.035206
-3.213074	かれ/彼	-0.035206
-3.339621	かれっじ/カレッジ	-0.035206
-3.339621	かろう/家老	-0.035206
-3.339621	かわ/変わ	-0.035206
-3.339621	かわいらし/可愛らし	-0.035206
-3.339621	かん/間	-0.035206
-3.339621	かん/館	-0.035206
-3.213074	かんがえ/考え	-0.035206
-3.339621	かんきょう/環境	-0.035206
-3.213074	かんけい/関係	-0.035206
-3.213074	かんこく/韓国	-0.297697
-3.339621	かんさい/関西	-0.035206
-3.339621	かんしょ/官所	-0.035206
-3.339621	かんじゃ/患者	-0.035206
-3.339621	かんたい/艦隊	-0.035206
-3.339621	かんちがい/勘違い	-0.035206
-3.213074	かんとりー/カントリー	-0.035206
-3.339621	かんめい/艦名	-0.035206
-3.339621	かんりょう/完了	-0.035206
-3.339621	かんれん/関連	-0.035206
-1.636994	が/が	-0.116514
-3.213074	がいこく/外国	-0.297697
-3.213074	がいしゃ/会社	-0.035206
-3.339621	がいちゅう/害虫	-0.035206
-3.339621	がいひ/外皮	-0.035206
-3.339621	がいよう/概要	-0.035206
-3.339621	がくえん/学園	-0.035206
-3.339621	がくせい/学生	-0.035206
-3.339621	がす/ガス	-0.035206
-3.339621	がっかい/学会	-0.035206
-2.767151	がっこう/学校	-0.035206
-2.591123	がつ/月	-0.146915
-3.339621	がまーる/ガマール	-0.035206
-3.339621	がめとさいと/ガメトサイト	-0.035206
-3.339621	がんつ/ガンツ	-0.035206
-3.339621	がんねん/元年	-0.035206
-3.339621	がーでぃあん/ガーディアン	-0.035206
-3.213074	き/き	-0.035206
-3.339621	き/切	-0.035206
-3.339621	きいろあざみうま/キイロアザミウマ	-0.035206
-3.213074	きかん/期間	-0.035206
-3.339621	きかん/機関	-0.035206
-2.892027	きけん/危険	-0.035206
-3.339621	きしゃ/記者	-0.035206
-3.339621	きじゅん/基準	-0.035206
-3.339621	きせ/着せ	-0.035206
-3.339621	きそ/基礎	-0.035206
-3.339621	きた/北	-0.035206
-3.339621	きち/基地	-0.035206
-3.339621	きちょう/基調	-0.035206
-3.339621	きつりん/吉林	-0.035206
-3.339621	きめ/決め	-0.035206
-3.213074	きゃらくたー/キャラクター	-0.035206
-3.339621	きゅうしゅう/九州	-0.035206
-3.339621	きょういく/教育	-0.035206
-3.339621	きょういん/教員	-0.035206
-3.339621	きょうえん/共演	-0.035206
-3.339621	きょうかい/協会	-0.035206
-3.339621	きょうみ/興味	-0.035206
-3.339621	きょうわ/共和	-0.035206
-3.339621	きょく/局	-0.035206
-3.339621	きょくたん/極端	-0.035206
-3.339621	きょしゅ/挙手	-0.035206
-3.339621	きり/切り	-0.035206
-3.339621	きれ/きれ	-0.035206
-3.213074	きろく/記録	-0.035206
-3.339621	きん/金	-0.035206
-3.339621	きんだい/近代	-0.035206
-3.339621	きんむ/勤務	-0.035206
-2.892027	ぎいん/議員	-0.035206
-3.339621	ぎかい/議会	-0.035206
-3.339621	ぎむざ/ギムザ	-0.035206
-3.339621	ぎょうむ/業務	-0.035206
-3.339621	ぎょらい/魚雷	-0.035206
-2.369325	く/く	-0.106401
-3.339621	く/区	-0.035206
-3.339621	く/食	-0.035206
-3.339621	くうはく/　	-0.035206
-3.339621	くさかげろう/クサカゲロウ	-0.035206
-3.339621	くせ/癖	-0.035206
-3.339621	くにのみや/久邇宮	-0.035206
-3.213074	くび/首	-0.035206
-3.339621	くぶん/区分	-0.035206
-3.339621	くみあわせ/組み合わせ	-0.035206
-3.339621	くりかえ/繰り返	-0.035206
-3.339621	くる/くる	-0.035206
-3.339621	くるせいど/クルセイド	-0.035206
-3.339621	くれ/くれ	-0.035206
-3.339621	くれない/紅	-0.035206
-3.339621	くろす/クロス	-0.035206
-3.339621	くん/勲	-0.035206
-3.339621	くんしょう/勲章	-0.035206
-3.339621	ぐるー/グルー	-0.035206
-3.213074	ぐん/軍	-0.035206
-3.339621	ぐんぶ/軍部	-0.035206
-3.213074	けい/計	-0.035206
-3.339621	けいけん/経験	-0.035206
-3.339621	けいごうきん/軽合金	-0.035206
-3.339621	けいしき/形式	-0.035206
-3.339621	けいじ/刑事	-0.035206
-3.339621	けいそう/係争	-0.035206
-3.339621	けいたい/形態	-0.035206
-3.339621	けいば/競馬	-0.035206
-3.339621	けいりょう/軽量	-0.035206
-3.339621	けっきゅう/血球	-0.035206
-3.339621	けっこん/結婚	-0.035206
-3.339621	けっせい/結成	-0.035206
-3.339621	けつ/血	-0.035206
-3.339621	けつだん/決断	-0.035206
-3.213074	けん/剣	-0.035206
-2.892027	けん/県	-0.035206
-2.767151	けんきゅう/研究	-0.035206
-3.339621	けんさく/検索	-0.035206
-3.339621	けんしゅつ/検出	-0.035206
-3.339621	けんぞう/建造	-0.035206
-3.339621	けんとう/検討	-0.035206
-3.339621	げいのう/芸能	-0.035206
-3.339621	げっかん/月間	-0.035206
-3.339621	げつれい/月例	-0.035206
-3.339621	げん/現	-0.035206
-3.213074	げんいん/原因	-0.035206
-3.339621	げんえき/現役	-0.035206
-2.892027	げんざい/現在	-0.035206
-3.339621	こ/子	-0.035206
-3.339621	こう/公	-0.035206
-3.339621	こうい/行為	-0.035206
-3.339621	こうえん/公園	-0.035206
-3.339621	こうし/講師	-0.035206
-3.339621	こうしゃ/校舎	-0.035206
-3.339621	こうせい/光成	-0.035206
-3.339621	こうせい/構成	-0.035206
-3.339621	こうぞう/構造	-0.035206
-3.339621	こうち/高知	-0.035206
-3.213074	こうつう/交通	-0.035206
-3.339621	こうでら/国府	-0.035206
-3.339621	こうとう/高等	-0.035206
-3.339621	こうふく/降伏	-0.035206
-3.339621	こうめい/孝明	-0.035206
-3.339621	こうりゃん/コウリャン	-0.035206
-3.339621	こうれい/高齢	-0.035206
-3.339621	こえ/超え	-0.035206
-3.339621	こく/国	-0.035206
-3.339621	こくさい/国際	-0.035206
-3.339621	こくりつ/国立	-0.035206
-3.339621	こしゅう/湖州	-0.035206
-2.415074	こと/こと	-0.271030
-3.213074	こと/事	-0.297697
-3.339621	ことな/異な	-0.035206
-3.339621	ことば/言葉	-0.035206
-3.339621	こども/子供	-0.035206
-3.213074	この/この	-0.035206
-3.339621	こふん/古墳	-0.035206
-3.339621	こぼこ/こぼこ	-0.035206
-3.339621	こみっく/コミック	-0.035206
-3.213074	これ/これ	-0.191600
-3.213074	ころ/頃	-0.035206
-3.339621	こんこーど/コンコード	-0.035206
-3.339621	こんてんつ/コンテンツ	-0.035206
-3.339621	こんぴゅーた/コンピュータ	-0.035206
-3.339621	こーひー/コーヒー	-0.035206
-2.670279	ご/後	-0.035206
-2.767151	ごう/号	-0.146915
-3.339621	ごうだつ/強奪	-0.035206
-3.339621	ごうりゅう/合流	-0.035206
-3.339621	ごと/毎	-0.035206
-3.339621	ごろ/ごろ	-0.035206
-1.954399	さ/さ	-0.954080
-3.339621	さい/歳	-0.035206
-3.339621	さいあく/最悪	-0.035206
-3.339621	さいえんてぃすと/サイエンティスト	-0.035206
-3.339621	さいかい/再会	-0.035206
-3.213074	さいしゅう/最終	-0.035206
-3.339621	さいしょ/最初	-0.035206
-3.339621	さいしょう/崔鍾	-0.035206
-3.339621	さいしん/最新	-0.035206
-3.339621	さいと/サイト	-0.035206
-3.339621	さいよう/採用	-0.035206
-3.213074	さくひん/作品	-0.035206
-3.339621	さしず/指図	-0.035206
-3.339621	さっかー/サッカー	-0.035206
-3.339621	さるがばば/猿ヶ馬場	-0.035206
-3.339621	さんか/参加	-0.035206
-3.339621	さんず/サンズ	-0.035206
-3.339621	さんせい/賛成	-0.035206
-3.339621	さんちょう/山頂	-0.035206
-3.339621	さんでー/サンデー	-0.035206
-3.339621	ざいにち/在日	-0.035206
-3.213074	ざざーぐ/ザザーグ	-0.035206
-3.339621	ざる/ざる	-0.035206
-1.645111	し/し	-0.610244
-3.339621	し/史	-0.035206
-3.339621	し/市	-0.035206
-3.213074	し/知	-0.035206
-3.339621	しあい/試合	-0.035206
-3.339621	しい/強い	-0.035206
-3.339621	しいき/市域	-0.035206
-3.339621	しかい/司会	-0.035206
-3.339621	しかけ/仕掛け	-0.035206
-3.339621	しかし/しかし	-0.035206
-3.339621	しがん/志願	-0.035206
-3.339621	しき/指揮	-0.035206
-3.339621	しきゅう/支給	-0.035206
-3.339621	しじ/指示	-0.035206
-3.339621	しすてむ/システム	-0.035206
-3.213074	しぜん/自然	-0.035206
-3.339621	しぞんと/シゾント	-0.035206
-3.339621	しっこう/執行	-0.035206
-3.339621	しつ/室	-0.035206
-3.213074	しつ/質	-0.297697
-3.339621	してい/姉弟	-0.035206
-3.339621	してい/指定	-0.035206
-3.339621	しどう/指導	-0.035206
-3.339621	しなりお/シナリオ	-0.035206
-3.339621	しはん/市販	-0.035206
-3.339621	しひょう/指標	-0.035206
-3.339621	しほう/司法	-0.035206
-3.339621	しぼう/死亡	-0.035206
-3.339621	しまい/姉妹	-0.035206
-3.339621	しまだ/島田	-0.035206
-3.339621	しまなか/島中	-0.035206
-3.339621	しめ/示	-0.035206
-2.767151	しゃ/社	-0.146915
-2.767151	しゃ/者	-0.191600
-3.339621	しゃかい/社会	-0.035206
-3.339621	しゃべ/喋	-0.035206
-3.339621	しゃりょう/車両	-0.035206
-3.339621	しゃんはい/上海	-0.035206
-3.213074	しゅ/主	-0.035206
-3.213074	しゅい/首位	-0.035206
-3.339621	しゅうかん/週刊	-0.035206
-3.339621	しゅうじ/修二	-0.035206
-3.339621	しゅうだん/集団	-0.035206
-3.339621	しゅうちゃく/執着	-0.035206
-3.339621	しゅうへい/州兵	-0.035206
-3.339621	しゅうへん/周辺	-0.035206
-3.339621	しゅうり/修理	-0.035206
-3.213074	しゅうりょう/終了	-0.035206
-3.339621	しゅぎ/主義	-0.035206
-3.339621	しゅじん/主人	-0.035206
-3.339621	しゅっこう/出航	-0.035206
-3.339621	しゅっぱつ/出発	-0.035206
-3.213074	しゅっぱん/出版	-0.035206
-3.213074	しゅつじょう/出場	-0.035206
-3.339621	しゅよう/主要	-0.035206
-3.339621	しゅりゅう/手榴	-0.035206
-3.339621	しゅヴぇーげりん/シュヴェーゲリン	-0.035206
-3.213074	しょう/小	-0.035206
-2.892027	しょう/省	-0.035206
-2.892027	しょう/賞	-0.035206
-3.339621	しょうかい/紹介	-0.035206
-3.339621	しょうがく/小学	-0.035206
-3.339621	しょうきょく/消極	-0.035206
-3.339621	しょうじょ/少女	-0.035206
-3.339621	しょうせつ/小説	-0.035206
-3.339621	しょうそく/消息	-0.035206
-2.767151	しょうねん/少年	-0.146915
-3.339621	しょうめん/正面	-0.035206
-3.339621	しょうわ/昭和	-0.035206
-3.339621	しょく/植	-0.035206
-3.339621	しょく/食	-0.035206
-3.339621	しょくいん/職印	-0.035206
-3.339621	しょくばい/触媒	-0.035206
-3.339621	しょけい/処刑	-0.035206
-3.339621	しょっく/ショック	-0.035206
-3.213074	しよう/使用	-0.035206
-3.339621	しらせ/報せ	-0.035206
-3.339621	しれい/司令	-0.035206
-3.339621	しろ/白	-0.035206
-3.339621	しろう/四郎	-0.035206
-3.339621	しんかい/晋海	-0.035206
-3.339621	しんき/新規	-0.035206
-3.339621	しんけん/真剣	-0.035206
-3.339621	しんしゅつ/進出	-0.035206
-3.339621	しんじん/新人	-0.035206
-3.339621	しんすけ/紳助	-0.035206
-3.339621	しんだん/診断	-0.035206
-3.339621	しんとう/浸透	-0.035206
-3.339621	しんにゅう/侵入	-0.035206
-3.339621	しんりゃく/侵略	-0.035206
-3.339621	しんわ/神話	-0.035206
-3.213074	しーずん/シーズン	-0.035206
-3.339621	じ/じ	-0.035206
-3.339621	じ/寺	-0.035206
-3.339621	じ/時	-0.035206
-3.339621	じ/次	-0.035206
-3.339621	じかん/時間	-0.035206
-3.213074	じぎょう/事業	-0.297697
-3.339621	じけつ/自決	-0.035206
-3.339621	じしん/地震	-0.035206
-2.767151	じだい/時代	-0.154221
-3.339621	じっしょう/実証	-0.035206
-3.339621	じてん/時点	-0.035206
-3.339621	じぶん/自分	-0.035206
-3.339621	じゅう/中	-0.035206
-3.339621	じゅう/十	-0.035206
-3.339621	じゅうぐん/従軍	-0.035206
-3.339621	じゅうげき/銃撃	-0.035206
-3.339621	じゅうし/銃士	-0.035206
-3.213074	じゅうじ/従事	-0.297697
-3.339621	じょ/序	-0.035206
-3.339621	じょう/上	-0.035206
-3.213074	じょう/城	-0.035206
-3.213074	じょう/場	-0.035206
-3.339621	じょうえん/上演	-0.035206
-3.339621	じょうしょう/上昇	-0.035206
-3.339621	じょうほう/情報	-0.035206
-2.670279	じょくん/叙勲	-0.127666
-3.339621	じょし/女子	-0.035206
-3.339621	じょせい/女性	-0.035206
-3.339621	じょなさん/ジョナサン	-0.035206
-3.213074	じん/人	-0.035206
-3.339621	じんせい/人生	-0.035206
-3.339621	じんぶつ/人物	-0.035206
-3.339621	じんみん/人民	-0.035206
-2.892027	す/す	-0.035206
-3.339621	すいらい/水雷	-0.035206
-3.339621	すう/数	-0.035206
-3.339621	すえ/末	-0.035206
-3.339621	すき/好き	-0.035206
-3.213074	すきー/スキー	-0.035206
-3.339621	すこてぃあ/スコティア	-0.035206
-3.339621	すご/凄	-0.035206
-3.339621	すたんど/スタンド	-0.035206
-3.339621	すぽーつ/スポーツ	-0.035206
-2.047146	する/する	-0.177472
-3.339621	するたん/スルタン	-0.035206
-3.213074	ず/ず	-0.035206
-3.213074	せ/せ	-0.035206
-3.339621	せい/制	-0.035206
-3.339621	せい/性	-0.035206
-3.339621	せい/生	-0.035206
-3.339621	せいかつ/生活	-0.035206
-3.339621	せいこう/成功	-0.035206
-3.339621	せいじ/政治	-0.035206
-3.339621	せいせき/成績	-0.035206
-3.339621	せいちょう/政庁	-0.035206
-3.339621	せいと/生徒	-0.035206
-3.213074	せいど/制度	-0.297697
-3.213074	せいひん/製品	-0.297697
-3.339621	せいび/整備	-0.035206
-3.339621	せいふく/制服	-0.035206
-3.339621	せいまご/世孫	-0.035206
-3.339621	せいむ/政務	-0.035206
-2.670279	せかい/世界	-0.035206
-3.339621	せかんど/セカンド	-0.035206
-3.339621	せき/赤	-0.035206
-3.339621	せき/隻	-0.035206
-3.339621	せっけい/設計	-0.035206
-3.339621	せっこう/浙江	-0.035206
-3.339621	せっち/設置	-0.035206
-3.213074	せつ/説	-0.035206
-3.339621	せつやく/節約	-0.035206
-3.339621	せの/瀬乃	-0.035206
-3.339621	せま/迫	-0.035206
-3.339621	せらー/セラー	-0.035206
-3.213074	せるてぃっくす/セルティックス	-0.035206
-2.892027	せん/戦	-0.035206
-3.339621	せん/船	-0.035206
-3.339621	せんきゅうひゃくきゅうじゅうきゅう/１９９９	-0.035206
-3.339621	せんきゅうひゃくきゅうじゅうはち/１９９８	-0.035206
-3.339621	せんきゅうひゃくはちじゅうなな/１９８７	-0.035206
-3.339621	せんきゅうひゃくはちじゅうはち/１９８８	-0.035206
-3.339621	せんし/戦死	-0.035206
-3.339621	せんしゅ/選手	-0.035206
-3.339621	せんしょく/染色	-0.035206
-3.339621	せんす/センス	-0.035206
-2.892027	せんそう/戦争	-0.035206
-3.339621	せんたい/船体	-0.035206
-3.339621	せんとう/先頭	-0.035206
-3.339621	せんとう/戦闘	-0.035206
-3.339621	せんない/船内	-0.035206
-3.339621	せんねん/専念	-0.035206
-3.339621	せんもん/専門	-0.035206
-3.339621	せんれつ/鮮烈	-0.035206
-2.892027	ぜん/全	-0.035206
-3.339621	ぜんいん/全員	-0.035206
-3.339621	ぜんこう/全校	-0.035206
-3.339621	そうこう/走行	-0.035206
-3.339621	そうだ/操舵	-0.035206
-3.339621	そうだん/相談	-0.035206
-3.339621	そうちゃく/装着	-0.035206
-3.339621	そうは/争覇	-0.035206
-3.339621	そうび/装備	-0.035206
-3.339621	そこく/祖国	-0.035206
-3.339621	そして/そして	-0.035206
-3.339621	そだ/育	-0.035206
-3.339621	そだて/育て	-0.035206
-3.339621	そつ/卒	-0.035206
-3.339621	そつぎょう/卒業	-0.035206
-2.524195	その/その	-0.072588
-3.339621	そらも/空燃	-0.035206
-3.339621	そりゅーしょん/ソリューション	-0.035206
-3.339621	そるがむ/ソルガム	-0.035206
-3.213074	そるごー/ソルゴー	-0.035206
-3.339621	それ/それ	-0.035206
-3.339621	そんざい/存在	-0.035206
-3.339621	ぞうちく/増築	-0.035206
-2.138908	た/た	-0.189238
-3.339621	た/立	-0.035206
-3.339621	たい/対	-0.035206
-3.213074	たい/隊	-0.035206
-3.339621	たいい/大尉	-0.035206
-3.339621	たいえき/退役	-0.035206
-3.339621	たいき/待機	-0.035206
-3.339621	たいくつ/退屈	-0.035206
-3.339621	たいせん/大戦	-0.035206
-3.339621	たいぷ/タイプ	-0.035206
-3.213074	たいへい/太平	-0.297697
-3.339621	たえ/絶え	-0.035206
-2.767151	たか/多賀	-0.154221
-3.339621	たかおう/多嘉王	-0.035206
-3.339621	たかくら/高倉	-0.035206
-3.339621	たかさか/高坂	-0.035206
-3.339621	たかはし/高橋	-0.035206
-3.213074	たがい/互い	-0.035206
-3.339621	たけ/嶽	-0.035206
-3.339621	たたか/戦	-0.035206
-3.339621	たたかい/闘い	-0.035206
-3.339621	ただし/ただし	-0.035206
-3.339621	ただちに/直ちに	-0.035206
-3.339621	たち/達	-0.035206
-3.339621	たちあげ/立ち上げ	-0.035206
-3.339621	たつじん/達人	-0.035206
-3.339621	たて/立て	-0.035206
-3.339621	たて/縦	-0.035206
-3.339621	たとえ/喩え	-0.035206
-3.339621	たの/頼	-0.035206
-3.339621	たび/旅	-0.035206
-2.767151	ため/ため	-0.206847
-3.339621	たゆう/太夫	-0.035206
-3.339621	たんじょう/誕生	-0.035206
-3.339621	たんぱく/タンパク	-0.035206
-3.339621	たんぱく/淡白	-0.035206
-3.339621	たんれい/端麗	-0.035206
-2.892027	だ/だ	-0.035206
-3.339621	だ/出	-0.035206
-3.213074	だい/代	-0.035206
-2.892027	だい/大	-0.035206
-2.670279	だい/第	-0.110823
-3.339621	だいかん/代官	-0.035206
-3.339621	だいがく/大学	-0.035206
-3.339621	だいしょうすけ/大賞典	-0.035206
-3.339621	だいひょう/代表	-0.035206
-3.339621	だいよう/代用	-0.035206
-3.339621	だしゃ/打者	-0.035206
-2.892027	だっ/だっ	-0.202441
-3.339621	だっしゅつ/脱出	-0.035206
-3.339621	だぶる/ダブル	-0.035206
-2.892027	だりつ/打率	-0.191600
-3.339621	だれ/誰	-0.035206
-3.339621	だん/弾	-0.035206
-3.339621	だんせい/弾性	-0.035206
-3.339621	ち/ち	-0.035206
-3.339621	ちいき/地域	-0.035206
-3.339621	ちぇすと/チェスト	-0.035206
-3.339621	ちか/近	-0.035206
-3.339621	ちから/力	-0.035206
-3.339621	ちぎょう/知行	-0.035206
-3.339621	ちぐさ/千草	-0.035206
-3.339621	ちちおや/父親	-0.035206
-3.213074	ちゃく/着	-0.035206
-3.339621	ちゃーと/チャート	-0.035206
-3.213074	ちゅう/中	-0.035206
-3.339621	ちゅうか/中華	-0.035206
-3.339621	ちゅうしゃ/駐車	-0.035206
-3.339621	ちゅうだん/中団	-0.035206
-3.339621	ちゅうとう/中東	-0.035206
-2.892027	ちょう/長	-0.035206
-3.339621	ちょうさ/調査	-0.035206
-3.339621	ちょうし/調子	-0.035206
-3.339621	ちょうせん/朝鮮	-0.035206
-3.339621	ちようこ/蝶子	-0.035206
-3.339621	ちんたい/賃貸	-0.035206
-3.339621	ちーむ/チーム	-0.035206
-2.090608	っ/っ	-0.746509
-2.591123	つ/つ	-0.106401
-3.339621	つ/付	-0.035206
-3.339621	つ/就	-0.035206
-3.339621	つうさん/通算	-0.035206
-3.339621	つうしん/通信	-0.035206
-3.213074	つうじょう/通常	-0.035206
-3.213074	つか/使	-0.035206
-3.339621	つかい/つかい	-0.035206
-3.339621	つかえ/使え	-0.035206
-3.339621	つきあ/付き合	-0.035206
-3.339621	つけ/着け	-0.035206
-3.339621	つつ/つつ	-0.035206
-3.339621	つづ/続	-0.035206
-3.339621	つづけ/続け	-0.035206
-3.339621	つとめ/務め	-0.035206
-3.339621	つね/常	-0.035206
-3.213074	つよ/強	-0.297697
-2.114087	て/て	-0.182760
-3.339621	て/手	-0.035206
-3.339621	てい/艇	-0.035206
-3.339621	ていきょう/提供	-0.035206
-3.339621	ていど/程度	-0.035206
-2.524195	てき/的	-0.169848
-3.339621	てばな/手放	-0.035206
-3.339621	てれ/照れ	-0.035206
-3.339621	てんし/天使	-0.035206
-3.339621	てんしよう/天正	-0.035206
-3.339621	てんのう/天皇	-0.035206
-1.661816	で/で	-0.209065
-3.339621	でいりー/デイリー	-0.035206
-3.213074	でき/でき	-0.035206
-3.339621	です/です	-0.035206
-3.339621	でんげき/電撃	-0.035206
-3.339621	でんれい/伝令	-0.035206
-1.746134	と/と	-0.258398
-3.339621	と/問	-0.035206
-3.339621	とうきょう/とうきょう	-0.035206
-3.213074	とうきょう/東京	-0.035206
-3.339621	とうげ/峠	-0.035206
-3.339621	とうげん/桃源	-0.035206
-3.339621	とうさつ/盗撮	-0.035206
-3.339621	とうしゅ/当主	-0.035206
-3.339621	とうじ/当時	-0.035206
-3.339621	とうじょう/登場	-0.035206
-3.339621	とうちゃく/到着	-0.035206
-3.339621	とうなーけん/とうなーけん	-0.035206
-3.339621	とうひょう/投票	-0.035206
-3.339621	とうろく/登録	-0.035206
-3.339621	とおざけ/遠ざけ	-0.035206
-3.339621	とき/とき	-0.035206
-3.213074	とき/時	-0.297697
-3.339621	とくちょう/特徴	-0.035206
-3.339621	とくに/とくに	-0.035206
-3.339621	ところ/ところ	-0.035206
-3.339621	とし/都市	-0.035206
-3.339621	としあき/敏明	-0.035206
-3.339621	としょ/図書	-0.035206
-3.339621	とっぷ/トップ	-0.035206
-3.339621	とつぜん/突然	-0.035206
-3.339621	ととのえ/整え	-0.035206
-3.339621	となえ/唱え	-0.035206
-3.339621	とまつ/塗抹	-0.035206
-3.339621	とも/とも	-0.035206
-3.339621	ともこ/智子	-0.035206
-3.339621	とよみ/豊見	-0.035206
-3.339621	とりしらべ/取り調べ	-0.035206
-3.339621	とりにだーど/トリニダード	-0.035206
-3.339621	とりもど/取り戻	-0.035206
-3.339621	とりわけ/取り分け	-0.035206
-3.339621	とれんとん/トレントン	-0.035206
-3.339621	とろふぉぞいと/トロフォゾイト	-0.035206
-3.339621	とんぼ/とんぼ	-0.035206
-3.339621	ど/度	-0.035206
-3.339621	どいつ/ドイツ	-0.035206
-3.339621	どういん/動員	-0.035206
-3.339621	どうちゅう/道中	-0.035206
-3.213074	どうぶつ/動物	-0.035206
-3.339621	どうろ/道路	-0.035206
-3.339621	どくしょう/独唱	-0.035206
-3.339621	どくだん/独断	-0.035206
-3.339621	どちゃく/土着	-0.035206
-3.339621	どらま/ドラマ	-0.035206
-3.339621	どれん/ドレン	-0.035206
-3.339621	どーぱんと/ドーパント	-0.035206
-2.047146	な/な	-0.169037
-3.339621	ない/内	-0.035206
-3.339621	ないかく/内閣	-0.035206
-3.339621	ないそう/内装	-0.035206
-3.339621	なおひろ/直弘	-0.035206
-3.339621	なか/中	-0.035206
-3.339621	なかの/中野	-0.035206
-3.339621	ながよし/長可	-0.035206
-3.213074	ながら/ながら	-0.035206
-3.213074	なす/ナス	-0.035206
-3.339621	なつば/夏場	-0.035206
-2.670279	など/など	-0.122156
-3.339621	なな/七	-0.035206
-3.339621	なまえ/名前	-0.035206
-3.339621	なん/何	-0.035206
-3.339621	なんて/なんて	-0.035206
-3.339621	なんぶ/南部	-0.035206
-3.339621	なんぼくちょう/南北朝	-0.035206
-3.339621	なーせる/ナーセル	-0.035206
-1.360794	に/に	-0.155465
-3.213074	に/二	-0.035206
-3.339621	にが/苦	-0.035206
-3.339621	にく/肉	-0.035206
-3.339621	にしよどがわ/西淀川	-0.035206
-3.339621	にせんご/２００５	-0.035206
-3.339621	にせんじゅういち/２０１１	-0.035206
-3.339621	にせんじゅうに/２０１２	-0.035206
-3.339621	にせんなな/２００７	-0.035206
-3.213074	にち/日	-0.035206
-3.339621	にちろ/日露	-0.035206
-3.339621	にっぽん/日本	-0.035206
-3.339621	にほん/日本	-0.035206
-3.339621	にゅうせん/入選	-0.035206
-2.892027	にん/人	-0.191600
-3.213074	にんき/人気	-0.035206
-3.339621	にんてい/認定	-0.035206
-3.339621	にんむ/任務	-0.035206
-3.339621	ねっと/ネット	-0.035206
-2.047146	ねん/年	-0.227683
-1.335971	の/の	-0.059223
-3.339621	の/野	-0.035206
-3.339621	のいず/ノイズ	-0.035206
-3.339621	のう/農	-0.035206
-3.339621	のこり/残り	-0.035206
-3.339621	のび/伸び	-0.035206
-1.725931	は/は	-0.123151
-3.339621	は/張	-0.035206
-3.339621	は/波	-0.035206
-3.339621	はあく/把握	-0.035206
-3.339621	はい/入	-0.035206
-3.339621	はい/杯	-0.035206
-3.213074	はいき/排気	-0.297697
-3.339621	はいしん/配信	-0.035206
-3.339621	はいせん/敗戦	-0.035206
-3.339621	はいぞく/配属	-0.035206
-3.339621	はいふ/配布	-0.035206
-3.339621	はいぼく/敗北	-0.035206
-3.339621	はいゆう/俳優	-0.035206
-3.339621	はがー/ハガー	-0.035206
-3.339621	はくい/白衣	-0.035206
-3.339621	はじめ/始め	-0.035206
-3.339621	はせがわ/長谷川	-0.035206
-3.339621	はそん/破損	-0.035206
-3.339621	はた/秦	-0.035206
-3.339621	はだに/ハダニ	-0.035206
-3.339621	はっかく/発覚	-0.035206
-3.339621	はっしゃ/発射	-0.035206
-3.339621	はっぴょう/発表	-0.035206
-3.213074	はつ/初	-0.297697
-3.213074	はつね/初音	-0.297697
-3.339621	はるあき/春秋	-0.035206
-3.213074	はんざい/犯罪	-0.035206
-3.339621	はんすう/半数	-0.035206
-3.339621	はんぱつ/反発	-0.035206
-3.339621	はんもと/版元	-0.035206
-3.213074	ば/ば	-0.035206
-3.339621	ば/場	-0.035206
-2.892027	ばあい/場合	-0.035206
-3.339621	ばくりょう/幕僚	-0.035206
-3.339621	ばす/バス	-0.035206
-3.339621	ばすたー/バスター	-0.035206
-3.339621	ばっく/バック	-0.035206
-3.339621	ばん/版	-0.035206
-3.213074	ばん/番	-0.035206
-3.339621	ばんぞく/蛮族	-0.035206
-3.339621	ばんのう/万能	-0.035206
-3.339621	ばーくれい/バークレイ	-0.035206
-3.339621	ばーぐ/バーグ	-0.035206
-3.339621	ひ/妃	-0.035206
-3.339621	ひ/日	-0.035206
-3.339621	ひ/比	-0.035206
-3.339621	ひがしな/東那	-0.035206
-3.339621	ひがしまつやま/東松山	-0.035206
-3.339621	ひきと/引き取	-0.035206
-3.339621	ひっと/ヒット	-0.035206
-3.339621	ひてい/否定	-0.035206
-3.213074	ひと/ヒト	-0.035206
-3.339621	ひと/一	-0.035206
-3.339621	ひとり/１人	-0.035206
-3.339621	ひめはな/ヒメハナ	-0.035206
-3.339621	ひょう/票	-0.035206
-3.213074	ひょうげん/表現	-0.297697
-3.339621	ひよう/費用	-0.035206
-3.339621	ひろし/寛	-0.035206
-3.339621	ひろし/汎	-0.035206
-3.339621	ひろた/広食	-0.035206
-3.339621	ひろば/広場	-0.035206
-3.339621	ひん/品	-0.035206
-3.339621	び/日	-0.035206
-3.339621	び/美	-0.035206
-3.339621	びょういん/病院	-0.035206
-3.339621	びるぼーど/ビルボード	-0.035206
-3.213074	ぴくる/ピクル	-0.035206
-3.339621	ふ/府	-0.035206
-3.339621	ふ/振	-0.035206
-3.339621	ふぁすべんだー/ファスベンダー	-0.035206
-3.213074	ふぁー/ファー	-0.297697
-3.339621	ふぃじかる/フィジカル	-0.035206
-3.339621	ふうけい/風景	-0.035206
-3.339621	ふぇいす/フェイス	-0.035206
-3.339621	ふぇーざー/フェーザー	-0.035206
-3.339621	ふぉっくす/フォックス	-0.035206
-3.339621	ふきん/付近	-0.035206
-3.213074	ふく/含	-0.297697
-3.339621	ふさわし/ふさわし	-0.035206
-3.339621	ふしぎ/不思議	-0.035206
-3.339621	ふしん/不審	-0.035206
-3.339621	ふたたび/再び	-0.035206
-3.339621	ふたり/二人	-0.035206
-3.339621	ふたり/２人	-0.035206
-3.339621	ふなこし/船越	-0.035206
-3.339621	ふなばし/船橋	-0.035206
-3.339621	ふみひこ/文彦	-0.035206
-3.339621	ふみやす/文保	-0.035206
-3.339621	ふめい/不明	-0.035206
-3.339621	ふるい/ふるい	-0.035206
-3.339621	ふるく/古く	-0.035206
-3.339621	ふん/分	-0.035206
-3.339621	ぶ/ぶ	-0.035206
-3.339621	ぶ/部	-0.035206
-3.213074	ぶか/部下	-0.035206
-3.339621	ぶしゅう/武州	-0.035206
-3.339621	ぶそう/武装	-0.035206
-3.213074	ぶたい/部隊	-0.035206
-3.339621	ぶよう/舞踊	-0.035206
-3.339621	ぶらざーず/ブラザーズ	-0.035206
-3.339621	ぶろー/ブロー	-0.035206
-3.339621	ぶんげい/文芸	-0.035206
-3.339621	ぶんせき/分析	-0.035206
-3.339621	ぷらちな/プラチナ	-0.035206
-3.339621	ぷれてすと/プレテスト	-0.035206
-3.213074	へ/へ	-0.035206
-3.339621	へ/経	-0.035206
-3.339621	へくたーる/ヘクタール	-0.035206
-3.339621	へん/変	-0.035206
-3.339621	へんか/変化	-0.035206
-3.339621	へんじ/返事	-0.035206
-3.339621	べ/べ	-0.035206
-3.339621	べいぐん/米軍	-0.035206
-3.339621	べすと/ベスト	-0.035206
-3.339621	べんぐつそん/ベングツソン	-0.035206
-3.339621	ぺてぃ/ペティ	-0.035206
-2.767151	ぺーじ/頁	-0.146915
-3.339621	ほう/法	-0.035206
-3.339621	ほう/砲	-0.035206
-3.339621	ほうこく/報告	-0.035206
-3.339621	ほうしゅつ/放出	-0.035206
-3.339621	ほうしょう/褒章	-0.035206
-3.339621	ほうしん/砲身	-0.035206
-3.339621	ほうじん/法人	-0.035206
-3.213074	ほうせい/法政	-0.035206
-3.339621	ほくと/ホクト	-0.035206
-3.339621	ほくぶ/北部	-0.035206
-3.339621	ほしょく/捕食	-0.035206
-3.339621	ほぜん/保全	-0.035206
-3.339621	ほっぽう/北方	-0.035206
-3.339621	ほどこ/施	-0.035206
-3.339621	ほんのう/本能	-0.035206
-3.339621	ほんみょう/本名	-0.035206
-3.339621	ほんらい/本来	-0.035206
-3.339621	ぼいす/ボイス	-0.035206
-3.213074	ぼうえい/防衛	-0.035206
-3.339621	ぼうご/防護	-0.035206
-3.339621	ぼうだん/防弾	-0.035206
-3.339621	ぼくし/牧師	-0.035206
-3.339621	ぼこぼこ/ボコボコ	-0.035206
-3.339621	ぼっ/ぼっ	-0.035206
-3.339621	ぼっぱつ/勃発	-0.035206
-3.339621	ぼびー/ボビー	-0.035206
-3.339621	ぽーかー/ポーカー	-0.035206
-3.339621	ぽーとらんど/ポートランド	-0.035206
-3.339621	ま/ま	-0.035206
-3.339621	まいける/マイケル	-0.035206
-3.213074	まえ/前	-0.035206
-3.339621	まき/巻	-0.035206
-3.339621	まさと/正人	-0.035206
-3.339621	まじ/まじ	-0.035206
-3.339621	まじえ/交え	-0.035206
-3.339621	また/また	-0.035206
-3.339621	まち/町	-0.035206
-3.339621	まっしょう/末梢	-0.035206
-3.339621	まっする/マッスル	-0.035206
-3.339621	まっど/マッド	-0.035206
-3.339621	まつ/末	-0.035206
-3.339621	まつい/松井	-0.035206
-3.339621	まつやま/松山	-0.035206
-3.213074	まで/まで	-0.035206
-3.339621	まと/まと	-0.035206
-3.339621	まと/的	-0.035206
-3.339621	まにら/マニラ	-0.035206
-3.339621	まね/招	-0.035206
-3.339621	まま/まま	-0.035206
-3.339621	まりーあ/マリーア	-0.035206
-3.339621	まんが/まんが	-0.035206
-3.339621	まんが/漫画	-0.035206
-3.339621	まんざい/漫才	-0.035206
-3.339621	まーくるんど/マークルンド	-0.035206
-3.339621	まーけっと/マーケット	-0.035206
-3.339621	み/見	-0.035206
-3.339621	み/身	-0.035206
-3.339621	みく/ミク	-0.035206
-3.213074	みちの/美智乃	-0.035206
-3.339621	みっくみく/みっくみく	-0.035206
-3.339621	みの/美濃	-0.035206
-3.339621	みりょう/魅了	-0.035206
-3.339621	みりょく/魅力	-0.035206
-3.339621	みんせい/民生	-0.035206
-3.339621	む/む	-0.035206
-3.339621	むか/向か	-0.035206
-3.213074	むけ/向け	-0.035206
-3.339621	むす/結	-0.035206
-3.339621	むだ/無駄	-0.035206
-3.339621	め/目	-0.035206
-3.339621	めいぎ/名義	-0.035206
-3.213074	めいじ/明治	-0.035206
-3.339621	めがね/眼鏡	-0.035206
-3.339621	めぐろ/目黒	-0.035206
-3.339621	めざ/目指	-0.035206
-3.339621	めだ/目立	-0.035206
-3.339621	めんどう/面倒	-0.035206
-3.339621	めんばー/メンバー	-0.035206
-2.193259	も/も	-0.035206
-3.339621	も/持	-0.035206
-3.339621	も/盛	-0.035206
-3.339621	もう/網	-0.035206
-3.339621	もうり/毛利	-0.035206
-3.339621	もたら/もたら	-0.035206
-3.339621	もと/元	-0.035206
-2.767151	もの/もの	-0.035206
-3.339621	もの/者	-0.035206
-3.339621	ものがたり/物語	-0.035206
-3.339621	ものごと/物事	-0.035206
-3.339621	もも/もも	-0.035206
-3.339621	もよう/模様	-0.035206
-3.339621	もり/森	-0.035206
-2.466216	や/や	-0.035206
-3.339621	やく/役	-0.035206
-3.213074	やく/約	-0.035206
-3.339621	やっと/やっと	-0.035206
-3.339621	やよい/弥生	-0.035206
-3.339621	やん/やん	-0.035206
-3.339621	ゆうしゅう/優秀	-0.035206
-3.339621	ゆうしょう/優勝	-0.035206
-3.339621	ゆうよ/猶予	-0.035206
-3.339621	ゆうれい/ユウレイ	-0.035206
-3.213074	よ/よ	-0.035206
-3.339621	よ/呼	-0.035206
-2.892027	よう/よう	-0.035206
-3.339621	よう/洋	-0.035206
-3.339621	ようかい/妖怪	-0.035206
-3.213074	ようし/容姿	-0.035206
-3.339621	よくちょう/翌朝	-0.035206
-3.339621	よばい/夜這い	-0.035206
-3.339621	よびだ/呼び出	-0.035206
-3.339621	よみ/読み	-0.035206
-3.339621	よろこ/喜	-0.035206
-3.339621	よんじゅういち/四一	-0.035206
-3.339621	よーろっぱ/ヨーロッパ	-0.035206
-2.369325	ら/ら	-0.127666
-3.339621	らいん/ライン	-0.035206
-3.339621	らずふぁーど/ラズファード	-0.035206
-2.591123	られ/られ	-0.106401
-3.339621	らんきんぐ/ランキング	-0.035206
-3.339621	らんくいん/ランクイン	-0.035206
-3.339621	らーる/ラール	-0.035206
-2.767151	り/り	-0.206847
-3.339621	りくじょう/陸上	-0.035206
-3.339621	りくろ/陸路	-0.035206
-3.339621	りつ/立	-0.035206
-3.213074	りま/りま	-0.035206
-3.339621	りゅう/龍	-0.035206
-3.339621	りゅうじ/龍治	-0.035206
-3.339621	りょういき/領域	-0.035206
-3.339621	りよん/リヨン	-0.035206
-3.339621	りりーす/リリース	-0.035206
-3.339621	りん/林	-0.035206
-3.339621	りーぐ/リーグ	-0.035206
-2.068333	る/る	-0.144176
-2.670279	れ/れ	-0.174235
-3.213074	れい/令	-0.035206
-3.339621	れおん/レオン	-0.035206
-3.339621	れきし/歴史	-0.035206
-3.339621	れこーど/レコード	-0.035206
-3.339621	れっど/レッド	-0.035206
-3.339621	れつ/列	-0.035206
-3.339621	ればのん/レバノン	-0.035206
-3.339621	れんぽう/連邦	-0.035206
-3.339621	ろういん/老院	-0.035206
-3.339621	ろく/六	-0.035206
-3.339621	ろせん/路線	-0.035206
-3.339621	ろれーた/ロレータ	-0.035206
-3.339621	ろんぶん/論文	-0.035206
-2.767151	わ/わ	-0.327380
-3.339621	わか/若	-0.035206
-3.339621	わしんとん/ワシントン	-0.035206
-3.339621	わずか/わずか	-0.035206
-3.339621	わた/亘	-0.035206
-3.339621	わたし/私	-0.035206
-3.339621	わたり/渡り	-0.035206
-3.339621	わたる/渉	-0.035206
-3.339621	わよ/和与	-0.035206
-3.339621	わんしょう/腕章	-0.035206
-3.339621	わーなー/ワーナー	-0.035206
-1.450314	を/を	-0.066440
-3.213074	ん/ん	-0.035206
-2.047146	・/・	-0.035206
-3.213074	ー/ー	-0.035206
-2.165234	（/（	-0.057666
-2.223219	）/）	-0.181950
-2.892027	．/．	-0.146915
-3.339621	０/０	-0.035206
-3.339621	０００/０００	-0.035206
-3.213074	１/１	-0.035206
-3.213074	１０/１０	-0.035206
-3.213074	１２/１２	-0.035206
-3.339621	１３/１３	-0.035206
-3.339621	１４/１４	-0.035206
-3.339621	１７/１７	-0.035206
-3.339621	１８/１８	-0.035206
-3.339621	１９０１/１９０１	-0.035206
-3.339621	１９０７/１９０７	-0.035206
-3.339621	１９４２/１９４２	-0.035206
-3.339621	１９４４/１９４４	-0.035206
-3.339621	１９５６/１９５６	-0.035206
-2.466216	２/２	-0.035206
-3.339621	２０００/２０００	-0.035206
-3.339621	２１/２１	-0.035206
-3.339621	２４/２４	-0.035206
-3.339621	２６/２６	-0.035206
-2.670279	３/３	-0.035206
-3.339621	３００/３００	-0.035206
-3.339621	３１/３１	-0.035206
-3.213074	３４/３４	-0.035206
-3.339621	３５/３５	-0.035206
-3.339621	３９/３９	-0.035206
-3.339621	３９３/３９３	-0.035206
-2.892027	４/４	-0.035206
-3.339621	４０/４０	-0.035206
-3.339621	４４/４４	-0.035206
-3.339621	４５/４５	-0.035206
-3.213074	５/５	-0.035206
-3.339621	５０/５０	-0.035206
-3.339621	５０００/５０００	-0.035206
-3.339621	５３３/５３３	-0.035206
-3.339621	５３６/５３６	-0.035206
-3.339621	５３７/５３７	-0.035206
-3.339621	５７/５７	-0.035206
-2.892027	６/６	-0.191600
-3.339621	６２/６２	-0.035206
-3.213074	７/７	-0.035206
-3.339621	７１/７１	-0.035206
-2.892027	８/８	-0.191600
-3.339621	８００/８００	-0.035206
-2.767151	９/９	-0.035206
-3.213074	：/：	-0.035206
-3.213074	＝/＝	-0.035206

\2-grams:
-0.583800	<s> </s>	-0.074524
-2.377146	<s> 「/「	-0.021934
-3.015277	<s> あきひろ/空広	-0.021934
-3.015277	<s> あさくら/朝倉	-0.021934
-2.813579	<s> あと/後	-0.021934
-3.015277	<s> あにめ/アニメ	-0.021934
-3.015277	<s> いってい/一定	-0.021934
-2.969596	<s> いんたい/引退	-0.021934
-3.015277	<s> おうごん/黄金	-0.021934
-3.015277	<s> おおさか/大阪	-0.021934
-3.015277	<s> おぐら/小倉	-0.021934
-2.969596	<s> おりこん/オリコン	-0.021934
-3.015277	<s> かみのうがね/上納金	-0.021934
-2.969596	<s> かれ/彼	-0.021934
-2.969596	<s> かんこく/韓国	-0.021934
-3.015277	<s> かんさい/関西	-0.021934
-3.015277	<s> かんめい/艦名	-0.021934
-2.969596	<s> がいこく/外国	-0.021934
-3.015277	<s> がくえん/学園	-0.021934
-3.015277	<s> く/食	-0.021934
-3.015277	<s> ぐんぶ/軍部	-0.021934
-2.969596	<s> けい/計	-0.021934
-2.969596	<s> けん/剣	-0.021934
-2.813579	<s> げんざい/現在	-0.021934
-2.969596	<s> この/この	-0.021934
-2.969596	<s> これ/これ	-0.021934
-3.015277	<s> こーひー/コーヒー	-0.021934
-3.015277	<s> さいしょ/最初	-0.021934
-3.015277	<s> しいき/市域	-0.021934
-3.015277	<s> しかし/しかし	-0.021934
-3.015277	<s> しまだ/島田	-0.021934
-3.015277	<s> しゃんはい/上海	-0.021934
-2.969596	<s> しゅ/主	-0.021934
-3.015277	<s> しゅうり/修理	-0.021934
-2.813579	<s> しょう/賞	-0.021934
-3.015277	<s> しょけい/処刑	-0.021934
-3.015277	<s> しんだん/診断	-0.021934
-2.672185	<s> じょくん/叙勲	-0.021934
-3.015277	<s> すき/好き	-0.021934
-2.969596	<s> すきー/スキー	-0.021934
-3.015277	<s> せんきゅうひゃくきゅうじゅうきゅう/１９９９	-0.021934
-3.015277	<s> せんきゅうひゃくはちじゅうなな/１９８７	-0.021934
-3.015277	<s> せんきゅうひゃくはちじゅうはち/１９８８	-0.021934
-3.015277	<s> せんたい/船体	-0.021934
-2.813579	<s> ぜん/全	-0.021934
-3.015277	<s> そして/そして	-0.021934
-2.565693	<s> その/その	-0.114249
-3.015277	<s> ただし/ただし	-0.021934
-3.015277	<s> だ/出	-0.021934
-2.672185	<s> だい/第	-0.021934
-3.015277	<s> ちぎょう/知行	-0.021934
-3.015277	<s> ちぐさ/千草	-0.021934
-3.015277	<s> てんしよう/天正	-0.021934
-1.803459	<s> で/で	-0.021934
-2.969596	<s> とうきょう/東京	-0.021934
-3.015277	<s> とりしらべ/取り調べ	-0.021934
-3.015277	<s> とんぼ/とんぼ	-0.021934
-2.969596	<s> なす/ナス	-0.021934
-3.015277	<s> なな/七	-0.021934
-3.015277	<s> にしよどがわ/西淀川	-0.021934
-3.015277	<s> にせんじゅういち/２０１１	-0.021934
-3.015277	<s> にせんなな/２００７	-0.021934
-2.969596	<s> はんざい/犯罪	-0.021934
-3.015277	<s> ばーくれい/バークレイ	-0.021934
-3.015277	<s> ひがしな/東那	-0.021934
-3.015277	<s> びるぼーど/ビルボード	-0.021934
-2.969596	<s> ぴくる/ピクル	-0.021934
-3.015277	<s> ふぇいす/フェイス	-0.021934
-3.015277	<s> ふぇーざー/フェーザー	-0.021934
-3.015277	<s> ぷれてすと/プレテスト	-0.021934
-3.015277	<s> ほんみょう/本名	-0.021934
-2.969596	<s> ぼうえい/防衛	-0.021934
-3.015277	<s> ぼびー/ボビー	-0.021934
-3.015277	<s> また/また	-0.231635
-3.015277	<s> まち/町	-0.021934
-2.969596	<s> めいじ/明治	-0.021934
-2.969596	<s> ようし/容姿	-0.021934
-3.015277	<s> よーろっぱ/ヨーロッパ	-0.021934
-3.015277	<s> れっど/レッド	-0.021934
-3.015277	<s> ろく/六	-0.021934
-3.015277	<s> わか/若	-0.021934
-3.015277	<s> わたし/私	-0.021934
-2.969596	<s> １/１	-0.021934
-2.969596	<s> １２/１２	-0.021934
-3.015277	<s> １９０１/１９０１	-0.021934
-3.015277	<s> １９０７/１９０７	-0.021934
-2.520867	<s> ２/２	-0.021934
-3.015277	<s> ２０００/２０００	-0.021934
-3.015277	<s> ２１/２１	-0.021934
-1.404995	”/“ だぶる/ダブル	-0.021934
-1.144915	”/“ を/を	-0.021934
-2.072572	、/、 あいてむ/アイテム	-0.021934
-2.988535	、/、 あぶらむし/アブラムシ	-0.021934
-2.935570	、/、 あめりか/アメリカ	-0.021934
-2.988535	、/、 ある/ある	-0.021934
-2.072572	、/、 いぎりす/イギリス	-0.021934
-2.988535	、/、 いく/いく	-0.021934
-2.988535	、/、 いたりあ/イタリア	-0.021934
-2.988535	、/、 いわゆる/いわゆる	-0.021934
-2.935570	、/、 いんたい/引退	-0.021934
-2.988535	、/、 うちとみ/内冨	-0.021934
-2.988535	、/、 えいが/映画	-0.021934
-2.988535	、/、 えいだっく/エイダック	-0.021934
-2.988535	、/、 えぎ/榎木	-0.021934
-2.988535	、/、 おおく/多く	-0.021934
-2.935570	、/、 おりこん/オリコン	-0.021934
-2.988535	、/、 おんせん/温泉	-0.021934
-2.935570	、/、 かいしゃ/会社	-0.021934
-2.988535	、/、 かいしゅう/改修	-0.021934
-2.988535	、/、 かげ/影	-0.021934
-2.935570	、/、 がいこく/外国	-0.021934
-2.988535	、/、 がまーる/ガマール	-0.021934
-2.988535	、/、 がめとさいと/ガメトサイト	-0.021934
-2.988535	、/、 がーでぃあん/ガーディアン	-0.021934
-2.760328	、/、 きけん/危険	-0.021934
-2.988535	、/、 きゅうしゅう/九州	-0.021934
-2.988535	、/、 くろす/クロス	-0.021934
-2.988535	、/、 けっせい/結成	-0.021934
-2.935570	、/、 こうつう/交通	-0.021934
-2.988535	、/、 こうれい/高齢	-0.021934
-2.988535	、/、 こども/子供	-0.021934
-2.065790	、/、 この/この	-0.021934
-2.988535	、/、 こみっく/コミック	-0.021934
-2.065790	、/、 これ/これ	-0.021934
-2.988535	、/、 こんこーど/コンコード	-0.021934
-2.988535	、/、 さいあく/最悪	-0.021934
-2.935570	、/、 さいしゅう/最終	-0.021934
-2.988535	、/、 さいしん/最新	-0.021934
-2.935570	、/、 ざざーぐ/ザザーグ	-0.021934
-2.988535	、/、 しっこう/執行	-0.021934
-2.988535	、/、 してい/姉弟	-0.021934
-2.988535	、/、 しぼう/死亡	-0.021934
-2.988535	、/、 しゃりょう/車両	-0.021934
-2.988535	、/、 しゅりゅう/手榴	-0.021934
-2.988535	、/、 しんわ/神話	-0.021934
-2.935570	、/、 しーずん/シーズン	-0.021934
-2.988535	、/、 じゅう/十	-0.021934
-2.988535	、/、 すう/数	-0.021934
-2.988535	、/、 すご/凄	-0.021934
-2.607009	、/、 せかい/世界	-0.021934
-2.988535	、/、 せっこう/浙江	-0.021934
-2.935570	、/、 せるてぃっくす/セルティックス	-0.021934
-2.760328	、/、 せん/戦	-0.021934
-2.988535	、/、 せんとう/戦闘	-0.021934
-2.988535	、/、 せんない/船内	-0.021934
-1.933261	、/、 その/その	-0.021934
-2.988535	、/、 そらも/空燃	-0.021934
-2.988535	、/、 そるがむ/ソルガム	-0.021934
-2.935570	、/、 そるごー/ソルゴー	-0.021934
-2.072572	、/、 それ/それ	-0.231635
-2.988535	、/、 ぞうちく/増築	-0.021934
-2.988535	、/、 たいい/大尉	-0.021934
-2.935570	、/、 たがい/互い	-0.021934
-2.760328	、/、 だい/大	-0.021934
-2.988535	、/、 ちゅうしゃ/駐車	-0.021934
-2.988535	、/、 ちょうせん/朝鮮	-0.021934
-2.935570	、/、 つうじょう/通常	-0.021934
-2.988535	、/、 つづ/続	-0.021934
-2.988535	、/、 てれ/照れ	-0.021934
-2.988535	、/、 でんげき/電撃	-0.021934
-2.988535	、/、 とうさつ/盗撮	-0.021934
-2.072572	、/、 とうじ/当時	-0.021934
-2.988535	、/、 とくに/とくに	-0.021934
-2.988535	、/、 とつぜん/突然	-0.021934
-2.988535	、/、 とも/とも	-0.021934
-2.988535	、/、 とろふぉぞいと/トロフォゾイト	-0.021934
-2.988535	、/、 どれん/ドレン	-0.021934
-2.988535	、/、 ないかく/内閣	-0.021934
-2.988535	、/、 なん/何	-0.021934
-2.988535	、/、 なんぼくちょう/南北朝	-0.021934
-2.988535	、/、 にく/肉	-0.021934
-2.988535	、/、 にせんご/２００５	-0.021934
-2.988535	、/、 にせんじゅうに/２０１２	-0.021934
-2.988535	、/、 ねっと/ネット	-0.021934
-2.988535	、/、 のこり/残り	-0.021934
-2.935570	、/、 はいき/排気	-0.021934
-2.935570	、/、 はつね/初音	-0.021934
-2.988535	、/、 はるあき/春秋	-0.021934
-2.988535	、/、 ばんぞく/蛮族	-0.021934
-2.988535	、/、 ひろば/広場	-0.021934
-2.065790	、/、 ぴくる/ピクル	-0.231635
-2.988535	、/、 ふなばし/船橋	-0.021934
-2.988535	、/、 ぶそう/武装	-0.021934
-2.988535	、/、 ぺてぃ/ペティ	-0.021934
-2.988535	、/、 ぽーとらんど/ポートランド	-0.021934
-2.988535	、/、 まさと/正人	-0.021934
-2.988535	、/、 まにら/マニラ	-0.021934
-2.988535	、/、 めがね/眼鏡	-0.021934
-2.988535	、/、 ものごと/物事	-0.021934
-2.988535	、/、 もも/もも	-0.021934
-2.935570	、/、 やく/約	-0.021934
-2.935570	、/、 りま/りま	-0.021934
-2.988535	、/、 りよん/リヨン	-0.021934
-2.988535	、/、 ればのん/レバノン	-0.021934
-2.988535	、/、 れんぽう/連邦	-0.021934
-2.988535	、/、 わたる/渉	-0.021934
-2.988535	、/、 わーなー/ワーナー	-0.021934
-2.988535	、/、 ０００/０００	-0.021934
-2.935570	、/、 １２/１２	-0.021934
-2.072572	、/、 １９５６/１９５６	-0.231635
-2.988535	、/、 ３９/３９	-0.021934
-2.988535	、/、 ５０００/５０００	-0.021934
-2.760328	、/、 ６/６	-0.021934
-2.988535	、/、 ８００/８００	-0.021934
-2.323506	「/「 あお/青	-0.021934
-2.323506	「/「 うちのめ/打ちのめ	-0.021934
-2.323506	「/「 えさ/餌	-0.021934
-2.323506	「/「 おりじんきー/オリジンキー	-0.021934
-2.323506	「/「 かがく/科学	-0.021934
-2.310645	「/「 かんこく/韓国	-0.021934
-2.323506	「/「 くれない/紅	-0.021934
-2.323506	「/「 しゅうかん/週刊	-0.021934
-2.200924	「/「 せかい/世界	-0.021934
-2.323506	「/「 せの/瀬乃	-0.021934
-2.228981	「/「 たか/多賀	-0.021934
-2.323506	「/「 だれ/誰	-0.021934
-2.323506	「/「 てんし/天使	-0.021934
-2.310645	「/「 ぼうえい/防衛	-0.021934
-2.323506	「/「 ぼっ/ぼっ	-0.021934
-2.323506	「/「 まんざい/漫才	-0.021934
-2.323506	「/「 みっくみく/みっくみく	-0.021934
-2.323506	「/「 よばい/夜這い	-0.021934
-2.172349	」/」 こと/こと	-0.021934
-1.746789	」/」 で/で	-0.021934
-0.619872	」/」 と/と	-0.269957
-1.501647	」/」 に/に	-0.021934
-1.076221	」/」 の/の	-0.021934
-1.074630	」/」 を/を	-0.021934
-2.066036	」/」 （/（	-0.021934
-2.093851	」/」 ）/）	-0.021934
-2.336177	」/」 ５３６/５３６	-0.021934
-2.290244	」/」 ８/８	-0.021934
-0.840216	あ/あ っ/っ	-0.387375
-1.969205	あ/あ り/り	-0.231635
-0.569083	あ/あ る/る	-0.224432
-1.064796	あ/ア ・/・	-0.021934
-0.919339	あいだ/間 の/の	-0.021934
-1.074841	あいて/相手 （/（	-0.021934
-1.255877	あいてむ/アイテム と/と	-0.021934
-1.088970	あいてむ/アイテム の/の	-0.021934
-1.106299	あいりっしゅ/アイリッシュ はいゆう/俳優	-0.021934
-1.008965	あいるらんど/アイルランド で/で	-0.021934
-1.064796	あお/青 い/い	-0.021934
-1.078925	あか/あか ）/）	-0.021934
-0.919339	あかね/茜 の/の	-0.021934
-1.021365	あきひろ/空広 は/は	-0.021934
-0.919339	あこがれ/憧れ の/の	-0.021934
-0.927948	あさ/朝 に/に	-0.021934
-1.106299	あさくら/朝倉 か/家	-0.021934
-1.066787	あた/あた る/る	-0.021934
-0.993525	あたえ/与え 、/、	-0.021934
-1.008965	あたり/あたり で/で	-0.021934
-1.054978	あっか/悪化 さ/さ	-0.021934
-1.105508	あっぷ/アップ ”/“	-0.021934
-1.068786	あつま/集ま っ/っ	-0.021934
-1.179570	あと/後 に/に	-0.021934
-1.164321	あと/後 の/の	-0.021934
-1.496686	あと/後 も/も	-0.021934
-1.064796	あにか/アニカ ・/・	-0.021934
-1.106299	あにめ/アニメ ばん/版	-0.021934
-1.576422	あふりか/アフリカ かんけい/関係	-0.021934
-1.576422	あふりか/アフリカ せつ/説	-0.021934
-1.231728	あふりか/アフリカ を/を	-0.021934
-1.105508	あぶどぅん/アブドゥン ＝/＝	-0.021934
-0.956394	あぶらむし/アブラムシ を/を	-0.021934
-1.106299	あぷろーち/アプローチ なんぶ/南部	-0.021934
-1.106299	あまーすと/アマースト ばーぐ/バーグ	-0.021934
-1.375868	あめりか/アメリカ や/や	-0.021934
-1.404995	あめりか/アメリカ れこーど/レコード	-0.021934
-1.064796	あやし/怪し い/い	-0.021934
-1.106299	あらぶ/アラブ しゅぎ/主義	-0.021934
-1.102101	あらわ/表 す/す	-0.021934
-1.106299	ある/ある ていど/程度	-0.021934
-1.105508	あるばむ/アルバム ”/“	-0.021934
-1.106299	あわー/アワー ばっく/バック	-0.021934
-1.064796	あんな/アンナ ・/・	-0.021934
-1.895544	い/い </s>	-0.231635
-1.675013	い/い 、/、	-0.021934
-2.111690	い/い 」/」	-0.021934
-2.557968	い/い いじ/意地	-0.021934
-1.491383	い/い う/う	-0.021934
-1.715248	い/い が/が	-0.021934
-2.255658	い/い く/く	-0.021934
-2.557968	い/い けいけん/経験	-0.021934
-2.280756	い/い こと/こと	-0.021934
-2.557968	い/い そうび/装備	-0.021934
-1.439995	い/い た/た	-0.129197
-2.434083	い/い ため/ため	-0.021934
-2.557968	い/い たんぱく/タンパク	-0.021934
-2.557968	い/い ちから/力	-0.021934
-2.078018	い/い っ/っ	-0.231635
-0.871957	い/い て/て	-0.168988
-2.557968	い/い なか/中	-0.021934
-1.442558	い/い の/の	-0.021934
-2.557968	い/い まま/まま	-0.021934
-2.434083	い/い もの/もの	-0.021934
-2.557968	い/い もの/者	-0.021934
-2.540599	い/い ようし/容姿	-0.021934
-2.557968	い/い りゅう/龍	-0.021934
-1.428953	い/い る/る	-0.487950
-1.365505	い/位 、/、	-0.021934
-1.224420	い/位 に/に	-0.021934
-1.207543	い/位 の/の	-0.021934
-1.282649	い/位 を/を	-0.021934
-1.087210	い/行 く/く	-0.021934
-1.333309	い/言 っ/っ	-0.021934
-1.392439	い/言 わ/わ	-0.436321
-0.919339	いぇーがん/イェーガン の/の	-0.021934
-1.005486	いか/生か し/し	-0.021934
-0.927948	いがい/以外 に/に	-0.021934
-1.070795	いき/生き て/て	-0.021934
-1.404995	いぎりす/イギリス かいきょう/海峡	-0.021934
-1.228976	いぎりす/イギリス で/で	-0.021934
-1.095656	いく/いく つ/つ	-0.021934
-1.041595	いし/石 </s>	-0.021934
-0.956394	いしょう/衣装 を/を	-0.021934
-1.003757	いじ/意地 が/が	-0.021934
-1.005486	いじゅう/移住 し/し	-0.021934
-1.066787	いた/至 る/る	-0.021934
-0.919339	いたりあ/イタリア の/の	-0.021934
-1.105508	いだ/抱 き/き	-0.021934
-1.099942	いち/一 ごう/号	-0.021934
-1.326000	いち/位置 する/する	-0.231635
-1.101754	いち/位置 に/に	-0.021934
-1.008965	いちよ/一代 で/で	-0.021934
-1.078925	いっしゅ/一種 ）/）	-0.021934
-0.927948	いっしょ/一緒 に/に	-0.021934
-0.919339	いってい/一定 の/の	-0.021934
-0.956394	いのち/命 を/を	-0.021934
-1.064796	いま/今 い/い	-0.021934
-1.041595	いみ/意味 </s>	-0.021934
-1.371822	いりょう/医療 から/から	-0.021934
-1.403423	いりょう/医療 じゅうじ/従事	-0.021934
-1.068786	いわ/祝 っ/っ	-0.021934
-1.106299	いわゆる/いわゆる まっど/マッド	-0.021934
-1.021365	いん/員 は/は	-0.021934
-1.388237	いんたい/引退 ご/後	-0.021934
-1.326000	いんたい/引退 する/する	-0.021934
-1.041595	いんちょう/院長 </s>	-0.021934
-1.106299	いんなー/インナー まっする/マッスル	-0.021934
-1.005486	いんよう/飲用 し/し	-0.021934
-1.697271	う/う </s>	-0.021934
-2.124899	う/う かせつ/仮説	-0.021934
-1.973685	う/う こと/こと	-0.021934
-2.124899	う/う ことば/言葉	-0.021934
-2.124899	う/う しらせ/報せ	-0.021934
-2.116713	う/う せつ/説	-0.021934
-2.062726	う/う たか/多賀	-0.021934
-2.043397	う/う など/など	-0.021934
-2.124899	う/う なんて/なんて	-0.021934
-2.124899	う/う はた/秦	-0.021934
-2.116713	う/う ひょうげん/表現	-0.021934
-1.008965	うぃーくりーらんきんぐ/ウィークリーランキング で/で	-0.021934
-1.088970	うぇい/ウェイ の/の	-0.021934
-1.249753	うぇい/ウェイ は/は	-0.021934
-1.106299	うぇすたん/ウェスタン あぷろーち/アプローチ	-0.021934
-1.008965	うえ/うえ で/で	-0.021934
-0.927948	うえ/上 に/に	-0.021934
-1.102101	うえるず/ウエルズ だっ/だっ	-0.021934
-1.066787	うかがえ/伺え る/る	-0.021934
-1.340743	うけ/受け た/た	-0.021934
-1.337010	うけ/受け て/て	-0.021934
-1.102101	うごか/動か す/す	-0.021934
-1.106299	うち/うち ４５/４５	-0.021934
-1.106299	うちとみ/内冨 ひろし/寛	-0.021934
-1.054978	うちのめ/打ちのめ さ/さ	-0.021934
-1.105508	うっど/ウッド こうつう/交通	-0.021934
-1.066787	うつ/移 る/る	-0.021934
-0.993525	うなぎ/鰻 、/、	-0.021934
-1.105508	うみず/海津 じょう/城	-0.021934
-0.919339	うら/裏 の/の	-0.021934
-1.087210	うれし/うれし く/く	-0.021934
-1.064796	うんえい/運営 する/する	-0.021934
-1.005486	うんこう/運行 し/し	-0.021934
-1.105508	え/え ば/ば	-0.021934
-1.064796	え/得 な/な	-0.021934
-0.993525	えいいちろう/英一郎 、/、	-0.021934
-1.106299	えいが/映画 ふぉっくす/フォックス	-0.021934
-0.956394	えいきょう/影響 を/を	-0.021934
-0.927948	えいじゃっくす/エイジャックス に/に	-0.021934
-1.403423	えいせい/衛生 か/科	-0.021934
-1.404995	えいせい/衛生 わんしょう/腕章	-0.021934
-1.106299	えいぞう/映像 び/美	-0.021934
-1.008965	えいだっく/エイダック で/で	-0.021934
-1.389996	えき/駅 が/が	-0.021934
-1.556902	えき/駅 ・/・	-0.021934
-1.588886	えき/駅 （/（	-0.021934
-1.602370	えき/駅 ）/）	-0.021934
-1.093529	えきがく/疫学 てき/的	-0.021934
-1.106299	えぎ/榎木 こうめい/孝明	-0.021934
-1.072813	えさ/餌 」/」	-0.021934
-0.956394	えぴそーど/エピソード を/を	-0.021934
-1.106299	えら/選 べ/べ	-0.021934
-1.106299	えん/演 じ/じ	-0.021934
-1.003757	えんげき/演劇 が/が	-0.021934
-1.404995	えんじん/エンジン はそん/破損	-0.021934
-1.404995	えんじん/エンジン ぶろー/ブロー	-0.021934
-0.927948	えんだん/縁談 に/に	-0.021934
-1.465613	お/お い/い	-0.021934
-1.576422	お/お たがい/互い	-0.021934
-1.560162	お/お り/り	-0.804298
-1.105508	お/逐 しょう/小	-0.021934
-1.106299	おう/王 そうは/争覇	-0.021934
-1.106299	おうごん/黄金 じゅうし/銃士	-0.021934
-1.498575	おお/多 い/い	-0.021934
-0.476887	おお/多 く/く	-0.021934
-1.102101	おおいた/大分 けん/県	-0.021934
-1.106299	おおきな/大きな しょっく/ショック	-0.021934
-0.919339	おおく/多く の/の	-0.021934
-1.106299	おおさか/大阪 がんつ/ガンツ	-0.021934
-1.106299	おおしま/大島 ともこ/智子	-0.021934
-1.106299	おおつき/大槻 ふみひこ/文彦	-0.021934
-1.106299	おぐら/小倉 だいしょうすけ/大賞典	-0.021934
-1.066787	おけ/おけ る/る	-0.021934
-1.852647	おこな/行 う/う	-0.021934
-1.744265	おこな/行 っ/っ	-0.021934
-0.450975	おこな/行 わ/わ	-0.561260
-1.102101	おそく/遅く だっ/だっ	-0.021934
-1.072813	おとずれ/訪れ た/た	-0.021934
-0.956394	おにごっこ/鬼ごっこ を/を	-0.021934
-1.578765	おふぃす/オフィス かぶしき/株式	-0.021934
-1.578765	おふぃす/オフィス けんさく/検索	-0.021934
-1.502088	おふぃす/オフィス ）/）	-0.021934
-1.064796	おも/思 い/い	-0.021934
-0.919339	おや/親 の/の	-0.021934
-1.106299	および/および うぇすたん/ウェスタン	-0.021934
-1.106299	および/及び ちぇすと/チェスト	-0.021934
-1.404995	おりこん/オリコン うぃーくりーらんきんぐ/ウィークリーランキング	-0.021934
-1.404995	おりこん/オリコン でいりー/デイリー	-0.021934
-1.105508	おりじんきー/オリジンキー ＝/＝	-0.021934
-1.087210	おわ/終わ ら/ら	-0.021934
-1.106299	おん/オン らいん/ライン	-0.021934
-1.064796	おんがく/音楽 ・/・	-0.021934
-1.041595	おんせん/温泉 </s>	-0.021934
-1.220366	おんど/温度 が/が	-0.021934
-1.144915	おんど/温度 を/を	-0.021934
-0.927948	おんなのこ/女の子 に/に	-0.021934
-0.956394	おーすとらりあ/オーストラリア を/を	-0.021934
-1.877059	か/か えら/選	-0.021934
-1.873813	か/か かいしゃ/会社	-0.021934
-0.752213	か/か と/と	-0.021934
-0.709831	か/か の/の	-0.021934
-1.005486	か/化 し/し	-0.021934
-1.106299	か/家 かろう/家老	-0.021934
-0.285585	か/日 に/に	-0.021934
-1.326000	か/書 い/い	-0.021934
-1.367813	か/書 く/く	-0.021934
-1.403423	か/科 たい/隊	-0.021934
-1.403423	か/科 どうぶつ/動物	-0.021934
-1.106299	か/駆 お/逐	-0.021934
-1.072813	かい/会 」/」	-0.021934
-1.106299	かいきょう/海峡 および/および	-0.021934
-1.308249	かいさい/開催 さ/さ	-0.021934
-1.223217	かいさい/開催 し/し	-0.021934
-1.404995	かいしゃ/会社 うつ/移	-0.021934
-1.101754	かいしゃ/会社 に/に	-0.021934
-0.993525	かいしゅう/改修 、/、	-0.021934
-1.024974	かいどう/街道 と/と	-0.021934
-0.927948	かいふく/回復 に/に	-0.021934
-1.070795	かえ/変え て/て	-0.021934
-1.087210	かかわ/かかわ ら/ら	-0.021934
-1.087210	かかわ/関わ ら/ら	-0.021934
-1.093529	かがく/科学 てき/的	-0.021934
-0.927948	かくち/各地 に/に	-0.021934
-1.223217	かくとく/獲得 し/し	-0.021934
-1.326000	かくとく/獲得 する/する	-0.021934
-1.095656	かけ/かけ られ/られ	-0.021934
-1.072813	かけ/懸け た/た	-0.021934
-1.021365	かけい/家系 は/は	-0.021934
-0.919339	かげ/影 の/の	-0.021934
-0.956394	かさい/火災 を/を	-0.021934
-1.102101	かず/数 おお/多	-0.021934
-1.106299	かせぎ/稼ぎ れおん/レオン	-0.021934
-1.003757	かせつ/仮説 が/が	-0.021934
-1.087210	かた/語 ら/ら	-0.021934
-1.072813	かっ/かっ た/た	-0.114249
-1.106299	かつて/かつて そんざい/存在	-0.021934
-1.005486	かつどう/活動 し/し	-0.021934
-1.105508	かなか/かなか しゅつじょう/出場	-0.021934
-1.102101	かねず/かねず きけん/危険	-0.021934
-0.919339	かのう/可能 の/の	-0.021934
-1.105508	かぶしき/株式 がいしゃ/会社	-0.021934
-1.106299	かみのうがね/上納金 ごうだつ/強奪	-0.021934
-1.091413	かめむし/カメムシ や/や	-0.021934
-1.502770	から/から 、/、	-0.021934
-2.085732	から/から あいるらんど/アイルランド	-0.021934
-2.085732	から/から かず/数	-0.021934
-2.078247	から/から しゅっぱん/出版	-0.021934
-2.085732	から/から しゅよう/主要	-0.021934
-2.078247	から/から しーずん/シーズン	-0.021934
-2.085732	から/から ただちに/直ちに	-0.021934
-2.085732	から/から とおざけ/遠ざけ	-0.021934
-1.298180	から/から の/の	-0.021934
-2.085732	から/から のび/伸び	-0.021934
-1.021365	からき/唐木 は/は	-0.021934
-1.088970	かれ/彼 の/の	-0.021934
-1.367813	かれ/彼 ら/ら	-0.021934
-0.927948	かれっじ/カレッジ に/に	-0.021934
-1.041595	かろう/家老 </s>	-0.021934
-1.068786	かわ/変わ っ/っ	-0.021934
-1.064796	かわいらし/可愛らし い/い	-0.021934
-1.106299	かん/間 ろせん/路線	-0.021934
-1.078925	かん/館 ）/）	-0.021934
-1.337010	かんがえ/考え て/て	-0.021934
-1.384074	かんがえ/考え られ/られ	-0.021934
-1.106299	かんきょう/環境 ほぜん/保全	-0.021934
-1.404995	かんけい/関係 し/史	-0.021934
-1.144915	かんけい/関係 を/を	-0.021934
-0.285585	かんこく/韓国 に/に	-0.231635
-0.927948	かんさい/関西 に/に	-0.021934
-0.956394	かんしょ/官所 を/を	-0.021934
-0.956394	かんじゃ/患者 を/を	-0.021934
-0.927948	かんたい/艦隊 に/に	-0.021934
-1.005486	かんちがい/勘違い し/し	-0.021934
-1.403423	かんとりー/カントリー すきー/スキー	-0.021934
-1.326000	かんとりー/カントリー ・/・	-0.021934
-1.021365	かんめい/艦名 は/は	-0.021934
-1.005486	かんりょう/完了 し/し	-0.021934
-1.005486	かんれん/関連 し/し	-0.021934
-0.961044	が/が 、/、	-0.021934
-2.276833	が/が 「/「	-0.021934
-1.251779	が/が あ/あ	-0.387375
-2.629558	が/が あふりか/アフリカ	-0.021934
-2.765501	が/が うかがえ/伺え	-0.021934
-2.765501	が/が えいじゃっくす/エイジャックス	-0.021934
-2.765501	が/が えんだん/縁談	-0.021934
-2.629558	が/が おお/多	-0.021934
-2.478003	が/が おこな/行	-0.021934
-2.765501	が/が おわ/終わ	-0.021934
-2.736537	が/が かいさい/開催	-0.021934
-2.765501	が/が かのう/可能	-0.021934
-2.765501	が/が きょくたん/極端	-0.021934
-2.765501	が/が こうふく/降伏	-0.021934
-2.006141	が/が さ/さ	-0.021934
-2.765501	が/が さるがばば/猿ヶ馬場	-0.021934
-2.736537	が/が ざざーぐ/ザザーグ	-0.021934
-2.765501	が/が しまなか/島中	-0.021934
-2.765501	が/が しんけん/真剣	-0.021934
-2.765501	が/が しんしゅつ/進出	-0.021934
-2.765501	が/が しんりゃく/侵略	-0.021934
-2.765501	が/が せいかつ/生活	-0.021934
-2.765501	が/が せいび/整備	-0.021934
-2.765501	が/が せっち/設置	-0.021934
-2.765501	が/が せんとう/先頭	-0.021934
-2.572958	が/が たか/多賀	-0.021934
-2.765501	が/が つ/付	-0.021934
-2.736537	が/が つか/使	-0.021934
-2.736537	が/が つよ/強	-0.021934
-2.765501	が/が てばな/手放	-0.021934
-2.765501	が/が とうじょう/登場	-0.021934
-2.765501	が/が とくちょう/特徴	-0.021934
-2.765501	が/が とれんとん/トレントン	-0.021934
-1.614949	が/が な/な	-0.021934
-2.736537	が/が に/二	-0.021934
-2.765501	が/が にほん/日本	-0.021934
-2.765501	が/が は/張	-0.021934
-2.736537	が/が ふぁー/ファー	-0.021934
-2.765501	が/が ふるい/ふるい	-0.021934
-2.765501	が/が ふるく/古く	-0.021934
-1.750593	が/が ぼっぱつ/勃発	-0.231635
-2.765501	が/が めだ/目立	-0.021934
-2.765501	が/が もたら/もたら	-0.021934
-2.765501	が/が ゆうれい/ユウレイ	-0.021934
-2.765501	が/が わずか/わずか	-0.021934
-0.304119	がいこく/外国 じん/人	-0.021934
-1.284555	がいしゃ/会社 </s>	-0.021934
-1.344509	がいしゃ/会社 （/（	-0.021934
-1.008965	がいちゅう/害虫 で/で	-0.021934
-1.021365	がいひ/外皮 は/は	-0.021934
-0.993525	がいよう/概要 、/、	-0.021934
-0.927948	がくえん/学園 に/に	-0.021934
-0.919339	がくせい/学生 の/の	-0.021934
-1.106299	がす/ガス おんど/温度	-0.021934
-0.993525	がっかい/学会 、/、	-0.021934
-1.402780	がっこう/学校 で/で	-0.021934
-1.207543	がっこう/学校 の/の	-0.021934
-1.698290	がっこう/学校 へ/へ	-0.021934
-1.282649	がっこう/学校 を/を	-0.021934
-0.809379	がつ/月 に/に	-0.021934
-1.370313	がつ/月 の/の	-0.021934
-1.992683	がつ/月 １０/１０	-0.021934
-1.997420	がつ/月 １３/１３	-0.021934
-1.914693	がつ/月 ２/２	-0.021934
-0.905309	がつ/月 ２６/２６	-0.231635
-1.064796	がまーる/ガマール ・/・	-0.021934
-0.919339	がめとさいと/ガメトサイト の/の	-0.021934
-1.106299	がんつ/ガンツ ちーむ/チーム	-0.021934
-0.927948	がんねん/元年 に/に	-0.021934
-1.106299	がーでぃあん/ガーディアン たち/達	-0.021934
-1.203644	き/き 、/、	-0.021934
-1.340743	き/き た/た	-0.021934
-1.068786	き/切 っ/っ	-0.021934
-1.091413	きいろあざみうま/キイロアザミウマ や/や	-0.021934
-1.403423	きかん/期間 ちゅう/中	-0.021934
-1.101754	きかん/期間 に/に	-0.021934
-1.106299	きかん/機関 ほう/砲	-0.021934
-1.578765	きけん/危険 ぎょうむ/業務	-0.021934
-1.566420	きけん/危険 だ/だ	-0.021934
-1.465613	きけん/危険 な/な	-0.021934
-1.106299	きしゃ/記者 あにか/アニカ	-0.021934
-0.919339	きじゅん/基準 の/の	-0.021934
-1.095656	きせ/着せ られ/られ	-0.021934
-1.024974	きそ/基礎 と/と	-0.021934
-1.105508	きた/北 たいへい/太平	-0.021934
-0.927948	きち/基地 に/に	-0.021934
-1.024974	きちょう/基調 と/と	-0.021934
-1.102101	きつりん/吉林 しょう/省	-0.021934
-1.072813	きめ/決め た/た	-0.021934
-1.220366	きゃらくたー/キャラクター が/が	-0.021934
-1.403423	きゃらくたー/キャラクター にんき/人気	-0.021934
-1.106299	きゅうしゅう/九州 だいがく/大学	-0.021934
-0.956394	きょういく/教育 を/を	-0.021934
-1.024974	きょういん/教員 と/と	-0.021934
-1.003757	きょうえん/共演 が/が	-0.021934
-0.927948	きょうかい/協会 に/に	-0.021934
-0.956394	きょうみ/興味 を/を	-0.021934
-1.106299	きょうわ/共和 こく/国	-0.021934
-1.041595	きょく/局 </s>	-0.021934
-0.927948	きょくたん/極端 に/に	-0.021934
-1.005486	きょしゅ/挙手 し/し	-0.021934
-1.106299	きり/切り けいしき/形式	-0.021934
-1.105508	きれ/きれ ず/ず	-0.021934
-1.308249	きろく/記録 さ/さ	-0.021934
-1.223217	きろく/記録 し/し	-0.021934
-1.106299	きん/金 かせぎ/稼ぎ	-0.021934
-1.093529	きんだい/近代 てき/的	-0.021934
-0.993525	きんむ/勤務 、/、	-0.021934
-1.179570	ぎいん/議員 に/に	-0.021934
-1.164321	ぎいん/議員 の/の	-0.021934
-1.496686	ぎいん/議員 も/も	-0.021934
-1.102101	ぎかい/議会 ぎいん/議員	-0.021934
-1.106299	ぎむざ/ギムザ せんしょく/染色	-0.021934
-1.105508	ぎょうむ/業務 じゅうじ/従事	-0.021934
-0.956394	ぎょらい/魚雷 を/を	-0.021934
-1.756393	く/く </s>	-0.021934
-2.070806	く/く おこな/行	-0.021934
-2.164499	く/く おも/思	-0.021934
-2.164499	く/く かわいらし/可愛らし	-0.021934
-2.022339	く/く こと/こと	-0.021934
-1.869319	く/く する/する	-0.021934
-2.164499	く/く どくだん/独断	-0.021934
-1.047144	く/く な/な	-0.021934
-1.077301	く/く ばあい/場合	-0.231635
-2.164499	く/く ふなこし/船越	-0.021934
-0.919339	く/区 の/の	-0.021934
-1.064796	く/食 い/い	-0.021934
-1.106299	くうはく/　 こうち/高知	-0.021934
-1.097794	くさかげろう/クサカゲロウ など/など	-0.021934
-1.003757	くせ/癖 が/が	-0.021934
-1.106299	くにのみや/久邇宮 たかおう/多嘉王	-0.021934
-1.088970	くび/首 の/の	-0.021934
-1.144915	くび/首 を/を	-0.021934
-1.003757	くぶん/区分 が/が	-0.021934
-1.072813	くみあわせ/組み合わせ た/た	-0.021934
-1.005486	くりかえ/繰り返 し/し	-0.021934
-1.041595	くる/くる </s>	-0.021934
-0.956394	くるせいど/クルセイド を/を	-0.021934
-1.070795	くれ/くれ て/て	-0.021934
-1.074841	くれない/紅 （/（	-0.021934
-1.105508	くろす/クロス かんとりー/カントリー	-0.021934
-1.106299	くん/勲 きょく/局	-0.021934
-1.064796	くんしょう/勲章 ・/・	-0.021934
-1.003757	ぐるー/グルー が/が	-0.021934
-1.404995	ぐん/軍 たゆう/太夫	-0.021934
-1.101754	ぐん/軍 に/に	-0.021934
-1.074841	ぐんぶ/軍部 （/（	-0.021934
-1.228976	けい/計 で/で	-0.021934
-1.404995	けい/計 ３５/３５	-0.021934
-0.956394	けいけん/経験 を/を	-0.021934
-1.008965	けいごうきん/軽合金 で/で	-0.021934
-1.008965	けいしき/形式 で/で	-0.021934
-1.106299	けいじ/刑事 やく/役	-0.021934
-1.003757	けいそう/係争 が/が	-0.021934
-0.919339	けいたい/形態 の/の	-0.021934
-1.105508	けいば/競馬 じょう/場	-0.021934
-1.106299	けいりょう/軽量 か/化	-0.021934
-1.106299	けっきゅう/血球 ない/内	-0.021934
-1.005486	けっこん/結婚 し/し	-0.021934
-1.024974	けっせい/結成 と/と	-0.021934
-1.106299	けつ/血 とまつ/塗抹	-0.021934
-0.956394	けつだん/決断 を/を	-0.021934
-1.101754	けん/剣 に/に	-0.021934
-1.088970	けん/剣 の/の	-0.021934
-1.409434	けん/県 </s>	-0.021934
-1.578765	けん/県 りつ/立	-0.021934
-1.491351	けん/県 （/（	-0.021934
-1.389996	けんきゅう/研究 が/が	-0.021934
-1.394216	けんきゅう/研究 し/し	-0.021934
-1.701395	けんきゅう/研究 りょういき/領域	-0.021934
-1.701395	けんきゅう/研究 ７１/７１	-0.021934
-1.106299	けんさく/検索 さいと/サイト	-0.021934
-0.927948	けんしゅつ/検出 に/に	-0.021934
-1.106299	けんぞう/建造 ひよう/費用	-0.021934
-1.054978	けんとう/検討 さ/さ	-0.021934
-1.106299	げいのう/芸能 じょうほう/情報	-0.021934
-1.102101	げっかん/月間 だりつ/打率	-0.021934
-1.102101	げつれい/月例 しょう/賞	-0.021934
-1.105508	げん/現 ：/：	-0.021934
-1.228976	げんいん/原因 で/で	-0.021934
-1.255877	げんいん/原因 と/と	-0.021934
-0.919339	げんえき/現役 の/の	-0.021934
-1.224420	げんざい/現在 に/に	-0.021934
-1.434160	げんざい/現在 は/は	-0.021934
-1.698290	げんざい/現在 ふぁー/ファー	-0.021934
-1.595576	げんざい/現在 も/も	-0.021934
-1.021365	こ/子 は/は	-0.021934
-1.024974	こう/公 と/と	-0.021934
-0.927948	こうい/行為 に/に	-0.021934
-1.024974	こうえん/公園 と/と	-0.021934
-0.956394	こうし/講師 を/を	-0.021934
-1.024974	こうしゃ/校舎 と/と	-0.021934
-0.927948	こうせい/光成 に/に	-0.021934
-1.054978	こうせい/構成 さ/さ	-0.021934
-0.956394	こうぞう/構造 を/を	-0.021934
-1.106299	こうち/高知 けいば/競馬	-0.021934
-1.404995	こうつう/交通 しすてむ/システム	-0.021934
-1.404995	こうつう/交通 もう/網	-0.021934
-1.076878	こうでら/国府 も/も	-0.021934
-1.106299	こうとう/高等 おんがく/音楽	-0.021934
-1.106299	こうふく/降伏 さんせい/賛成	-0.021934
-1.024974	こうめい/孝明 と/と	-0.021934
-0.993525	こうりゃん/コウリャン 、/、	-0.021934
-1.099942	こうれい/高齢 しゃ/者	-0.021934
-1.070795	こえ/超え て/て	-0.021934
-1.106299	こく/国 きつりん/吉林	-0.021934
-1.093529	こくさい/国際 てき/的	-0.021934
-1.106299	こくりつ/国立 こうとう/高等	-0.021934
-0.927948	こしゅう/湖州 に/に	-0.021934
-1.079683	こと/こと が/が	-0.021934
-1.539012	こと/こと に/に	-0.021934
-1.518857	こと/こと の/の	-0.021934
-1.805981	こと/こと は/は	-0.021934
-2.236045	こと/こと はっぴょう/発表	-0.021934
-2.045988	こと/こと も/も	-0.021934
-0.415049	こと/こと を/を	-0.021934
-0.294333	こと/事 が/が	-0.021934
-1.068786	ことな/異な っ/っ	-0.021934
-1.021365	ことば/言葉 は/は	-0.021934
-0.919339	こども/子供 の/の	-0.021934
-1.638034	この/この こと/こと	-0.021934
-1.701395	この/この たたかい/闘い	-0.021934
-1.701395	この/この とき/とき	-0.021934
-1.701395	この/この はいせん/敗戦	-0.021934
-1.099942	こふん/古墳 じだい/時代	-0.021934
-0.927948	こぼこ/こぼこ に/に	-0.021934
-1.106299	こみっく/コミック まーけっと/マーケット	-0.021934
-1.580871	これ/これ いがい/以外	-0.021934
-0.445155	これ/これ に/に	-0.021934
-1.304600	ころ/頃 、/、	-0.021934
-1.530155	ころ/頃 から/から	-0.021934
-1.578765	ころ/頃 はせがわ/長谷川	-0.021934
-1.021365	こんこーど/コンコード は/は	-0.021934
-1.106299	こんてんつ/コンテンツ はいしん/配信	-0.021934
-1.105508	こんぴゅーた/コンピュータ きゃらくたー/キャラクター	-0.021934
-0.956394	こーひー/コーヒー を/を	-0.021934
-1.436366	ご/後 、/、	-0.021934
-1.872904	ご/後 しょうめん/正面	-0.021934
-1.274440	ご/後 に/に	-0.021934
-1.255548	ご/後 の/の	-0.021934
-1.518409	ご/後 は/は	-0.021934
-1.872904	ご/後 らずふぁーど/ラズファード	-0.021934
-0.604848	ごう/号 せい/生	-0.021934
-1.624679	ごう/号 ）/）	-0.021934
-1.703489	ごう/号 ５３３/５３３	-0.021934
-1.021365	ごうだつ/強奪 は/は	-0.021934
-1.005486	ごうりゅう/合流 し/し	-0.021934
-0.927948	ごと/毎 に/に	-0.021934
-0.927948	ごろ/ごろ に/に	-0.021934
-1.417559	さ/さ せ/せ	-0.021934
-0.070111	さ/さ れ/れ	-0.670012
-0.919339	さい/歳 の/の	-0.021934
-0.919339	さいあく/最悪 の/の	-0.021934
-1.106299	さいえんてぃすと/サイエンティスト たいぷ/タイプ	-0.021934
-1.005486	さいかい/再会 し/し	-0.021934
-1.396683	さいしゅう/最終 せん/戦	-0.021934
-1.379952	さいしゅう/最終 てき/的	-0.021934
-0.927948	さいしょ/最初 に/に	-0.021934
-1.106299	さいしょう/崔鍾 しょく/植	-0.021934
-0.919339	さいしん/最新 の/の	-0.021934
-0.956394	さいと/サイト を/を	-0.021934
-1.005486	さいよう/採用 し/し	-0.021934
-1.255877	さくひん/作品 と/と	-0.021934
-1.404995	さくひん/作品 よみ/読み	-0.021934
-1.008965	さしず/指図 で/で	-0.021934
-0.956394	さっかー/サッカー を/を	-0.021934
-1.106299	さるがばば/猿ヶ馬場 とうげ/峠	-0.021934
-1.106299	さんか/参加 めんばー/メンバー	-0.021934
-0.956394	さんず/サンズ を/を	-0.021934
-0.927948	さんせい/賛成 に/に	-0.021934
-1.106299	さんちょう/山頂 ふきん/付近	-0.021934
-1.072813	さんでー/サンデー 」/」	-0.021934
-1.106299	ざいにち/在日 べいぐん/米軍	-0.021934
-1.255877	ざざーぐ/ザザーグ と/と	-0.021934
-1.249753	ざざーぐ/ザザーグ は/は	-0.021934
-0.956394	ざる/ざる を/を	-0.021934
-0.779243	し/し 、/、	-0.021934
-0.472137	し/し た/た	-0.169098
-2.774518	し/し だい/大	-0.021934
-2.830230	し/し つつ/つつ	-0.021934
-0.634470	し/し て/て	-0.185074
-1.661337	し/し な/な	-0.436321
-2.830230	し/し にんむ/任務	-0.021934
-2.819217	し/し はつ/初	-0.021934
-2.819217	し/し やく/約	-0.021934
-2.830230	し/し よろこ/喜	-0.021934
-2.774518	し/し ８/８	-0.021934
-1.041595	し/史 </s>	-0.021934
-1.021365	し/市 は/は	-0.021934
-1.333309	し/知 っ/っ	-0.231635
-1.367813	し/知 ら/ら	-0.021934
-1.008965	しあい/試合 で/で	-0.021934
-1.095656	しい/強い られ/られ	-0.021934
-0.927948	しいき/市域 に/に	-0.021934
-1.008965	しかい/司会 で/で	-0.021934
-1.066787	しかけ/仕掛け る/る	-0.021934
-1.436366	しかし/しかし 、/、	-0.021934
-1.872904	しかし/しかし しんかい/晋海	-0.021934
-1.803109	しかし/しかし その/その	-0.021934
-1.868304	しかし/しかし ながら/ながら	-0.021934
-1.872904	しかし/しかし なつば/夏場	-0.021934
-1.868304	しかし/しかし みちの/美智乃	-0.021934
-1.064796	しがん/志願 する/する	-0.021934
-1.064796	しき/指揮 する/する	-0.021934
-1.064796	しきゅう/支給 する/する	-0.021934
-1.003757	しじ/指示 が/が	-0.021934
-1.021365	しすてむ/システム は/は	-0.021934
-1.404995	しぜん/自然 こうえん/公園	-0.021934
-1.375868	しぜん/自然 や/や	-0.021934
-0.993525	しぞんと/シゾント 、/、	-0.021934
-1.106299	しっこう/執行 ゆうよ/猶予	-0.021934
-0.956394	しつ/室 を/を	-0.021934
-0.285585	しつ/質 に/に	-0.021934
-0.919339	してい/姉弟 の/の	-0.021934
-1.054978	してい/指定 さ/さ	-0.021934
-1.076878	しどう/指導 も/も	-0.021934
-0.956394	しなりお/シナリオ を/を	-0.021934
-0.919339	しはん/市販 の/の	-0.021934
-0.919339	しひょう/指標 の/の	-0.021934
-1.403423	しほう/司法 せいど/制度	-0.021934
-1.088970	しほう/司法 の/の	-0.021934
-1.097794	しぼう/死亡 じょくん/叙勲	-0.021934
-0.919339	しまい/姉妹 の/の	-0.021934
-1.106299	しまだ/島田 しんすけ/紳助	-0.021934
-1.008965	しまなか/島中 で/で	-0.021934
-1.102101	しめ/示 す/す	-0.021934
-1.423182	しゃ/社 、/、	-0.021934
-0.600646	しゃ/社 から/から	-0.021934
-1.444737	しゃ/社 が/が	-0.021934
-0.744193	しゃ/者 が/が	-0.021934
-0.777916	しゃ/者 じょくん/叙勲	-0.231635
-1.387145	しゃ/者 に/に	-0.021934
-1.370025	しゃ/者 の/の	-0.021934
-0.956394	しゃかい/社会 を/を	-0.021934
-1.068786	しゃべ/喋 っ/っ	-0.021934
-1.106299	しゃりょう/車両 かさい/火災	-0.021934
-1.106299	しゃんはい/上海 どくしょう/独唱	-0.021934
-1.255877	しゅ/主 と/と	-0.021934
-1.404995	しゅ/主 もり/森	-0.021934
-1.404995	しゅい/首位 だしゃ/打者	-0.021934
-1.144915	しゅい/首位 を/を	-0.021934
-1.099942	しゅうかん/週刊 しょうねん/少年	-0.021934
-1.106299	しゅうじ/修二 めいぎ/名義	-0.021934
-1.003757	しゅうだん/集団 が/が	-0.021934
-0.919339	しゅうちゃく/執着 の/の	-0.021934
-1.024974	しゅうへい/州兵 と/と	-0.021934
-0.927948	しゅうへん/周辺 に/に	-0.021934
-1.021365	しゅうり/修理 は/は	-0.021934
-1.388237	しゅうりょう/終了 ご/後	-0.021934
-1.223217	しゅうりょう/終了 し/し	-0.021934
-1.003757	しゅぎ/主義 が/が	-0.021934
-1.106299	しゅじん/主人 こう/公	-0.021934
-0.993525	しゅっこう/出航 、/、	-0.021934
-1.005486	しゅっぱつ/出発 し/し	-0.021934
-1.308249	しゅっぱん/出版 さ/さ	-0.021934
-1.392439	しゅっぱん/出版 しゃ/社	-0.021934
-1.223217	しゅつじょう/出場 し/し	-0.021934
-1.403423	しゅつじょう/出場 でき/でき	-0.021934
-1.064796	しゅよう/主要 な/な	-0.021934
-1.106299	しゅりゅう/手榴 だん/弾	-0.021934
-1.041595	しゅヴぇーげりん/シュヴェーゲリン </s>	-0.021934
-1.404995	しょう/小 かんたい/艦隊	-0.021934
-1.392439	しょう/小 がっこう/学校	-0.021934
-1.578765	しょう/省 こしゅう/湖州	-0.021934
-1.179570	しょう/省 に/に	-0.021934
-1.578765	しょう/省 りくじょう/陸上	-0.021934
-1.578765	しょう/賞 きん/金	-0.021934
-1.578765	しょう/賞 くん/勲	-0.021934
-1.336812	しょう/賞 で/で	-0.021934
-1.064796	しょうかい/紹介 する/する	-0.021934
-1.106299	しょうがく/小学 かん/館	-0.021934
-1.093529	しょうきょく/消極 てき/的	-0.021934
-1.041595	しょうじょ/少女 </s>	-0.021934
-1.021365	しょうせつ/小説 は/は	-0.021934
-1.021365	しょうそく/消息 は/は	-0.021934
-1.703489	しょうねん/少年 さんでー/サンデー	-0.021934
-0.604848	しょうねん/少年 しほう/司法	-0.021934
-1.701075	しょうねん/少年 れい/令	-0.021934
-1.106299	しょうめん/正面 すたんど/スタンド	-0.021934
-1.578765	しょうわ/昭和 １７/１７	-0.021934
-1.578765	しょうわ/昭和 ３１/３１	-0.021934
-1.578765	しょうわ/昭和 ６２/６２	-0.021934
-1.083048	しょく/植 「/「	-0.021934
-1.064796	しょく/食 する/する	-0.021934
-1.003757	しょくいん/職印 が/が	-0.021934
-1.091413	しょくばい/触媒 や/や	-0.021934
-0.919339	しょけい/処刑 の/の	-0.021934
-0.956394	しょっく/ショック を/を	-0.021934
-1.308249	しよう/使用 さ/さ	-0.021934
-1.223217	しよう/使用 し/し	-0.021934
-0.956394	しらせ/報せ を/を	-0.021934
-1.106299	しれい/司令 ぶ/部	-0.021934
-1.064796	しろ/白 い/い	-0.021934
-0.927948	しろう/四郎 に/に	-0.021934
-1.003757	しんかい/晋海 が/が	-0.021934
-1.106299	しんき/新規 さんか/参加	-0.021934
-0.927948	しんけん/真剣 に/に	-0.021934
-1.005486	しんしゅつ/進出 し/し	-0.021934
-1.106299	しんじん/新人 おう/王	-0.021934
-1.024974	しんすけ/紳助 と/と	-0.021934
-1.021365	しんだん/診断 は/は	-0.021934
-1.005486	しんとう/浸透 し/し	-0.021934
-1.005486	しんにゅう/侵入 し/し	-0.021934
-1.005486	しんりゃく/侵略 し/し	-0.021934
-1.093529	しんわ/神話 てき/的	-0.021934
-1.403423	しーずん/シーズン さいしゅう/最終	-0.021934
-1.404995	しーずん/シーズン つうさん/通算	-0.021934
-1.072813	じ/じ た/た	-0.021934
-0.919339	じ/寺 の/の	-0.021934
-1.106299	じ/時 ５７/５７	-0.021934
-1.388237	じ/次 せかい/世界	-0.021934
-1.404995	じ/次 ちゅうとう/中東	-0.021934
-1.106299	じかん/時間 どらま/ドラマ	-0.021934
-0.303636	じぎょう/事業 しゃ/者	-0.021934
-1.064796	じけつ/自決 する/する	-0.021934
-1.105508	じしん/地震 けい/計	-0.021934
-0.506153	じだい/時代 の/の	-0.021934
-1.589113	じだい/時代 ・/・	-0.021934
-1.064796	じっしょう/実証 する/する	-0.021934
-1.008965	じてん/時点 で/で	-0.021934
-0.956394	じぶん/自分 を/を	-0.021934
-0.919339	じゅう/中 の/の	-0.021934
-1.106299	じゅう/十 しろう/四郎	-0.021934
-1.064796	じゅうぐん/従軍 する/する	-0.021934
-0.956394	じゅうげき/銃撃 を/を	-0.021934
-1.105508	じゅうし/銃士 たい/隊	-0.021934
-0.303636	じゅうじ/従事 しゃ/者	-0.021934
-1.106299	じょ/序 れつ/列	-0.021934
-1.008965	じょう/上 で/で	-0.021934
-1.582298	じょう/城 」/」	-0.021934
-1.698290	じょう/城 しゅ/主	-0.021934
-1.701395	じょう/城 せいちょう/政庁	-0.021934
-1.282649	じょう/城 を/を	-0.021934
-1.203644	じょう/場 、/、	-0.021934
-1.228976	じょう/場 で/で	-0.021934
-1.054978	じょうえん/上演 さ/さ	-0.021934
-1.005486	じょうしょう/上昇 し/し	-0.021934
-0.956394	じょうほう/情報 を/を	-0.021934
-0.615019	じょくん/叙勲 、/、	-0.021934
-1.301395	じょくん/叙勲 の/の	-0.021934
-1.528968	じょくん/叙勲 は/は	-0.021934
-1.106299	じょし/女子 がくせい/学生	-0.021934
-0.927948	じょせい/女性 に/に	-0.021934
-1.064796	じょなさん/ジョナサン ・/・	-0.021934
-1.553992	じん/人 じょくん/叙勲	-0.021934
-1.566420	じん/人 だ/だ	-0.021934
-1.535993	じん/人 や/や	-0.021934
-0.956394	じんせい/人生 を/を	-0.021934
-1.008965	じんぶつ/人物 で/で	-0.021934
-1.106299	じんみん/人民 きょうわ/共和	-0.021934
-1.576422	す/す こと/事	-0.021934
-1.578765	す/す しひょう/指標	-0.021934
-1.576422	す/す ひょうげん/表現	-0.021934
-1.106299	すいらい/水雷 てい/艇	-0.021934
-1.064796	すう/数 ねん/年	-0.021934
-0.993525	すえ/末 、/、	-0.021934
-1.064796	すき/好き な/な	-0.021934
-1.404995	すきー/スキー しどう/指導	-0.021934
-1.101754	すきー/スキー に/に	-0.021934
-0.919339	すこてぃあ/スコティア の/の	-0.021934
-1.106299	すご/凄 まじ/まじ	-0.021934
-0.927948	すたんど/スタンド に/に	-0.021934
-1.076878	すぽーつ/スポーツ も/も	-0.021934
-0.596759	する/する </s>	-0.862290
-2.068831	する/する 」/」	-0.021934
-2.266666	する/する か/か	-0.021934
-2.203195	する/する から/から	-0.021934
-1.720386	する/する が/が	-0.021934
-2.341028	する/する ぎいん/議員	-0.021934
-2.203195	する/する こと/こと	-0.021934
-2.396641	する/する こんてんつ/コンテンツ	-0.021934
-2.396641	する/する ぜんこう/全校	-0.021934
-1.315261	する/する ため/ため	-0.021934
-1.806008	する/する と/と	-0.231635
-1.463859	する/する の/の	-0.021934
-2.396641	する/する ひめはな/ヒメハナ	-0.021934
-2.341028	する/する よう/よう	-0.021934
-1.003757	するたん/スルタン が/が	-0.021934
-1.365505	ず/ず 、/、	-0.021934
-1.701395	ず/ず つね/常	-0.021934
-1.701395	ず/ず ふみやす/文保	-0.021934
-1.698290	ず/ず ７/７	-0.021934
-1.486080	せ/せ た/た	-0.021934
-1.480872	せ/せ て/て	-0.021934
-1.470640	せ/せ る/る	-0.021934
-1.105508	せい/制 れい/令	-0.021934
-1.106299	せい/性 ほしょく/捕食	-0.021934
-1.255877	せい/生 と/と	-0.021934
-1.088970	せい/生 の/の	-0.021934
-1.106299	せいかつ/生活 かんきょう/環境	-0.021934
-1.054978	せいこう/成功 さ/さ	-0.021934
-1.106299	せいじ/政治 こうぞう/構造	-0.021934
-1.106299	せいせき/成績 ゆうしゅう/優秀	-0.021934
-0.919339	せいちょう/政庁 の/の	-0.021934
-0.919339	せいと/生徒 の/の	-0.021934
-0.284504	せいど/制度 の/の	-0.021934
-0.300450	せいひん/製品 ・/・	-0.231635
-1.054978	せいび/整備 さ/さ	-0.021934
-1.003757	せいふく/制服 が/が	-0.021934
-0.927948	せいまご/世孫 に/に	-0.021934
-0.927948	せいむ/政務 に/に	-0.021934
-1.796008	せかい/世界 かくち/各地	-0.021934
-1.796008	せかい/世界 きじゅん/基準	-0.021934
-1.796008	せかい/世界 じゅう/中	-0.021934
-1.796008	せかい/世界 たいせん/大戦	-0.021934
-1.796008	せかい/世界 とっぷ/トップ	-0.021934
-1.064796	せかんど/セカンド ・/・	-0.021934
-1.106299	せき/赤 けっきゅう/血球	-0.021934
-1.003757	せき/隻 が/が	-0.021934
-1.054978	せっけい/設計 さ/さ	-0.021934
-1.102101	せっこう/浙江 しょう/省	-0.021934
-1.054978	せっち/設置 さ/さ	-0.021934
-1.101754	せつ/説 に/に	-0.021934
-1.144915	せつ/説 を/を	-0.021934
-1.005486	せつやく/節約 し/し	-0.021934
-1.072813	せの/瀬乃 」/」	-0.021934
-1.087210	せま/迫 ら/ら	-0.021934
-1.105508	せらー/セラー さくひん/作品	-0.021934
-1.255877	せるてぃっくす/セルティックス と/と	-0.021934
-1.101754	せるてぃっくす/セルティックス に/に	-0.021934
-1.475726	せん/戦 っ/っ	-0.021934
-1.179570	せん/戦 に/に	-0.021934
-1.576422	せん/戦 まで/まで	-0.021934
-1.089306	せん/船 から/から	-0.021934
-1.064796	せんきゅうひゃくきゅうじゅうきゅう/１９９９ ねん/年	-0.021934
-1.064796	せんきゅうひゃくきゅうじゅうはち/１９９８ ねん/年	-0.021934
-1.064796	せんきゅうひゃくはちじゅうなな/１９８７ ねん/年	-0.021934
-1.064796	せんきゅうひゃくはちじゅうはち/１９８８ ねん/年	-0.021934
-1.005486	せんし/戦死 し/し	-0.021934
-0.956394	せんしゅ/選手 を/を	-0.021934
-0.927948	せんしょく/染色 に/に	-0.021934
-0.956394	せんす/センス を/を	-0.021934
-1.325807	せんそう/戦争 が/が	-0.021934
-1.336812	せんそう/戦争 で/で	-0.021934
-1.179570	せんそう/戦争 に/に	-0.021934
-1.021365	せんたい/船体 は/は	-0.021934
-0.927948	せんとう/先頭 に/に	-0.021934
-1.105508	せんとう/戦闘 しゅうりょう/終了	-0.021934
-0.919339	せんない/船内 の/の	-0.021934
-1.064796	せんねん/専念 する/する	-0.021934
-1.099942	せんもん/専門 がっこう/学校	-0.021934
-1.064796	せんれつ/鮮烈 な/な	-0.021934
-1.576422	ぜん/全 さくひん/作品	-0.021934
-1.578765	ぜん/全 にっぽん/日本	-0.021934
-1.578765	ぜん/全 ひてい/否定	-0.021934
-1.003757	ぜんいん/全員 が/が	-0.021934
-1.106299	ぜんこう/全校 せいと/生徒	-0.021934
-0.956394	そうこう/走行 を/を	-0.021934
-1.106299	そうだ/操舵 しつ/室	-0.021934
-1.064796	そうだん/相談 な/な	-0.021934
-1.064796	そうちゃく/装着 する/する	-0.021934
-1.102101	そうは/争覇 せん/戦	-0.021934
-0.956394	そうび/装備 を/を	-0.021934
-1.024974	そこく/祖国 と/と	-0.021934
-0.993525	そして/そして 、/、	-0.021934
-1.106299	そだ/育 ち/ち	-0.021934
-1.066787	そだて/育て る/る	-0.021934
-1.041595	そつ/卒 </s>	-0.021934
-1.005486	そつぎょう/卒業 し/し	-0.021934
-2.088112	その/その あと/後	-0.021934
-2.126918	その/その うえ/うえ	-0.021934
-2.126918	その/その えいきょう/影響	-0.021934
-2.126918	その/その かけい/家系	-0.021934
-1.042265	その/その ころ/頃	-0.021934
-2.051266	その/その ご/後	-0.021934
-2.126918	その/その じてん/時点	-0.021934
-2.126918	その/その にが/苦	-0.021934
-2.126918	その/その ば/場	-0.021934
-2.126918	その/その ひ/日	-0.021934
-1.106299	そらも/空燃 ひ/比	-0.021934
-0.956394	そりゅーしょん/ソリューション を/を	-0.021934
-0.919339	そるがむ/ソルガム の/の	-0.021934
-1.101754	そるごー/ソルゴー に/に	-0.021934
-1.344509	そるごー/ソルゴー （/（	-0.021934
-1.105508	それ/それ まで/まで	-0.021934
-1.005486	そんざい/存在 し/し	-0.021934
-0.956394	ぞうちく/増築 を/を	-0.021934
-0.757223	た/た </s>	-1.464349
-1.460680	た/た 、/、	-0.021934
-2.324983	た/た 「/「	-0.021934
-2.213737	た/た 」/」	-0.021934
-2.648762	た/た あと/後	-0.021934
-2.741900	た/た あめりか/アメリカ	-0.021934
-2.766582	た/た うみず/海津	-0.021934
-1.736657	た/た えいせい/衛生	-0.021934
-2.766582	た/た えんげき/演劇	-0.021934
-1.452934	た/た が/が	-0.436321
-2.648762	た/た きけん/危険	-0.021934
-2.648762	た/た けん/県	-0.021934
-2.741900	た/た げんいん/原因	-0.021934
-1.641883	た/た こと/こと	-0.094149
-2.741900	た/た こと/事	-0.021934
-2.766582	た/た し/市	-0.021934
-2.766582	た/た せんしゅ/選手	-0.021934
-2.766582	た/た せんれつ/鮮烈	-0.021934
-2.648762	た/た ぜん/全	-0.021934
-2.766582	た/た たかくら/高倉	-0.021934
-1.669016	た/た ため/ため	-0.290465
-1.495842	た/た と/と	-0.436321
-2.766582	た/た ところ/ところ	-0.021934
-1.319835	た/た の/の	-0.149965
-2.648762	た/た ばあい/場合	-0.021934
-2.766582	た/た ふしん/不審	-0.021934
-2.766582	た/た ふたり/２人	-0.021934
-2.766582	た/た ほうこく/報告	-0.021934
-2.766582	た/た まいける/マイケル	-0.021934
-2.766582	た/た まーくるんど/マークルンド	-0.021934
-2.598359	た/た もの/もの	-0.021934
-2.766582	た/た ろんぶん/論文	-0.021934
-1.648536	た/た （/（	-0.021934
-1.095656	た/立 つ/つ	-0.021934
-1.005486	たい/対 し/し	-0.436321
-1.404995	たい/隊 いん/員	-0.021934
-1.396683	たい/隊 ちょう/長	-0.021934
-0.919339	たいい/大尉 の/の	-0.021934
-1.064796	たいえき/退役 する/する	-0.021934
-1.089306	たいき/待機 から/から	-0.021934
-1.064796	たいくつ/退屈 な/な	-0.021934
-1.003757	たいせん/大戦 が/が	-0.021934
-0.919339	たいぷ/タイプ の/の	-0.021934
-0.304187	たいへい/太平 よう/洋	-0.021934
-1.072813	たえ/絶え た/た	-0.021934
-1.703609	たか/多賀 こうでら/国府	-0.021934
-0.553054	たか/多賀 じょう/城	-0.021934
-1.024974	たかおう/多嘉王 と/と	-0.021934
-1.106299	たかくら/高倉 としあき/敏明	-0.021934
-1.099942	たかさか/高坂 えき/駅	-0.021934
-1.074841	たかはし/高橋 （/（	-0.021934
-1.404995	たがい/互い しゃべ/喋	-0.021934
-1.088970	たがい/互い の/の	-0.021934
-1.105508	たけ/嶽 しぜん/自然	-0.021934
-1.099942	たたか/戦 う/う	-0.021934
-1.003757	たたかい/闘い が/が	-0.021934
-0.993525	ただし/ただし 、/、	-0.021934
-1.106299	ただちに/直ちに じけつ/自決	-0.021934
-1.024974	たち/達 と/と	-0.021934
-0.993525	たちあげ/立ち上げ 、/、	-0.021934
-1.008965	たつじん/達人 で/で	-0.021934
-1.095656	たて/立て られ/られ	-0.021934
-0.927948	たて/縦 に/に	-0.021934
-1.066787	たとえ/喩え る/る	-0.021934
-1.106299	たの/頼 ま/ま	-0.021934
-0.956394	たび/旅 を/を	-0.021934
-1.539149	ため/ため 、/、	-0.021934
-1.877391	ため/ため たいえき/退役	-0.021934
-0.420196	ため/ため に/に	-0.021934
-0.919339	たゆう/太夫 の/の	-0.021934
-1.106299	たんじょう/誕生 び/日	-0.021934
-1.105508	たんぱく/タンパク しつ/質	-0.021934
-1.041595	たんぱく/淡白 </s>	-0.021934
-1.008965	たんれい/端麗 で/で	-0.021934
-1.488566	だ/だ </s>	-0.021934
-1.389996	だ/だ が/が	-0.021934
-1.698290	だ/だ とき/時	-0.021934
-1.207543	だ/だ の/の	-0.021934
-1.102101	だ/出 あふりか/アフリカ	-0.021934
-1.404995	だい/代 かんしょ/官所	-0.021934
-1.404995	だい/代 とうしゅ/当主	-0.021934
-1.578765	だい/大 そつ/卒	-0.021934
-1.578765	だい/大 の/野	-0.021934
-1.578765	だい/大 ひっと/ヒット	-0.021934
-0.728707	だい/第 に/二	-0.149965
-1.875095	だい/第 １８/１８	-0.021934
-1.806149	だい/第 ２/２	-0.021934
-1.854763	だい/第 ６/６	-0.021934
-1.064796	だいかん/代官 ・/・	-0.021934
-1.105508	だいがく/大学 ほうせい/法政	-0.021934
-1.008965	だいしょうすけ/大賞典 で/で	-0.021934
-1.054978	だいひょう/代表 さ/さ	-0.021934
-1.106299	だいよう/代用 きょういん/教員	-0.021934
-0.956394	だしゃ/打者 を/を	-0.021934
-0.423502	だっ/だっ た/た	-0.436321
-1.005486	だっしゅつ/脱出 し/し	-0.021934
-1.064796	だぶる/ダブル ・/・	-0.021934
-1.419681	だりつ/打率 は/は	-0.021934
-0.479399	だりつ/打率 ．/．	-0.021934
-1.095656	だれ/誰 か/か	-0.021934
-0.956394	だん/弾 を/を	-0.021934
-1.106299	だんせい/弾性 は/波	-0.021934
-0.993525	ち/ち 、/、	-0.021934
-1.106299	ちいき/地域 しゃかい/社会	-0.021934
-1.106299	ちぇすと/チェスト ばすたー/バスター	-0.021934
-1.064796	ちか/近 い/い	-0.021934
-1.003757	ちから/力 が/が	-0.021934
-1.091413	ちぎょう/知行 ２/２	-0.021934
-1.106299	ちぐさ/千草 しまい/姉妹	-0.021934
-1.008965	ちちおや/父親 で/で	-0.021934
-1.284555	ちゃく/着 </s>	-0.021934
-1.255877	ちゃく/着 と/と	-0.021934
-1.008965	ちゃーと/チャート で/で	-0.021934
-1.101754	ちゅう/中 に/に	-0.021934
-1.088970	ちゅう/中 の/の	-0.021934
-1.106299	ちゅうか/中華 じんみん/人民	-0.021934
-1.105508	ちゅうしゃ/駐車 じょう/場	-0.021934
-1.106299	ちゅうだん/中団 たいき/待機	-0.021934
-1.102101	ちゅうとう/中東 せんそう/戦争	-0.021934
-1.486080	ちょう/長 」/」	-0.021934
-1.576422	ちょう/長 きかん/期間	-0.021934
-1.560162	ちょう/長 じだい/時代	-0.021934
-1.064796	ちょうさ/調査 ・/・	-0.021934
-0.956394	ちょうし/調子 を/を	-0.021934
-1.099942	ちょうせん/朝鮮 しょうねん/少年	-0.021934
-0.956394	ちようこ/蝶子 を/を	-0.021934
-1.102101	ちんたい/賃貸 おふぃす/オフィス	-0.021934
-0.919339	ちーむ/チーム の/の	-0.021934
-0.275136	っ/っ た/た	-0.255199
-0.533578	っ/っ て/て	-0.094418
-0.753461	つ/つ </s>	-0.231635
-1.698976	つ/つ い/い	-0.436321
-1.824357	つ/つ か/か	-0.021934
-1.568298	つ/つ と/と	-0.021934
-1.309026	つ/つ の/の	-0.021934
-1.054978	つ/付 さ/さ	-0.021934
-1.064796	つ/就 い/い	-0.021934
-1.008965	つうさん/通算 で/で	-0.021934
-1.105508	つうしん/通信 じぎょう/事業	-0.021934
-1.088970	つうじょう/通常 の/の	-0.021934
-1.249753	つうじょう/通常 は/は	-0.021934
-1.404995	つか/使 え/え	-0.021934
-1.392439	つか/使 わ/わ	-0.021934
-1.072813	つかい/つかい 」/」	-0.021934
-1.066787	つかえ/使え る/る	-0.021934
-1.099942	つきあ/付き合 う/う	-0.021934
-1.070795	つけ/着け て/て	-0.021934
-0.993525	つつ/つつ 、/、	-0.021934
-1.064796	つづ/続 い/い	-0.021934
-1.066787	つづけ/続け る/る	-0.021934
-1.340743	つとめ/務め た/た	-0.021934
-1.337010	つとめ/務め て/て	-0.021934
-0.927948	つね/常 に/に	-0.021934
-0.302509	つよ/強 く/く	-0.021934
-1.108134	て/て 、/、	-0.021934
-0.782355	て/て い/い	-0.709408
-2.738226	て/て いき/生き	-0.021934
-2.738226	て/て いんよう/飲用	-0.021934
-1.372982	て/て お/お	-0.804298
-2.738226	て/て おんなのこ/女の子	-0.021934
-2.714724	て/て き/き	-0.021934
-2.738226	て/て ぎょらい/魚雷	-0.021934
-2.738226	て/て くる/くる	-0.021934
-2.738226	て/て くれ/くれ	-0.021934
-2.738226	て/て けんぞう/建造	-0.021934
-2.625505	て/て げんざい/現在	-0.021934
-2.738226	て/て こうせい/構成	-0.021934
-2.714724	て/て し/知	-0.021934
-2.738226	て/て しゅっこう/出航	-0.021934
-2.738226	て/て しんとう/浸透	-0.021934
-2.457128	て/て その/その	-0.021934
-2.738226	て/て たたか/戦	-0.021934
-2.738226	て/て たて/立て	-0.021934
-2.738226	て/て だいよう/代用	-0.021934
-2.738226	て/て だっしゅつ/脱出	-0.021934
-2.714724	て/て つか/使	-0.021934
-2.738226	て/て とうげん/桃源	-0.021934
-2.738226	て/て とうろく/登録	-0.021934
-2.738226	て/て どうろ/道路	-0.021934
-2.129800	て/て な/な	-0.021934
-1.497620	て/て は/は	-0.436321
-2.738226	て/て ひ/妃	-0.021934
-2.738226	て/て ふさわし/ふさわし	-0.021934
-2.738226	て/て みの/美濃	-0.021934
-1.625915	て/て も/も	-0.021934
-2.738226	て/て やよい/弥生	-0.021934
-2.738226	て/て やん/やん	-0.231635
-0.956394	て/手 を/を	-0.021934
-1.097794	てい/艇 ３/３	-0.021934
-1.005486	ていきょう/提供 し/し	-0.021934
-1.106299	ていど/程度 うごか/動か	-0.021934
-1.910802	てき/的 けんきゅう/研究	-0.021934
-1.587399	てき/的 で/で	-0.021934
-0.780562	てき/的 な/な	-0.021934
-0.766433	てき/的 に/に	-0.021934
-1.005486	てばな/手放 し/し	-0.021934
-1.070795	てれ/照れ て/て	-0.021934
-0.919339	てんし/天使 の/の	-0.021934
-1.105508	てんしよう/天正 １０/１０	-0.021934
-1.106299	てんのう/天皇 はい/杯	-0.021934
-1.452291	で/で 、/、	-0.021934
-2.328387	で/で 「/「	-0.021934
-0.745125	で/で あ/あ	-0.513729
-2.742442	で/で あいて/相手	-0.021934
-2.150558	で/で い/い	-0.021934
-2.507099	で/で おこな/行	-0.021934
-2.742442	で/で かいふく/回復	-0.021934
-2.742442	で/で かつどう/活動	-0.021934
-2.742442	で/で からき/唐木	-0.021934
-2.742442	で/で きめ/決め	-0.021934
-2.720076	で/で きろく/記録	-0.021934
-2.742442	で/で けいじ/刑事	-0.021934
-2.742442	で/で けいりょう/軽量	-0.021934
-2.742442	で/で こうし/講師	-0.021934
-2.742442	で/で しなりお/シナリオ	-0.021934
-2.720076	で/で しよう/使用	-0.021934
-2.742442	で/で じょうえん/上演	-0.021934
-2.742442	で/で じょせい/女性	-0.021934
-2.742442	で/で せいせき/成績	-0.021934
-2.742442	で/で せんし/戦死	-0.021934
-2.742442	で/で そだ/育	-0.021934
-2.634673	で/で だりつ/打率	-0.021934
-2.720076	で/で どうぶつ/動物	-0.021934
-1.522378	で/で の/の	-0.021934
-0.820511	で/で は/は	-0.060564
-2.720076	で/で はいき/排気	-0.021934
-2.720076	で/で はつ/初	-0.021934
-2.742442	で/で ほくと/ホクト	-0.021934
-2.742442	で/で ゆうしょう/優勝	-0.021934
-2.742442	で/で わしんとん/ワシントン	-0.021934
-2.634673	で/で ４/４	-0.021934
-2.587859	で/で ９/９	-0.021934
-1.106299	でいりー/デイリー らんきんぐ/ランキング	-0.021934
-1.326000	でき/でき な/な	-0.021934
-1.329639	でき/でき る/る	-0.021934
-1.041595	です/です </s>	-0.021934
-1.106299	でんげき/電撃 おん/オン	-0.021934
-1.003757	でんれい/伝令 が/が	-0.021934
-1.463591	と/と 、/、	-0.021934
-2.734837	と/と あかね/茜	-0.021934
-2.734837	と/と あわー/アワー	-0.021934
-1.556592	と/と い/い	-0.804298
-1.686373	と/と い/言	-0.436321
-2.734837	と/と いち/一	-0.021934
-2.734837	と/と いっしょ/一緒	-0.021934
-2.734837	と/と おおしま/大島	-0.021934
-2.734837	と/と かんちがい/勘違い	-0.021934
-2.734837	と/と き/切	-0.021934
-2.734837	と/と けっこん/結婚	-0.021934
-2.112637	と/と さ/さ	-0.021934
-2.734837	と/と さいかい/再会	-0.021934
-0.620911	と/と し/し	-0.772113
-2.734837	と/と すこてぃあ/スコティア	-0.021934
-2.184594	と/と する/する	-0.021934
-2.734837	と/と せいむ/政務	-0.021934
-2.734837	と/と せんす/センス	-0.021934
-2.734837	と/と そこく/祖国	-0.021934
-2.715158	と/と そるごー/ソルゴー	-0.021934
-2.734837	と/と つきあ/付き合	-0.021934
-2.734837	と/と と/問	-0.021934
-0.886725	と/と な/な	-0.425969
-1.568061	と/と の/の	-0.021934
-2.715158	と/と はつね/初音	-0.021934
-2.290413	と/と も/も	-0.021934
-1.099942	と/問 わ/わ	-0.021934
-1.102101	とうきょう/とうきょう おふぃす/オフィス	-0.021934
-1.396683	とうきょう/東京 おふぃす/オフィス	-0.021934
-1.404995	とうきょう/東京 くるせいど/クルセイド	-0.021934
-0.956394	とうげ/峠 を/を	-0.021934
-1.099942	とうげん/桃源 しゃ/社	-0.021934
-0.956394	とうさつ/盗撮 を/を	-0.021934
-1.106299	とうしゅ/当主 もうり/毛利	-0.021934
-1.371822	とうじ/当時 から/から	-0.021934
-1.088970	とうじ/当時 の/の	-0.021934
-1.041595	とうじょう/登場 </s>	-0.021934
-1.005486	とうちゃく/到着 し/し	-0.021934
-1.078925	とうなーけん/とうなーけん ）/）	-0.021934
-1.008965	とうひょう/投票 で/で	-0.021934
-1.005486	とうろく/登録 し/し	-0.021934
-1.106299	とおざけ/遠ざけ かねず/かねず	-0.021934
-0.927948	とき/とき に/に	-0.021934
-0.285585	とき/時 に/に	-0.021934
-1.008965	とくちょう/特徴 で/で	-0.021934
-1.102101	とくに/とくに ８/８	-0.021934
-0.993525	ところ/ところ 、/、	-0.021934
-1.106299	とし/都市 かん/間	-0.021934
-1.083048	としあき/敏明 「/「	-0.021934
-1.105508	としょ/図書 しゅっぱん/出版	-0.021934
-1.106299	とっぷ/トップ ５０/５０	-0.021934
-0.993525	とつぜん/突然 、/、	-0.021934
-1.095656	ととのえ/整え られ/られ	-0.021934
-1.070795	となえ/唱え て/て	-0.021934
-1.106299	とまつ/塗抹 ぎむざ/ギムザ	-0.021934
-0.927948	とも/とも に/に	-0.021934
-0.919339	ともこ/智子 の/の	-0.021934
-1.106299	とよみ/豊見 おや/親	-0.021934
-0.927948	とりしらべ/取り調べ に/に	-0.021934
-1.024974	とりにだーど/トリニダード と/と	-0.021934
-1.005486	とりもど/取り戻 し/し	-0.021934
-1.106299	とりわけ/取り分け おおきな/大きな	-0.021934
-1.008965	とれんとん/トレントン で/で	-0.021934
-0.993525	とろふぉぞいと/トロフォゾイト 、/、	-0.021934
-1.003757	とんぼ/とんぼ が/が	-0.021934
-0.927948	ど/度 に/に	-0.021934
-1.105508	どいつ/ドイツ じん/人	-0.021934
-1.005486	どういん/動員 し/し	-0.021934
-1.106299	どうちゅう/道中 ちゅうだん/中団	-0.021934
-1.220366	どうぶつ/動物 が/が	-0.021934
-1.404995	どうぶつ/動物 びょういん/病院	-0.021934
-0.993525	どうろ/道路 、/、	-0.021934
-1.106299	どくしょう/独唱 かい/会	-0.021934
-1.008965	どくだん/独断 で/で	-0.021934
-0.919339	どちゃく/土着 の/の	-0.021934
-1.008965	どらま/ドラマ で/で	-0.021934
-0.927948	どれん/ドレン に/に	-0.021934
-1.105508	どーぱんと/ドーパント ふく/含	-0.021934
-0.944672	な/な い/い	-0.060564
-2.523595	な/な いしょう/衣装	-0.021934
-2.523595	な/な うえ/上	-0.021934
-2.523595	な/な えいぞう/映像	-0.021934
-2.523595	な/な えぴそーど/エピソード	-0.021934
-2.523595	な/な おにごっこ/鬼ごっこ	-0.021934
-2.523595	な/な かいどう/街道	-0.021934
-1.134686	な/な かっ/かっ	-0.561260
-2.523595	な/な かなか/かなか	-0.021934
-2.253366	な/な く/く	-0.021934
-1.990929	な/な さ/さ	-0.021934
-2.415290	な/な しょうねん/少年	-0.021934
-2.523595	な/な たび/旅	-0.021934
-1.401024	な/な っ/っ	-0.488735
-2.523595	な/な べすと/ベスト	-0.021934
-2.415290	な/な もの/もの	-0.021934
-1.401199	な/な り/り	-0.436321
-1.397870	な/な る/る	-0.021934
-0.919339	ない/内 の/の	-0.021934
-1.106299	ないかく/内閣 ふ/府	-0.021934
-1.097794	ないそう/内装 など/など	-0.021934
-1.106299	なおひろ/直弘 りゅうじ/龍治	-0.021934
-0.993525	なか/中 、/、	-0.021934
-1.106299	なかの/中野 です/です	-0.021934
-1.003757	ながよし/長可 が/が	-0.021934
-1.203644	ながら/ながら 、/、	-0.021934
-1.404995	ながら/ながら ものがたり/物語	-0.021934
-1.255877	なす/ナス と/と	-0.021934
-1.088970	なす/ナス の/の	-0.021934
-0.927948	なつば/夏場 に/に	-0.021934
-1.456925	など/など 、/、	-0.021934
-1.481677	など/など が/が	-0.021934
-1.314595	など/など に/に	-0.021934
-0.632118	など/など の/の	-0.021934
-1.106299	なな/七 ふしぎ/不思議	-0.021934
-1.249753	なまえ/名前 は/は	-0.021934
-1.144915	なまえ/名前 を/を	-0.021934
-1.087210	なん/何 ら/ら	-0.021934
-1.105508	なんて/なんて かんがえ/考え	-0.021934
-1.008965	なんぶ/南部 で/で	-0.021934
-1.099942	なんぼくちょう/南北朝 じだい/時代	-0.021934
-0.927948	なーせる/ナーセル に/に	-0.021934
-1.730864	に/に 、/、	-0.021934
-1.881491	に/に 「/「	-0.021934
-2.014295	に/に あ/あ	-0.021934
-3.006406	に/に あた/あた	-0.021934
-3.006406	に/に あつま/集ま	-0.021934
-3.006406	に/に い/行	-0.021934
-3.006406	に/に いじゅう/移住	-0.021934
-3.006406	に/に いた/至	-0.021934
-2.050163	に/に いち/位置	-0.231635
-2.806334	に/に お/お	-0.021934
-3.006406	に/に おおいた/大分	-0.021934
-3.006406	に/に おけ/おけ	-0.231635
-2.609447	に/に おこな/行	-0.021934
-3.006406	に/に かけ/かけ	-0.021934
-3.006406	に/に かつて/かつて	-0.021934
-3.006406	に/に かわ/変わ	-0.021934
-3.006406	に/に かんりょう/完了	-0.021934
-3.006406	に/に かんれん/関連	-0.021934
-3.006406	に/に きた/北	-0.021934
-3.006406	に/に きょうみ/興味	-0.021934
-3.006406	に/に きんむ/勤務	-0.021934
-3.006406	に/に くにのみや/久邇宮	-0.021934
-2.961162	に/に くび/首	-0.021934
-3.006406	に/に ごうりゅう/合流	-0.021934
-3.006406	に/に さんちょう/山頂	-0.021934
-1.595487	に/に し/し	-0.149965
-3.006406	に/に しがん/志願	-0.021934
-3.006406	に/に してい/指定	-0.021934
-3.006406	に/に しはん/市販	-0.021934
-2.961162	に/に しゅつじょう/出場	-0.021934
-3.006406	に/に しょうきょく/消極	-0.021934
-3.006406	に/に じゅうぐん/従軍	-0.021934
-3.006406	に/に じょうしょう/上昇	-0.021934
-3.006406	に/に すぽーつ/スポーツ	-0.021934
-3.006406	に/に せいこう/成功	-0.021934
-2.961162	に/に せいひん/製品	-0.021934
-3.006406	に/に せんねん/専念	-0.021934
-2.806334	に/に ぜん/全	-0.021934
-3.006406	に/に た/立	-0.021934
-2.005545	に/に たい/対	-0.436321
-2.961162	に/に たいへい/太平	-0.021934
-3.006406	に/に たとえ/喩え	-0.021934
-3.006406	に/に たの/頼	-0.021934
-3.006406	に/に だいひょう/代表	-0.021934
-1.945172	に/に つ/つ	-0.436321
-3.006406	に/に つ/就	-0.021934
-3.006406	に/に つけ/着け	-0.021934
-3.006406	に/に てんのう/天皇	-0.021934
-2.961162	に/に とうきょう/東京	-0.021934
-3.006406	に/に とりわけ/取り分け	-0.021934
-1.800654	に/に な/な	-0.021934
-3.006406	に/に にゅうせん/入選	-0.021934
-1.040626	に/に は/は	-0.021934
-3.006406	に/に はい/入	-0.021934
-3.006406	に/に はいぞく/配属	-0.021934
-3.006406	に/に はいふ/配布	-0.021934
-3.006406	に/に はいぼく/敗北	-0.021934
-3.006406	に/に はくい/白衣	-0.021934
-3.006406	に/に はんぱつ/反発	-0.021934
-2.961162	に/に ひと/ヒト	-0.021934
-3.006406	に/に ふ/振	-0.021934
-3.006406	に/に ぶんげい/文芸	-0.021934
-3.006406	に/に へんじ/返事	-0.021934
-3.006406	に/に ほうしゅつ/放出	-0.021934
-3.006406	に/に ほんのう/本能	-0.021934
-3.006406	に/に ぼうだん/防弾	-0.021934
-2.961162	に/に みちの/美智乃	-0.021934
-3.006406	に/に みりょう/魅了	-0.021934
-3.006406	に/に むか/向か	-0.021934
-2.961162	に/に むけ/向け	-0.021934
-3.006406	に/に め/目	-0.021934
-1.506859	に/に も/も	-0.021934
-3.006406	に/に やっと/やっと	-0.021934
-1.156080	に/に よ/よ	-0.364414
-2.055469	に/に よびだ/呼び出	-0.231635
-3.006406	に/に らんくいん/ランクイン	-0.021934
-3.006406	に/に らーる/ラール	-0.021934
-2.050163	に/に りま/りま	-0.021934
-3.006406	に/に わた/亘	-0.021934
-3.006406	に/に わたり/渡り	-0.021934
-1.560162	に/二 い/位	-0.021934
-1.560162	に/二 ごう/号	-0.021934
-1.578765	に/二 じ/次	-0.021934
-1.064796	にが/苦 い/い	-0.021934
-0.993525	にく/肉 、/、	-0.021934
-1.106299	にしよどがわ/西淀川 く/区	-0.021934
-1.064796	にせんご/２００５ ねん/年	-0.021934
-1.064796	にせんじゅういち/２０１１ ねん/年	-0.021934
-1.064796	にせんじゅうに/２０１２ ねん/年	-0.021934
-1.064796	にせんなな/２００７ ねん/年	-0.021934
-1.530155	にち/日 から/から	-0.021934
-1.578765	にち/日 くうはく/　	-0.021934
-1.164321	にち/日 の/の	-0.021934
-1.102101	にちろ/日露 せんそう/戦争	-0.021934
-1.106299	にっぽん/日本 しんじん/新人	-0.021934
-1.106299	にほん/日本 さっかー/サッカー	-0.021934
-1.041595	にゅうせん/入選 </s>	-0.021934
-0.443164	にん/人 の/の	-0.021934
-1.311904	にん/人 を/を	-0.021934
-1.404995	にんき/人気 とうひょう/投票	-0.021934
-1.375868	にんき/人気 ２/２	-0.021934
-1.054978	にんてい/認定 さ/さ	-0.021934
-0.927948	にんむ/任務 に/に	-0.021934
-1.106299	ねっと/ネット じょう/上	-0.021934
-1.727864	ねん/年 、/、	-0.021934
-2.366683	ねん/年 げんざい/現在	-0.021934
-2.318373	ねん/年 ご/後	-0.021934
-2.419047	ねん/年 せい/制	-0.021934
-0.913444	ねん/年 に/に	-0.021934
-2.408728	ねん/年 まえ/前	-0.021934
-0.998667	ねん/年 （/（	-0.231635
-0.719625	ねん/年 ）/）	-0.301030
-2.318373	ねん/年 ３/３	-0.021934
-2.366683	ねん/年 ６/６	-0.021934
-2.341857	ねん/年 ９/９	-0.021934
-2.290089	の/の 「/「	-0.021934
-2.977360	の/の あ/ア	-0.021934
-2.977360	の/の あいだ/間	-0.021934
-2.977360	の/の あこがれ/憧れ	-0.021934
-2.977360	の/の あさ/朝	-0.021934
-2.071502	の/の い/い	-0.021934
-2.977360	の/の いぇーがん/イェーガン	-0.021934
-2.924985	の/の いち/位置	-0.021934
-2.977360	の/の いっしゅ/一種	-0.021934
-2.977360	の/の いのち/命	-0.021934
-2.977360	の/の いみ/意味	-0.021934
-2.924985	の/の いりょう/医療	-0.021934
-2.977360	の/の いんちょう/院長	-0.021934
-2.977360	の/の いんなー/インナー	-0.021934
-2.977360	の/の うち/うち	-0.021934
-2.668400	の/の えき/駅	-0.021934
-2.977360	の/の えきがく/疫学	-0.021934
-2.977360	の/の おそく/遅く	-0.021934
-2.538909	の/の か/か	-0.021934
-2.924985	の/の かれ/彼	-0.021934
-2.924985	の/の かんけい/関係	-0.021934
-2.924985	の/の かんとりー/カントリー	-0.021934
-2.977360	の/の がいちゅう/害虫	-0.021934
-2.977360	の/の がいひ/外皮	-0.021934
-2.977360	の/の がいよう/概要	-0.021934
-2.977360	の/の きそ/基礎	-0.021934
-2.977360	の/の きょういく/教育	-0.021934
-2.977360	の/の きょうえん/共演	-0.021934
-2.977360	の/の きょしゅ/挙手	-0.021934
-2.924985	の/の くび/首	-0.021934
-2.977360	の/の くぶん/区分	-0.021934
-2.977360	の/の けんしゅつ/検出	-0.021934
-2.977360	の/の げいのう/芸能	-0.021934
-2.977360	の/の げっかん/月間	-0.021934
-2.977360	の/の げつれい/月例	-0.021934
-2.924985	の/の げんいん/原因	-0.021934
-2.977360	の/の こ/子	-0.021934
-2.977360	の/の こうい/行為	-0.021934
-2.977360	の/の こうしゃ/校舎	-0.021934
-2.977360	の/の ことな/異な	-0.021934
-2.924985	の/の ころ/頃	-0.021934
-2.977360	の/の こんぴゅーた/コンピュータ	-0.021934
-2.977360	の/の さしず/指図	-0.021934
-2.977360	の/の しかい/司会	-0.021934
-2.924985	の/の しぜん/自然	-0.021934
-2.977360	の/の しぞんと/シゾント	-0.021934
-2.924985	の/の しつ/質	-0.021934
-2.924985	の/の しゅい/首位	-0.021934
-2.977360	の/の しゅうだん/集団	-0.021934
-2.977360	の/の しゅうちゃく/執着	-0.021934
-2.977360	の/の しゅうへい/州兵	-0.021934
-2.977360	の/の しょうじょ/少女	-0.021934
-2.977360	の/の しょうそく/消息	-0.021934
-2.977360	の/の しょくいん/職印	-0.021934
-2.977360	の/の しんき/新規	-0.021934
-2.977360	の/の じしん/地震	-0.021934
-2.977360	の/の じゅうげき/銃撃	-0.021934
-2.977360	の/の じょなさん/ジョナサン	-0.021934
-2.977360	の/の じんせい/人生	-0.021934
-2.977360	の/の すいらい/水雷	-0.021934
-2.977360	の/の すえ/末	-0.021934
-2.977360	の/の せいじ/政治	-0.021934
-2.924985	の/の せいひん/製品	-0.021934
-2.977360	の/の せんもん/専門	-0.021934
-2.977360	の/の そうだん/相談	-0.021934
-2.486250	の/の その/その	-0.021934
-2.668400	の/の たか/多賀	-0.021934
-2.977360	の/の たつじん/達人	-0.021934
-2.977360	の/の たんじょう/誕生	-0.021934
-2.598846	の/の だい/第	-0.021934
-2.977360	の/の ちいき/地域	-0.021934
-2.977360	の/の ちちおや/父親	-0.021934
-2.977360	の/の ちょうし/調子	-0.021934
-2.977360	の/の ちようこ/蝶子	-0.021934
-2.977360	の/の ちんたい/賃貸	-0.021934
-2.977360	の/の つうしん/通信	-0.021934
-2.977360	の/の つかい/つかい	-0.021934
-1.706341	の/の で/で	-0.021934
-2.924985	の/の とき/時	-0.021934
-2.977360	の/の どちゃく/土着	-0.021934
-2.071502	の/の な/な	-0.021934
-2.977360	の/の ないそう/内装	-0.021934
-2.058599	の/の なまえ/名前	-0.021934
-1.606623	の/の は/は	-0.149965
-2.924985	の/の はんざい/犯罪	-0.021934
-2.751257	の/の ばあい/場合	-0.021934
-2.977360	の/の ひと/一	-0.021934
-2.977360	の/の ひとり/１人	-0.021934
-2.977360	の/の ひろた/広食	-0.021934
-2.977360	の/の ふぃじかる/フィジカル	-0.021934
-2.058599	の/の ふたり/二人	-0.021934
-2.051939	の/の ぶか/部下	-0.021934
-2.924985	の/の ぶたい/部隊	-0.021934
-2.977360	の/の ぶんせき/分析	-0.021934
-2.977360	の/の へん/変	-0.021934
-2.977360	の/の へんか/変化	-0.021934
-2.977360	の/の ほうしん/砲身	-0.021934
-2.977360	の/の ほくぶ/北部	-0.021934
-2.977360	の/の ぼいす/ボイス	-0.021934
-2.924985	の/の まえ/前	-0.021934
-2.977360	の/の まと/的	-0.021934
-2.977360	の/の みんせい/民生	-0.021934
-2.977360	の/の めんどう/面倒	-0.021934
-2.024228	の/の よう/よう	-0.021934
-2.009132	の/の ようかい/妖怪	-0.021934
-2.977360	の/の りくろ/陸路	-0.021934
-2.977360	の/の れきし/歴史	-0.021934
-2.439291	の/の ２/２	-0.021934
-2.977360	の/の ２４/２４	-0.021934
-2.977360	の/の ４４/４４	-0.021934
-2.051939	の/の ５/５	-0.021934
-1.106299	の/野 たけ/嶽	-0.021934
-1.072813	のいず/ノイズ 」/」	-0.021934
-1.099942	のう/農 がっこう/学校	-0.021934
-0.919339	のこり/残り の/の	-0.021934
-1.106299	のび/伸び きれ/きれ	-0.021934
-0.835225	は/は 、/、	-0.021934
-1.432379	は/は 「/「	-0.021934
-2.806540	は/は あいりっしゅ/アイリッシュ	-0.021934
-2.806540	は/は あまーすと/アマースト	-0.021934
-2.806540	は/は うなぎ/鰻	-0.021934
-2.806540	は/は おおつき/大槻	-0.021934
-2.806540	は/は かた/語	-0.021934
-2.806540	は/は けいごうきん/軽合金	-0.021934
-2.806540	は/は けつだん/決断	-0.021934
-2.806540	は/は こくさい/国際	-0.021934
-2.806540	は/は しょくばい/触媒	-0.021934
-2.806540	は/は しろ/白	-0.021934
-2.806540	は/は じぶん/自分	-0.021934
-2.806540	は/は じょし/女子	-0.021934
-2.806540	は/は せいふく/制服	-0.021934
-2.548870	は/は せかい/世界	-0.021934
-2.775272	は/は せるてぃっくす/セルティックス	-0.021934
-2.806540	は/は ぜんいん/全員	-0.021934
-2.459780	は/は その/その	-0.021934
-2.806540	は/は たえ/絶え	-0.021934
-2.806540	は/は たかさか/高坂	-0.021934
-2.806540	は/は たんぱく/淡白	-0.021934
-1.766657	は/は だい/第	-0.021934
-2.806540	は/は だいかん/代官	-0.021934
-2.661079	は/は だりつ/打率	-0.021934
-2.806540	は/は ちゅうか/中華	-0.021934
-1.831840	は/は と/と	-0.021934
-2.806540	は/は とりにだーど/トリニダード	-0.021934
-2.806540	は/は どいつ/ドイツ	-0.021934
-2.806540	は/は どうちゅう/道中	-0.021934
-1.652459	は/は な/な	-0.436321
-2.806540	は/は なかの/中野	-0.021934
-2.806540	は/は にちろ/日露	-0.021934
-2.806540	は/は はんもと/版元	-0.021934
-2.806540	は/は ひきと/引き取	-0.021934
-2.806540	は/は ふめい/不明	-0.021934
-2.775272	は/は ぶか/部下	-0.021934
-2.806540	は/は ほうじん/法人	-0.021934
-2.806540	は/は ほっぽう/北方	-0.021934
-2.806540	は/は ほんらい/本来	-0.021934
-2.806540	は/は ぽーかー/ポーカー	-0.021934
-2.806540	は/は まっしょう/末梢	-0.021934
-2.806540	は/は まんが/漫画	-0.021934
-2.806540	は/は めぐろ/目黒	-0.021934
-2.806540	は/は もと/元	-0.021934
-2.806540	は/は よくちょう/翌朝	-0.021934
-2.661079	は/は ．/．	-0.021934
-2.806540	は/は １４/１４	-0.021934
-2.806540	は/は １９４４/１９４４	-0.021934
-2.806540	は/は ３００/３００	-0.021934
-1.068786	は/張 っ/っ	-0.021934
-1.021365	は/波 は/は	-0.021934
-1.005486	はあく/把握 し/し	-0.021934
-1.066787	はい/入 る/る	-0.021934
-1.008965	はい/杯 で/で	-0.021934
-0.304187	はいき/排気 がす/ガス	-0.231635
-1.105508	はいしん/配信 がいしゃ/会社	-0.021934
-1.021365	はいせん/敗戦 は/は	-0.021934
-1.054978	はいぞく/配属 さ/さ	-0.021934
-1.054978	はいふ/配布 さ/さ	-0.021934
-1.005486	はいぼく/敗北 し/し	-0.021934
-1.024974	はいゆう/俳優 と/と	-0.021934
-1.106299	はがー/ハガー および/及び	-0.021934
-0.956394	はくい/白衣 を/を	-0.021934
-1.024974	はじめ/始め と/と	-0.021934
-1.106299	はせがわ/長谷川 しゅうじ/修二	-0.021934
-1.074841	はそん/破損 （/（	-0.021934
-1.064796	はた/秦 ・/・	-0.021934
-0.993525	はだに/ハダニ 、/、	-0.021934
-1.005486	はっかく/発覚 し/し	-0.021934
-1.005486	はっしゃ/発射 し/し	-0.021934
-1.005486	はっぴょう/発表 し/し	-0.021934
-0.284504	はつ/初 の/の	-0.021934
-0.304187	はつね/初音 みく/ミク	-0.021934
-1.097794	はるあき/春秋 じょくん/叙勲	-0.021934
-1.404995	はんざい/犯罪 きしゃ/記者	-0.021934
-1.404995	はんざい/犯罪 しょうせつ/小説	-0.021934
-0.919339	はんすう/半数 の/の	-0.021934
-0.956394	はんぱつ/反発 を/を	-0.021934
-0.956394	はんもと/版元 を/を	-0.021934
-1.203644	ば/ば 、/、	-0.021934
-1.404995	ば/ば かんじゃ/患者	-0.021934
-1.021365	ば/場 は/は	-0.021934
-1.365505	ばあい/場合 、/、	-0.021934
-1.224420	ばあい/場合 に/に	-0.021934
-1.434160	ばあい/場合 は/は	-0.021934
-1.595576	ばあい/場合 も/も	-0.231635
-1.102101	ばくりょう/幕僚 ちょう/長	-0.021934
-0.956394	ばす/バス を/を	-0.021934
-1.106299	ばすたー/バスター けいたい/形態	-0.021934
-1.021365	ばっく/バック は/は	-0.021934
-0.927948	ばん/版 に/に	-0.021934
-1.404995	ばん/番 て/手	-0.021934
-1.403423	ばん/番 にんき/人気	-0.021934
-1.003757	ばんぞく/蛮族 が/が	-0.021934
-1.008965	ばんのう/万能 で/で	-0.021934
-1.021365	ばーくれい/バークレイ は/は	-0.021934
-1.105508	ばーぐ/バーグ へ/へ	-0.021934
-1.024974	ひ/妃 と/と	-0.021934
-0.919339	ひ/日 の/の	-0.021934
-0.919339	ひ/比 の/の	-0.021934
-1.102101	ひがしな/東那 けん/県	-0.021934
-1.099942	ひがしまつやま/東松山 えき/駅	-0.021934
-1.087210	ひきと/引き取 ら/ら	-0.021934
-1.064796	ひっと/ヒット する/する	-0.021934
-1.054978	ひてい/否定 さ/さ	-0.021934
-1.403423	ひと/ヒト か/科	-0.021934
-1.088970	ひと/ヒト の/の	-0.021934
-1.095656	ひと/一 つ/つ	-0.021934
-1.008965	ひとり/１人 で/で	-0.021934
-1.106299	ひめはな/ヒメハナ かめむし/カメムシ	-0.021934
-1.078925	ひょう/票 ）/）	-0.021934
-0.296547	ひょうげん/表現 と/と	-0.021934
-0.956394	ひよう/費用 を/を	-0.021934
-1.106299	ひろし/寛 ほう/法	-0.021934
-1.106299	ひろし/汎 あらぶ/アラブ	-0.021934
-1.106299	ひろた/広食 せい/性	-0.021934
-1.097794	ひろば/広場 など/など	-0.021934
-0.956394	ひん/品 を/を	-0.021934
-0.956394	び/日 を/を	-0.021934
-1.003757	び/美 が/が	-0.021934
-0.919339	びょういん/病院 の/の	-0.021934
-0.919339	びるぼーど/ビルボード の/の	-0.021934
-1.101754	ぴくる/ピクル に/に	-0.021934
-1.088970	ぴくる/ピクル の/の	-0.021934
-1.102101	ふ/府 しょう/賞	-0.021934
-1.087210	ふ/振 ら/ら	-0.021934
-1.021365	ふぁすべんだー/ファスベンダー は/は	-0.021934
-0.304187	ふぁー/ファー うぇい/ウェイ	-0.021934
-1.024974	ふぃじかる/フィジカル と/と	-0.021934
-0.956394	ふうけい/風景 を/を	-0.021934
-1.106299	ふぇいす/フェイス はがー/ハガー	-0.021934
-1.106299	ふぇーざー/フェーザー きかん/機関	-0.021934
-1.099942	ふぉっくす/フォックス しゃ/社	-0.021934
-0.919339	ふきん/付近 の/の	-0.021934
-0.304187	ふく/含 む/む	-0.021934
-1.087210	ふさわし/ふさわし く/く	-0.021934
-0.919339	ふしぎ/不思議 の/の	-0.021934
-1.106299	ふしん/不審 せん/船	-0.021934
-1.106299	ふたたび/再び わよ/和与	-0.021934
-1.088970	ふたり/二人 の/の	-0.021934
-1.249753	ふたり/二人 は/は	-0.021934
-1.003757	ふたり/２人 が/が	-0.021934
-1.106299	ふなこし/船越 えいいちろう/英一郎	-0.021934
-1.106299	ふなばし/船橋 しゅうへん/周辺	-0.021934
-1.003757	ふみひこ/文彦 が/が	-0.021934
-1.106299	ふみやす/文保 がんねん/元年	-0.021934
-1.102101	ふめい/不明 だっ/だっ	-0.021934
-0.927948	ふるい/ふるい に/に	-0.021934
-1.089306	ふるく/古く から/から	-0.021934
-0.993525	ふん/分 、/、	-0.021934
-1.106299	ぶ/ぶ とし/都市	-0.021934
-1.078925	ぶ/部 ）/）	-0.021934
-1.325807	ぶか/部下 が/が	-0.021934
-1.336812	ぶか/部下 で/で	-0.021934
-1.371607	ぶか/部下 と/と	-0.021934
-1.106299	ぶしゅう/武州 まつやま/松山	-0.021934
-1.005486	ぶそう/武装 し/し	-0.021934
-1.220366	ぶたい/部隊 が/が	-0.021934
-1.101754	ぶたい/部隊 に/に	-0.021934
-1.099942	ぶよう/舞踊 がっこう/学校	-0.021934
-0.927948	ぶらざーず/ブラザーズ に/に	-0.021934
-1.078925	ぶろー/ブロー ）/）	-0.021934
-1.106299	ぶんげい/文芸 としょ/図書	-0.021934
-1.008965	ぶんせき/分析 で/で	-0.021934
-1.106299	ぷらちな/プラチナ にんてい/認定	-0.021934
-1.097794	ぷれてすと/プレテスト ご/後	-0.021934
-1.404995	へ/へ しんにゅう/侵入	-0.021934
-1.088970	へ/へ の/の	-0.021934
-1.070795	へ/経 て/て	-0.021934
-1.003757	へくたーる/ヘクタール が/が	-0.021934
-0.956394	へん/変 を/を	-0.021934
-0.956394	へんか/変化 を/を	-0.021934
-0.956394	へんじ/返事 を/を	-0.021934
-1.072813	べ/べ 」/」	-0.021934
-1.106299	べいぐん/米軍 きち/基地	-0.021934
-1.106299	べすと/ベスト せらー/セラー	-0.021934
-0.956394	べんぐつそん/ベングツソン を/を	-0.021934
-1.106299	ぺてぃ/ペティ ぐるー/グルー	-0.021934
-0.588170	ぺーじ/頁 </s>	-0.231635
-1.423182	ぺーじ/頁 、/、	-0.021934
-1.613672	ぺーじ/頁 （/（	-0.021934
-0.919339	ほう/法 の/の	-0.021934
-0.919339	ほう/砲 の/の	-0.021934
-1.003757	ほうこく/報告 が/が	-0.021934
-1.054978	ほうしゅつ/放出 さ/さ	-0.021934
-1.105508	ほうしょう/褒章 せいど/制度	-0.021934
-1.021365	ほうしん/砲身 は/は	-0.021934
-1.105508	ほうじん/法人 むけ/向け	-0.021934
-1.404995	ほうせい/法政 がっかい/学会	-0.021934
-1.392439	ほうせい/法政 けんきゅう/研究	-0.021934
-1.106299	ほくと/ホクト するたん/スルタン	-0.021934
-0.927948	ほくぶ/北部 に/に	-0.021934
-1.099942	ほしょく/捕食 しゃ/者	-0.021934
-1.106299	ほぜん/保全 りん/林	-0.021934
-0.927948	ほっぽう/北方 に/に	-0.021934
-1.005486	ほどこ/施 し/し	-0.021934
-1.106299	ほんのう/本能 じ/寺	-0.021934
-1.106299	ほんみょう/本名 あんな/アンナ	-0.021934
-0.919339	ほんらい/本来 の/の	-0.021934
-1.021365	ぼいす/ボイス は/は	-0.021934
-1.396683	ぼうえい/防衛 しょう/省	-0.021934
-1.396683	ぼうえい/防衛 だい/大	-0.021934
-1.105508	ぼうご/防護 でき/でき	-0.021934
-0.956394	ぼうだん/防弾 を/を	-0.021934
-1.024974	ぼくし/牧師 と/と	-0.021934
-0.927948	ぼこぼこ/ボコボコ に/に	-0.021934
-1.106299	ぼっ/ぼっ こぼこ/こぼこ	-0.021934
-1.064796	ぼっぱつ/勃発 する/する	-0.231635
-1.064796	ぼびー/ボビー ・/・	-0.021934
-1.105508	ぽーかー/ポーカー ちゅう/中	-0.021934
-0.919339	ぽーとらんど/ポートランド の/の	-0.021934
-1.097794	ま/ま れ/れ	-0.021934
-1.064796	まいける/マイケル ・/・	-0.021934
-1.404995	まえ/前 ごろ/ごろ	-0.021934
-1.101754	まえ/前 に/に	-0.021934
-1.097794	まき/巻 ３/３	-0.021934
-0.956394	まさと/正人 を/を	-0.021934
-1.064796	まじ/まじ い/い	-0.021934
-1.105508	まじえ/交え ながら/ながら	-0.021934
-0.993525	また/また 、/、	-0.021934
-0.919339	まち/町 の/の	-0.021934
-1.106299	まっしょう/末梢 けつ/血	-0.021934
-0.956394	まっする/マッスル を/を	-0.021934
-1.106299	まっど/マッド さいえんてぃすと/サイエンティスト	-0.021934
-0.927948	まつ/末 に/に	-0.021934
-1.105508	まつい/松井 ぐん/軍	-0.021934
-1.099942	まつやま/松山 えき/駅	-0.021934
-1.566420	まで/まで お/お	-0.021934
-1.164321	まで/まで の/の	-0.021934
-1.576422	まで/まで ひと/ヒト	-0.021934
-1.068786	まと/まと っ/っ	-0.021934
-1.041595	まと/的 </s>	-0.021934
-1.091413	まにら/マニラ や/や	-0.021934
-1.087210	まね/招 く/く	-0.021934
-1.106299	まま/まま そうこう/走行	-0.021934
-1.064796	まりーあ/マリーア ・/・	-0.021934
-1.106299	まんが/まんが かれっじ/カレッジ	-0.021934
-0.919339	まんが/漫画 の/の	-0.021934
-1.064796	まんざい/漫才 する/する	-0.021934
-0.919339	まーくるんど/マークルンド の/の	-0.021934
-1.003757	まーけっと/マーケット が/が	-0.021934
-1.066787	み/見 る/る	-0.021934
-0.927948	み/身 に/に	-0.021934
-1.101754	みく/ミク に/に	-0.021934
-1.088970	みく/ミク の/の	-0.021934
-1.220366	みちの/美智乃 が/が	-0.021934
-1.101754	みちの/美智乃 に/に	-0.021934
-1.072813	みっくみく/みっくみく 」/」	-0.021934
-0.927948	みの/美濃 に/に	-0.021934
-1.054978	みりょう/魅了 さ/さ	-0.021934
-0.927948	みりょく/魅力 に/に	-0.021934
-1.106299	みんせい/民生 ひん/品	-0.021934
-1.284555	む/む </s>	-0.021934
-1.388237	む/む せかい/世界	-0.021934
-1.068786	むか/向か っ/っ	-0.021934
-1.337010	むけ/向け て/て	-0.021934
-1.088970	むけ/向け の/の	-0.021934
-1.106299	むす/結 ぶ/ぶ	-0.021934
-0.927948	むだ/無駄 に/に	-0.021934
-1.003757	め/目 が/が	-0.021934
-1.008965	めいぎ/名義 で/で	-0.021934
-1.578765	めいじ/明治 まつ/末	-0.021934
-1.576422	めいじ/明治 ３４/３４	-0.021934
-1.578765	めいじ/明治 ４０/４０	-0.021934
-1.091413	めがね/眼鏡 や/や	-0.021934
-1.106299	めぐろ/目黒 も/盛	-0.021934
-1.005486	めざ/目指 し/し	-0.021934
-1.095656	めだ/目立 つ/つ	-0.021934
-0.956394	めんどう/面倒 を/を	-0.021934
-1.041595	めんばー/メンバー </s>	-0.021934
-1.563154	も/も 、/、	-0.021934
-2.277015	も/も あ/あ	-0.231635
-2.384069	も/も いま/今	-0.021934
-2.310659	も/も おお/多	-0.021934
-2.216662	も/も おこな/行	-0.021934
-2.369315	も/も か/書	-0.021934
-2.384069	も/も かかわ/かかわ	-0.021934
-2.384069	も/も かかわ/関わ	-0.021934
-2.384069	も/も けいそう/係争	-0.021934
-2.384069	も/も けんとう/検討	-0.021934
-2.384069	も/も げんえき/現役	-0.021934
-2.384069	も/も せかんど/セカンド	-0.021934
-2.384069	も/も そうだ/操舵	-0.021934
-2.189365	も/も その/その	-0.021934
-2.384069	も/も ととのえ/整え	-0.021934
-1.921519	も/も な/な	-0.021934
-2.384069	も/も はっかく/発覚	-0.021934
-2.384069	も/も ばんのう/万能	-0.021934
-2.369315	も/も ふく/含	-0.021934
-2.384069	も/も ふたたび/再び	-0.021934
-2.163683	も/も ２/２	-0.021934
-1.068786	も/持 っ/っ	-0.021934
-1.106299	も/盛 とよみ/豊見	-0.021934
-1.076878	もう/網 も/も	-0.021934
-1.106299	もうり/毛利 よんじゅういち/四一	-0.021934
-1.005486	もたら/もたら し/し	-0.021934
-1.106299	もと/元 ろういん/老院	-0.021934
-1.389996	もの/もの が/が	-0.021934
-1.443559	もの/もの と/と	-0.021934
-1.434160	もの/もの は/は	-0.021934
-1.282649	もの/もの を/を	-0.021934
-0.927948	もの/者 に/に	-0.021934
-1.021365	ものがたり/物語 は/は	-0.021934
-0.956394	ものごと/物事 を/を	-0.021934
-1.106299	もも/もも うら/裏	-0.021934
-1.041595	もよう/模様 </s>	-0.021934
-1.106299	もり/森 ながよし/長可	-0.021934
-1.993309	や/や あやし/怪し	-0.021934
-1.987249	や/や えんじん/エンジン	-0.021934
-1.993309	や/や おーすとらりあ/オーストラリア	-0.021934
-1.993309	や/や くさかげろう/クサカゲロウ	-0.021934
-1.993309	や/や なおひろ/直弘	-0.021934
-1.993309	や/や はだに/ハダニ	-0.021934
-1.993309	や/や ふうけい/風景	-0.021934
-1.993309	や/や ろれーた/ロレータ	-0.021934
-1.003757	やく/役 が/が	-0.021934
-1.404995	やく/約 はんすう/半数	-0.021934
-1.403423	やく/約 ５/５	-0.021934
-1.106299	やっと/やっと とうちゃく/到着	-0.021934
-1.099942	やよい/弥生 じだい/時代	-0.021934
-1.105508	やん/やん よ/よ	-0.021934
-1.064796	ゆうしゅう/優秀 な/な	-0.021934
-1.064796	ゆうしょう/優勝 する/する	-0.021934
-1.105508	ゆうよ/猶予 きかん/期間	-0.021934
-0.919339	ゆうれい/ユウレイ の/の	-0.021934
-1.689036	よ/よ っ/っ	-0.561260
-1.837013	よ/よ り/り	-0.021934
-1.680755	よ/よ る/る	-0.021934
-1.825415	よ/よ れ/れ	-0.021934
-1.714870	よ/よ （/（	-0.021934
-1.732987	よ/よ ）/）	-0.021934
-1.105508	よ/呼 ん/ん	-0.231635
-1.701395	よう/よう しじ/指示	-0.021934
-1.701395	よう/よう せっけい/設計	-0.021934
-1.402780	よう/よう で/で	-0.021934
-1.556902	よう/よう な/な	-0.021934
-1.396683	よう/洋 せんそう/戦争	-0.021934
-1.403423	よう/洋 ぶたい/部隊	-0.021934
-1.578765	ようかい/妖怪 じょ/序	-0.021934
-1.336812	ようかい/妖怪 で/で	-0.021934
-1.371607	ようかい/妖怪 と/と	-0.021934
-1.404995	ようし/容姿 たんれい/端麗	-0.021934
-1.228976	ようし/容姿 で/で	-0.021934
-1.105508	よくちょう/翌朝 だい/代	-0.021934
-1.072813	よばい/夜這い 」/」	-0.021934
-1.054978	よびだ/呼び出 さ/さ	-0.231635
-1.106299	よみ/読み きり/切り	-0.021934
-1.105508	よろこ/喜 ん/ん	-0.021934
-0.919339	よんじゅういち/四一 の/の	-0.021934
-1.064796	よーろっぱ/ヨーロッパ ・/・	-0.021934
-2.013340	ら/ら か/か	-0.021934
-2.090033	ら/ら ざる/ざる	-0.021934
-0.949891	ら/ら ず/ず	-0.021934
-2.083914	ら/ら せ/せ	-0.021934
-0.945517	ら/ら れ/れ	-0.021934
-1.465821	ら/ら を/を	-0.021934
-0.927948	らいん/ライン に/に	-0.021934
-0.927948	らずふぁーど/ラズファード に/に	-0.021934
-1.480970	られ/られ 、/、	-0.021934
-0.766834	られ/られ た/た	-0.231635
-1.721322	られ/られ て/て	-0.021934
-1.698976	られ/られ な/な	-0.021934
-1.706298	られ/られ る/る	-0.021934
-1.008965	らんきんぐ/ランキング で/で	-0.021934
-1.005486	らんくいん/ランクイン し/し	-0.021934
-0.919339	らーる/ラール の/の	-0.021934
-0.433121	り/り 、/、	-0.021934
-1.791504	り/り 「/「	-0.021934
-1.877391	り/り ぷらちな/プラチナ	-0.021934
-1.106299	りくじょう/陸上 ばくりょう/幕僚	-0.021934
-0.956394	りくろ/陸路 を/を	-0.021934
-1.106299	りつ/立 のう/農	-0.021934
-1.325807	りま/りま が/が	-0.021934
-1.179570	りま/りま に/に	-0.021934
-1.164321	りま/りま の/の	-0.021934
-1.072813	りゅう/龍 」/」	-0.021934
-0.993525	りゅうじ/龍治 、/、	-0.021934
-1.024974	りょういき/領域 と/と	-0.021934
-1.106299	りよん/リヨン こくりつ/国立	-0.021934
-1.005486	りりーす/リリース し/し	-0.021934
-0.927948	りん/林 に/に	-0.021934
-1.105508	りーぐ/リーグ しゅい/首位	-0.021934
-0.725708	る/る </s>	-1.406358
-2.249866	る/る 「/「	-0.021934
-2.643033	る/る あたり/あたり	-0.021934
-2.421799	る/る か/か	-0.021934
-1.732878	る/る が/が	-0.021934
-2.643033	る/る きいろあざみうま/キイロアザミウマ	-0.021934
-2.622336	る/る きゃらくたー/キャラクター	-0.021934
-2.643033	る/る きんだい/近代	-0.021934
-2.542618	る/る ぎいん/議員	-0.021934
-2.643033	る/る くせ/癖	-0.021934
-2.643033	る/る くんしょう/勲章	-0.021934
-1.512828	る/る こと/こと	-0.021934
-2.643033	る/る ごと/毎	-0.021934
-2.643033	る/る さいしょう/崔鍾	-0.021934
-2.643033	る/る ざいにち/在日	-0.021934
-2.498504	る/る しょうねん/少年	-0.021934
-2.643033	る/る じんぶつ/人物	-0.021934
-2.643033	る/る せき/赤	-0.021934
-2.498504	る/る ため/ため	-0.021934
-2.643033	る/る だんせい/弾性	-0.021934
-1.389162	る/る と/と	-0.021934
-2.458460	る/る など/など	-0.021934
-1.478736	る/る に/に	-0.021934
-2.643033	る/る ひろし/汎	-0.021934
-2.643033	る/る まんが/まんが	-0.021934
-2.498504	る/る もの/もの	-0.021934
-2.643033	る/る もよう/模様	-0.021934
-2.542618	る/る よう/よう	-0.021934
-1.013234	れ/れ 、/、	-0.021934
-2.046027	れ/れ 「/「	-0.021934
-1.072112	れ/れ た/た	-0.186920
-1.070648	れ/れ て/て	-0.517264
-2.223891	れ/れ ば/ば	-0.021934
-1.067735	れ/れ る/る	-0.135767
-1.388237	れい/令 だい/第	-0.021934
-1.344509	れい/令 （/（	-0.021934
-1.021365	れおん/レオン は/は	-0.021934
-1.072813	れきし/歴史 」/」	-0.021934
-1.106299	れこーど/レコード きょうかい/協会	-0.021934
-1.106299	れっど/レッド うっど/ウッド	-0.021934
-1.097794	れつ/列 だい/第	-0.021934
-1.076878	ればのん/レバノン も/も	-0.021934
-1.106299	れんぽう/連邦 ぎかい/議会	-0.021934
-0.919339	ろういん/老院 の/の	-0.021934
-1.105508	ろく/六 ばん/番	-0.021934
-1.106299	ろせん/路線 ばす/バス	-0.021934
-0.927948	ろれーた/ロレータ に/に	-0.021934
-1.076878	ろんぶん/論文 も/も	-0.021934
-0.275364	わ/わ れ/れ	-0.333767
-1.087210	わか/若 く/く	-0.021934
-1.105508	わしんとん/ワシントン ぐん/軍	-0.021934
-1.106299	わずか/わずか いちよ/一代	-0.021934
-1.068786	わた/亘 っ/っ	-0.021934
-0.919339	わたし/私 の/の	-0.021934
-1.105508	わたり/渡り しょう/小	-0.021934
-1.024974	わたる/渉 と/と	-0.021934
-1.003757	わよ/和与 が/が	-0.021934
-0.956394	わんしょう/腕章 を/を	-0.021934
-1.064796	わーなー/ワーナー ・/・	-0.021934
-2.910141	を/を あたえ/与え	-0.021934
-2.910141	を/を あっか/悪化	-0.021934
-2.910141	を/を あらわ/表	-0.021934
-2.865608	を/を い/言	-0.021934
-2.910141	を/を いか/生か	-0.021934
-2.910141	を/を いだ/抱	-0.021934
-2.865608	を/を いりょう/医療	-0.021934
-2.910141	を/を いわ/祝	-0.021934
-1.906184	を/を うけ/受け	-0.149965
-2.910141	を/を うれし/うれし	-0.021934
-2.910141	を/を うんえい/運営	-0.021934
-2.910141	を/を うんこう/運行	-0.021934
-2.910141	を/を え/得	-0.021934
-2.910141	を/を えん/演	-0.021934
-2.517505	を/を おこな/行	-0.021934
-2.910141	を/を おとずれ/訪れ	-0.021934
-2.865608	を/を か/書	-0.021934
-2.865608	を/を かいさい/開催	-0.021934
-2.910141	を/を かえ/変え	-0.021934
-1.906184	を/を かくとく/獲得	-0.149965
-2.910141	を/を かけ/懸け	-0.021934
-2.865608	を/を かんがえ/考え	-0.021934
-2.910141	を/を きせ/着せ	-0.021934
-2.910141	を/を きちょう/基調	-0.021934
-1.950967	を/を きろく/記録	-0.231635
-2.910141	を/を くみあわせ/組み合わせ	-0.021934
-2.910141	を/を くりかえ/繰り返	-0.021934
-2.865608	を/を けん/剣	-0.021934
-2.637478	を/を けんきゅう/研究	-0.021934
-2.910141	を/を こうせい/光成	-0.021934
-2.910141	を/を こえ/超え	-0.021934
-2.910141	を/を さいよう/採用	-0.021934
-1.950967	を/を し/知	-0.231635
-2.910141	を/を しい/強い	-0.021934
-2.910141	を/を しかけ/仕掛け	-0.021934
-2.910141	を/を しき/指揮	-0.021934
-2.910141	を/を しきゅう/支給	-0.021934
-2.910141	を/を しめ/示	-0.021934
-2.865608	を/を しゅうりょう/終了	-0.021934
-2.910141	を/を しゅじん/主人	-0.021934
-2.910141	を/を しゅっぱつ/出発	-0.021934
-2.910141	を/を しょうかい/紹介	-0.021934
