
\data\
ngram 1=1122
ngram 2=2341

\1-grams:
-1.850864	</s>
-99	<s>	-0.556220
-3.213074	”/“	-0.045635
-1.591237	、/、	-0.070026
-2.290157	「/「	-0.045635
-2.138908	」/」	-0.209202
-2.767151	あ/あ	-0.618221
-3.339621	あ/ア	-0.045635
-3.339621	あいだ/間	-0.045635
-3.339621	あいて/相手	-0.045635
-3.339621	あいてむ/アイテム	-0.045635
-3.339621	あいりっしゅ/アイリッシュ	-0.045635
-3.339621	あいるらんど/アイルランド	-0.045635
-3.339621	あお/青	-0.045635
-3.339621	あか/あか	-0.045635
-3.339621	あかね/茜	-0.045635
-3.339621	あきひろ/空広	-0.045635
-3.339621	あこがれ/憧れ	-0.045635
-3.339621	あさ/朝	-0.045635
-3.339621	あさくら/朝倉	-0.045635
-3.339621	あた/あた	-0.045635
-3.339621	あたえ/与え	-0.045635
-3.339621	あたり/あたり	-0.045635
-3.339621	あっか/悪化	-0.045635
-3.339621	あっぷ/アップ	-0.045635
-3.339621	あつま/集ま	-0.045635
-2.892027	あと/後	-0.045635
-3.339621	あにか/アニカ	-0.045635
-3.339621	あにめ/アニメ	-0.045635
-2.892027	あふりか/アフリカ	-0.045635
-3.339621	あぶどぅん/アブドゥン	-0.045635
-3.339621	あぶらむし/アブラムシ	-0.045635
-3.339621	あぷろーち/アプローチ	-0.045635
-3.339621	あまーすと/アマースト	-0.045635
-3.213074	あめりか/アメリカ	-0.045635
-3.339621	あやし/怪し	-0.045635
-3.339621	あらぶ/アラブ	-0.045635
-3.339621	あらわ/表	-0.045635
-3.339621	ある/ある	-0.045635
-3.339621	あるばむ/アルバム	-0.045635
-3.339621	あわー/アワー	-0.045635
-3.339621	あんな/アンナ	-0.045635
-2.047146	い/い	-0.387060
-2.767151	い/位	-0.045635
-3.339621	い/行	-0.045635
-3.213074	い/言	-0.165523
-3.339621	いぇーがん/イェーガン	-0.045635
-3.339621	いか/生か	-0.045635
-3.339621	いがい/以外	-0.045635
-3.339621	いき/生き	-0.045635
-3.339621	いぎりす/イギリス	-0.045635
-3.339621	いく/いく	-0.045635
-3.339621	いし/石	-0.045635
-3.339621	いしょう/衣装	-0.045635
-3.339621	いじ/意地	-0.045635
-3.339621	いじゅう/移住	-0.045635
-3.339621	いた/至	-0.045635
-3.339621	いたりあ/イタリア	-0.045635
-3.339621	いだ/抱	-0.045635
-3.339621	いち/一	-0.045635
-3.213074	いち/位置	-0.164647
-3.339621	いちよ/一代	-0.045635
-3.339621	いっしゅ/一種	-0.045635
-3.339621	いっしょ/一緒	-0.045635
-3.339621	いってい/一定	-0.045635
-3.339621	いのち/命	-0.045635
-3.339621	いま/今	-0.045635
-3.339621	いみ/意味	-0.045635
-3.213074	いりょう/医療	-0.045635
-3.339621	いわ/祝	-0.045635
-3.339621	いわゆる/いわゆる	-0.045635
-3.339621	いん/員	-0.045635
-3.213074	いんたい/引退	-0.045635
-3.339621	いんちょう/院長	-0.045635
-3.339621	いんなー/インナー	-0.045635
-3.339621	いんよう/飲用	-0.045635
-2.767151	う/う	-0.045635
-3.339621	うぃーくりーらんきんぐ/ウィークリーランキング	-0.045635
-3.339621	うぇい/ウェイ	-0.045635
-3.339621	うぇすたん/ウェスタン	-0.045635
-3.339621	うえ/うえ	-0.045635
-3.339621	うえ/上	-0.045635
-3.339621	うえるず/ウエルズ	-0.045635
-3.339621	うかがえ/伺え	-0.045635
-3.339621	うけ/受け	-0.164647
-3.339621	うごか/動か	-0.045635
-3.339621	うち/うち	-0.045635
-3.339621	うちとみ/内冨	-0.045635
-3.339621	うちのめ/打ちのめ	-0.045635
-3.339621	うっど/ウッド	-0.045635
-3.339621	うつ/移	-0.045635
-3.339621	うなぎ/鰻	-0.045635
-3.339621	うみず/海津	-0.045635
-3.339621	うら/裏	-0.045635
-3.339621	うれし/うれし	-0.045635
-3.339621	うんえい/運営	-0.045635
-3.339621	うんこう/運行	-0.045635
-3.339621	え/え	-0.045635
-3.339621	え/得	-0.045635
-3.339621	えいいちろう/英一郎	-0.045635
-3.339621	えいが/映画	-0.045635
-3.339621	えいきょう/影響	-0.045635
-3.339621	えいじゃっくす/エイジャックス	-0.045635
-3.339621	えいせい/衛生	-0.045635
-3.339621	えいぞう/映像	-0.045635
-3.339621	えいだっく/エイダック	-0.045635
-2.767151	えき/駅	-0.045635
-3.339621	えきがく/疫学	-0.045635
-3.339621	えぎ/榎木	-0.045635
-3.339621	えさ/餌	-0.045635
-3.339621	えぴそーど/エピソード	-0.045635
-3.339621	えら/選	-0.045635
-3.339621	えん/演	-0.045635
-3.339621	えんげき/演劇	-0.045635
-3.213074	えんじん/エンジン	-0.045635
-3.339621	えんだん/縁談	-0.045635
-2.892027	お/お	-0.394024
-3.339621	お/逐	-0.045635
-3.339621	おう/王	-0.045635
-3.339621	おうごん/黄金	-0.045635
-2.892027	おお/多	-0.164647
-3.339621	おおいた/大分	-0.045635
-3.339621	おおきな/大きな	-0.045635
-3.339621	おおく/多く	-0.045635
-3.339621	おおさか/大阪	-0.045635
-3.339621	おおしま/大島	-0.045635
-3.339621	おおつき/大槻	-0.045635
-3.339621	おぐら/小倉	-0.045635
-3.339621	おけ/おけ	-0.239144
-2.591123	おこな/行	-0.217932
-3.339621	おそく/遅く	-0.045635
-3.339621	おとずれ/訪れ	-0.045635
-3.339621	おにごっこ/鬼ごっこ	-0.045635
-2.892027	おふぃす/オフィス	-0.045635
-3.339621	おも/思	-0.045635
-3.339621	おや/親	-0.045635
-3.339621	および/および	-0.045635
-3.339621	および/及び	-0.045635
-3.213074	おりこん/オリコン	-0.045635
-3.339621	おりじんきー/オリジンキー	-0.045635
-3.339621	おわ/終わ	-0.045635
-3.339621	おん/オン	-0.045635
-3.339621	おんがく/音楽	-0.045635
-3.339621	おんせん/温泉	-0.045635
-3.339621	おんど/温度	-0.045635
-3.339621	おんなのこ/女の子	-0.045635
-3.339621	おーすとらりあ/オーストラリア	-0.045635
-2.591123	か/か	-0.164647
-3.339621	か/化	-0.045635
-3.339621	か/家	-0.045635
-3.213074	か/日	-0.239144
-3.213074	か/書	-0.045635
-3.213074	か/科	-0.045635
-3.339621	か/駆	-0.045635
-3.339621	かい/会	-0.045635
-3.339621	かいきょう/海峡	-0.045635
-3.213074	かいさい/開催	-0.045635
-3.213074	かいしゃ/会社	-0.045635
-3.339621	かいしゅう/改修	-0.045635
-3.339621	かいどう/街道	-0.045635
-3.339621	かいふく/回復	-0.045635
-3.339621	かえ/変え	-0.045635
-3.339621	かかわ/かかわ	-0.045635
-3.339621	かかわ/関わ	-0.045635
-3.339621	かがく/科学	-0.045635
-3.339621	かくち/各地	-0.045635
-3.339621	かくとく/獲得	-0.164647
-3.339621	かけ/かけ	-0.045635
-3.339621	かけ/懸け	-0.045635
-3.339621	かけい/家系	-0.045635
-3.339621	かげ/影	-0.045635
-3.339621	かさい/火災	-0.045635
-3.339621	かず/数	-0.045635
-3.339621	かせぎ/稼ぎ	-0.045635
-3.339621	かせつ/仮説	-0.045635
-3.339621	かた/語	-0.045635
-3.339621	かっ/かっ	-0.339110
-3.339621	かつて/かつて	-0.045635
-3.339621	かつどう/活動	-0.045635
-3.339621	かなか/かなか	-0.045635
-3.339621	かねず/かねず	-0.045635
-3.339621	かのう/可能	-0.045635
-3.339621	かぶしき/株式	-0.045635
-3.339621	かみのうがね/上納金	-0.045635
-3.339621	かめむし/カメムシ	-0.045635
-2.415074	から/から	-0.045635
-3.339621	からき/唐木	-0.045635
-3.213074	かれ/彼	-0.045635
-3.339621	かれっじ/カレッジ	-0.045635
-3.339621	かろう/家老	-0.045635
-3.339621	かわ/変わ	-0.045635
-3.339621	かわいらし/可愛らし	-0.045635
-3.339621	かん/間	-0.045635
-3.339621	かん/館	-0.045635
-3.213074	かんがえ/考え	-0.045635
-3.339621	かんきょう/環境	-0.045635
-3.213074	かんけい/関係	-0.045635
-3.213074	かんこく/韓国	-0.239144
-3.339621	かんさい/関西	-0.045635
-3.339621	かんしょ/官所	-0.045635
-3.339621	かんじゃ/患者	-0.045635
-3.339621	かんたい/艦隊	-0.045635
-3.339621	かんちがい/勘違い	-0.045635
-3.213074	かんとりー/カントリー	-0.045635
-3.339621	かんめい/艦名	-0.045635
-3.339621	かんりょう/完了	-0.045635
-3.339621	かんれん/関連	-0.045635
-1.636994	が/が	-0.138588
-3.213074	がいこく/外国	-0.239144
-3.213074	がいしゃ/会社	-0.045635
-3.339621	がいちゅう/害虫	-0.045635
-3.339621	がいひ/外皮	-0.045635
-3.339621	がいよう/概要	-0.045635
-3.339621	がくえん/学園	-0.045635
-3.339621	がくせい/学生	-0.045635
-3.339621	がす/ガス	-0.239144
-3.339621	がっかい/学会	-0.045635
-2.767151	がっこう/学校	-0.045635
-2.591123	がつ/月	-0.131700
-3.339621	がまーる/ガマール	-0.045635
-3.339621	がめとさいと/ガメトサイト	-0.045635
-3.339621	がんつ/ガンツ	-0.045635
-3.339621	がんねん/元年	-0.045635
-3.339621	がーでぃあん/ガーディアン	-0.045635
-3.213074	き/き	-0.045635
-3.339621	き/切	-0.045635
-3.339621	きいろあざみうま/キイロアザミウマ	-0.045635
-3.213074	きかん/期間	-0.045635
-3.339621	きかん/機関	-0.045635
-2.892027	きけん/危険	-0.045635
-3.339621	きしゃ/記者	-0.045635
-3.339621	きじゅん/基準	-0.045635
-3.339621	きせ/着せ	-0.045635
-3.339621	きそ/基礎	-0.045635
-3.339621	きた/北	-0.045635
-3.339621	きち/基地	-0.045635
-3.339621	きちょう/基調	-0.045635
-3.339621	きつりん/吉林	-0.045635
-3.339621	きめ/決め	-0.045635
-3.213074	きゃらくたー/キャラクター	-0.045635
-3.339621	きゅうしゅう/九州	-0.045635
-3.339621	きょういく/教育	-0.045635
-3.339621	きょういん/教員	-0.045635
-3.339621	きょうえん/共演	-0.045635
-3.339621	きょうかい/協会	-0.045635
-3.339621	きょうみ/興味	-0.045635
-3.339621	きょうわ/共和	-0.045635
-3.339621	きょく/局	-0.045635
-3.339621	きょくたん/極端	-0.045635
-3.339621	きょしゅ/挙手	-0.045635
-3.339621	きり/切り	-0.045635
-3.339621	きれ/きれ	-0.045635
-3.213074	きろく/記録	-0.164647
-3.339621	きん/金	-0.045635
-3.339621	きんだい/近代	-0.045635
-3.339621	きんむ/勤務	-0.045635
-2.892027	ぎいん/議員	-0.045635
-3.339621	ぎかい/議会	-0.045635
-3.339621	ぎむざ/ギムザ	-0.045635
-3.339621	ぎょうむ/業務	-0.045635
-3.339621	ぎょらい/魚雷	-0.045635
-2.369325	く/く	-0.101077
-3.339621	く/区	-0.045635
-3.339621	く/食	-0.045635
-3.339621	くうはく/　	-0.045635
-3.339621	くさかげろう/クサカゲロウ	-0.045635
-3.339621	くせ/癖	-0.045635
-3.339621	くにのみや/久邇宮	-0.045635
-3.213074	くび/首	-0.045635
-3.339621	くぶん/区分	-0.045635
-3.339621	くみあわせ/組み合わせ	-0.045635
-3.339621	くりかえ/繰り返	-0.045635
-3.339621	くる/くる	-0.045635
-3.339621	くるせいど/クルセイド	-0.045635
-3.339621	くれ/くれ	-0.045635
-3.339621	くれない/紅	-0.045635
-3.339621	くろす/クロス	-0.045635
-3.339621	くん/勲	-0.045635
-3.339621	くんしょう/勲章	-0.045635
-3.339621	ぐるー/グルー	-0.045635
-3.213074	ぐん/軍	-0.045635
-3.339621	ぐんぶ/軍部	-0.045635
-3.213074	けい/計	-0.045635
-3.339621	けいけん/経験	-0.045635
-3.339621	けいごうきん/軽合金	-0.045635
-3.339621	けいしき/形式	-0.045635
-3.339621	けいじ/刑事	-0.045635
-3.339621	けいそう/係争	-0.045635
-3.339621	けいたい/形態	-0.045635
-3.339621	けいば/競馬	-0.045635
-3.339621	けいりょう/軽量	-0.045635
-3.339621	けっきゅう/血球	-0.045635
-3.339621	けっこん/結婚	-0.045635
-3.339621	けっせい/結成	-0.045635
-3.339621	けつ/血	-0.045635
-3.339621	けつだん/決断	-0.045635
-3.213074	けん/剣	-0.045635
-2.892027	けん/県	-0.045635
-2.767151	けんきゅう/研究	-0.045635
-3.339621	けんさく/検索	-0.045635
-3.339621	けんしゅつ/検出	-0.045635
-3.339621	けんぞう/建造	-0.045635
-3.339621	けんとう/検討	-0.045635
-3.339621	げいのう/芸能	-0.045635
-3.339621	げっかん/月間	-0.045635
-3.339621	げつれい/月例	-0.045635
-3.339621	げん/現	-0.045635
-3.213074	げんいん/原因	-0.045635
-3.339621	げんえき/現役	-0.045635
-2.892027	げんざい/現在	-0.045635
-3.339621	こ/子	-0.045635
-3.339621	こう/公	-0.045635
-3.339621	こうい/行為	-0.045635
-3.339621	こうえん/公園	-0.045635
-3.339621	こうし/講師	-0.045635
-3.339621	こうしゃ/校舎	-0.045635
-3.339621	こうせい/光成	-0.045635
-3.339621	こうせい/構成	-0.045635
-3.339621	こうぞう/構造	-0.045635
-3.339621	こうち/高知	-0.045635
-3.213074	こうつう/交通	-0.045635
-3.339621	こうでら/国府	-0.045635
-3.339621	こうとう/高等	-0.045635
-3.339621	こうふく/降伏	-0.045635
-3.339621	こうめい/孝明	-0.045635
-3.339621	こうりゃん/コウリャン	-0.045635
-3.339621	こうれい/高齢	-0.045635
-3.339621	こえ/超え	-0.045635
-3.339621	こく/国	-0.045635
-3.339621	こくさい/国際	-0.045635
-3.339621	こくりつ/国立	-0.045635
-3.339621	こしゅう/湖州	-0.045635
-2.415074	こと/こと	-0.301811
-3.213074	こと/事	-0.239144
-3.339621	ことな/異な	-0.045635
-3.339621	ことば/言葉	-0.045635
-3.339621	こども/子供	-0.045635
-3.213074	この/この	-0.045635
-3.339621	こふん/古墳	-0.045635
-3.339621	こぼこ/こぼこ	-0.045635
-3.339621	こみっく/コミック	-0.045635
-3.213074	これ/これ	-0.164647
-3.213074	ころ/頃	-0.045635
-3.339621	こんこーど/コンコード	-0.045635
-3.339621	こんてんつ/コンテンツ	-0.045635
-3.339621	こんぴゅーた/コンピュータ	-0.045635
-3.339621	こーひー/コーヒー	-0.045635
-2.670279	ご/後	-0.045635
-2.767151	ごう/号	-0.131700
-3.339621	ごうだつ/強奪	-0.045635
-3.339621	ごうりゅう/合流	-0.045635
-3.339621	ごと/毎	-0.045635
-3.339621	ごろ/ごろ	-0.045635
-1.954399	さ/さ	-0.956382
-3.339621	さい/歳	-0.045635
-3.339621	さいあく/最悪	-0.045635
-3.339621	さいえんてぃすと/サイエンティスト	-0.045635
-3.339621	さいかい/再会	-0.045635
-3.213074	さいしゅう/最終	-0.045635
-3.339621	さいしょ/最初	-0.045635
-3.339621	さいしょう/崔鍾	-0.045635
-3.339621	さいしん/最新	-0.045635
-3.339621	さいと/サイト	-0.045635
-3.339621	さいよう/採用	-0.045635
-3.213074	さくひん/作品	-0.045635
-3.339621	さしず/指図	-0.045635
-3.339621	さっかー/サッカー	-0.045635
-3.339621	さるがばば/猿ヶ馬場	-0.045635
-3.339621	さんか/参加	-0.045635
-3.339621	さんず/サンズ	-0.045635
-3.339621	さんせい/賛成	-0.045635
-3.339621	さんちょう/山頂	-0.045635
-3.339621	さんでー/サンデー	-0.045635
-3.339621	ざいにち/在日	-0.045635
-3.213074	ざざーぐ/ザザーグ	-0.045635
-3.339621	ざる/ざる	-0.045635
-1.645111	し/し	-0.716756
-3.339621	し/史	-0.045635
-3.339621	し/市	-0.045635
-3.213074	し/知	-0.164647
-3.339621	しあい/試合	-0.045635
-3.339621	しい/強い	-0.045635
-3.339621	しいき/市域	-0.045635
-3.339621	しかい/司会	-0.045635
-3.339621	しかけ/仕掛け	-0.045635
-3.339621	しかし/しかし	-0.045635
-3.339621	しがん/志願	-0.045635
-3.339621	しき/指揮	-0.045635
-3.339621	しきゅう/支給	-0.045635
-3.339621	しじ/指示	-0.045635
-3.339621	しすてむ/システム	-0.045635
-3.213074	しぜん/自然	-0.045635
-3.339621	しぞんと/シゾント	-0.045635
-3.339621	しっこう/執行	-0.045635
-3.339621	しつ/室	-0.045635
-3.213074	しつ/質	-0.239144
-3.339621	してい/姉弟	-0.045635
-3.339621	してい/指定	-0.045635
-3.339621	しどう/指導	-0.045635
-3.339621	しなりお/シナリオ	-0.045635
-3.339621	しはん/市販	-0.045635
-3.339621	しひょう/指標	-0.045635
-3.339621	しほう/司法	-0.045635
-3.339621	しぼう/死亡	-0.045635
-3.339621	しまい/姉妹	-0.045635
-3.339621	しまだ/島田	-0.045635
-3.339621	しまなか/島中	-0.045635
-3.339621	しめ/示	-0.045635
-2.767151	しゃ/社	-0.131700
-2.767151	しゃ/者	-0.164647
-3.339621	しゃかい/社会	-0.045635
-3.339621	しゃべ/喋	-0.045635
-3.339621	しゃりょう/車両	-0.045635
-3.339621	しゃんはい/上海	-0.045635
-3.213074	しゅ/主	-0.045635
-3.213074	しゅい/首位	-0.045635
-3.339621	しゅうかん/週刊	-0.045635
-3.339621	しゅうじ/修二	-0.045635
-3.339621	しゅうだん/集団	-0.045635
-3.339621	しゅうちゃく/執着	-0.045635
-3.339621	しゅうへい/州兵	-0.045635
-3.339621	しゅうへん/周辺	-0.045635
-3.339621	しゅうり/修理	-0.045635
-3.213074	しゅうりょう/終了	-0.045635
-3.339621	しゅぎ/主義	-0.045635
-3.339621	しゅじん/主人	-0.045635
-3.339621	しゅっこう/出航	-0.045635
-3.339621	しゅっぱつ/出発	-0.045635
-3.213074	しゅっぱん/出版	-0.045635
-3.213074	しゅつじょう/出場	-0.045635
-3.339621	しゅよう/主要	-0.045635
-3.339621	しゅりゅう/手榴	-0.045635
-3.339621	しゅヴぇーげりん/シュヴェーゲリン	-0.045635
-3.213074	しょう/小	-0.045635
-2.892027	しょう/省	-0.045635
-2.892027	しょう/賞	-0.045635
-3.339621	しょうかい/紹介	-0.045635
-3.339621	しょうがく/小学	-0.045635
-3.339621	しょうきょく/消極	-0.045635
-3.339621	しょうじょ/少女	-0.045635
-3.339621	しょうせつ/小説	-0.045635
-3.339621	しょうそく/消息	-0.045635
-2.767151	しょうねん/少年	-0.131700
-3.339621	しょうめん/正面	-0.045635
-3.339621	しょうわ/昭和	-0.045635
-3.339621	しょく/植	-0.045635
-3.339621	しょく/食	-0.045635
-3.339621	しょくいん/職印	-0.045635
-3.339621	しょくばい/触媒	-0.045635
-3.339621	しょけい/処刑	-0.045635
-3.339621	しょっく/ショック	-0.045635
-3.213074	しよう/使用	-0.045635
-3.339621	しらせ/報せ	-0.045635
-3.339621	しれい/司令	-0.045635
-3.339621	しろ/白	-0.045635
-3.339621	しろう/四郎	-0.045635
-3.339621	しんかい/晋海	-0.045635
-3.339621	しんき/新規	-0.045635
-3.339621	しんけん/真剣	-0.045635
-3.339621	しんしゅつ/進出	-0.045635
-3.339621	しんじん/新人	-0.045635
-3.339621	しんすけ/紳助	-0.045635
-3.339621	しんだん/診断	-0.045635
-3.339621	しんとう/浸透	-0.045635
-3.339621	しんにゅう/侵入	-0.045635
-3.339621	しんりゃく/侵略	-0.045635
-3.339621	しんわ/神話	-0.045635
-3.213074	しーずん/シーズン	-0.045635
-3.339621	じ/じ	-0.045635
-3.339621	じ/寺	-0.045635
-3.339621	じ/時	-0.045635
-3.339621	じ/次	-0.045635
-3.339621	じかん/時間	-0.045635
-3.213074	じぎょう/事業	-0.239144
-3.339621	じけつ/自決	-0.045635
-3.339621	じしん/地震	-0.045635
-2.767151	じだい/時代	-0.165523
-3.339621	じっしょう/実証	-0.045635
-3.339621	じてん/時点	-0.045635
-3.339621	じぶん/自分	-0.045635
-3.339621	じゅう/中	-0.045635
-3.339621	じゅう/十	-0.045635
-3.339621	じゅうぐん/従軍	-0.045635
-3.339621	じゅうげき/銃撃	-0.045635
-3.339621	じゅうし/銃士	-0.045635
-3.213074	じゅうじ/従事	-0.239144
-3.339621	じょ/序	-0.045635
-3.339621	じょう/上	-0.045635
-3.213074	じょう/城	-0.045635
-3.213074	じょう/場	-0.045635
-3.339621	じょうえん/上演	-0.045635
-3.339621	じょうしょう/上昇	-0.045635
-3.339621	じょうほう/情報	-0.045635
-2.670279	じょくん/叙勲	-0.217932
-3.339621	じょし/女子	-0.045635
-3.339621	じょせい/女性	-0.045635
-3.339621	じょなさん/ジョナサン	-0.045635
-3.213074	じん/人	-0.045635
-3.339621	じんせい/人生	-0.045635
-3.339621	じんぶつ/人物	-0.045635
-3.339621	じんみん/人民	-0.045635
-2.892027	す/す	-0.045635
-3.339621	すいらい/水雷	-0.045635
-3.339621	すう/数	-0.045635
-3.339621	すえ/末	-0.045635
-3.339621	すき/好き	-0.045635
-3.213074	すきー/スキー	-0.045635
-3.339621	すこてぃあ/スコティア	-0.045635
-3.339621	すご/凄	-0.045635
-3.339621	すたんど/スタンド	-0.045635
-3.339621	すぽーつ/スポーツ	-0.045635
-2.047146	する/する	-0.214324
-3.339621	するたん/スルタン	-0.045635
-3.213074	ず/ず	-0.045635
-3.213074	せ/せ	-0.045635
-3.339621	せい/制	-0.045635
-3.339621	せい/性	-0.045635
-3.339621	せい/生	-0.045635
-3.339621	せいかつ/生活	-0.045635
-3.339621	せいこう/成功	-0.045635
-3.339621	せいじ/政治	-0.045635
-3.339621	せいせき/成績	-0.045635
-3.339621	せいちょう/政庁	-0.045635
-3.339621	せいと/生徒	-0.045635
-3.213074	せいど/制度	-0.239144
-3.213074	せいひん/製品	-0.239144
-3.339621	せいび/整備	-0.045635
-3.339621	せいふく/制服	-0.045635
-3.339621	せいまご/世孫	-0.045635
-3.339621	せいむ/政務	-0.045635
-2.670279	せかい/世界	-0.045635
-3.339621	せかんど/セカンド	-0.045635
-3.339621	せき/赤	-0.045635
-3.339621	せき/隻	-0.045635
-3.339621	せっけい/設計	-0.045635
-3.339621	せっこう/浙江	-0.045635
-3.339621	せっち/設置	-0.045635
-3.213074	せつ/説	-0.045635
-3.339621	せつやく/節約	-0.045635
-3.339621	せの/瀬乃	-0.045635
-3.339621	せま/迫	-0.045635
-3.339621	せらー/セラー	-0.045635
-3.213074	せるてぃっくす/セルティックス	-0.045635
-2.892027	せん/戦	-0.045635
-3.339621	せん/船	-0.045635
-3.339621	せんきゅうひゃくきゅうじゅうきゅう/１９９９	-0.045635
-3.339621	せんきゅうひゃくきゅうじゅうはち/１９９８	-0.045635
-3.339621	せんきゅうひゃくはちじゅうなな/１９８７	-0.045635
-3.339621	せんきゅうひゃくはちじゅうはち/１９８８	-0.045635
-3.339621	せんし/戦死	-0.045635
-3.339621	せんしゅ/選手	-0.045635
-3.339621	せんしょく/染色	-0.045635
-3.339621	せんす/センス	-0.045635
-2.892027	せんそう/戦争	-0.045635
-3.339621	せんたい/船体	-0.045635
-3.339621	せんとう/先頭	-0.045635
-3.339621	せんとう/戦闘	-0.045635
-3.339621	せんない/船内	-0.045635
-3.339621	せんねん/専念	-0.045635
-3.339621	せんもん/専門	-0.045635
-3.339621	せんれつ/鮮烈	-0.045635
-2.892027	ぜん/全	-0.045635
-3.339621	ぜんいん/全員	-0.045635
-3.339621	ぜんこう/全校	-0.045635
-3.339621	そうこう/走行	-0.045635
-3.339621	そうだ/操舵	-0.045635
-3.339621	そうだん/相談	-0.045635
-3.339621	そうちゃく/装着	-0.045635
-3.339621	そうは/争覇	-0.045635
-3.339621	そうび/装備	-0.045635
-3.339621	そこく/祖国	-0.045635
-3.339621	そして/そして	-0.045635
-3.339621	そだ/育	-0.045635
-3.339621	そだて/育て	-0.045635
-3.339621	そつ/卒	-0.045635
-3.339621	そつぎょう/卒業	-0.045635
-2.524195	その/その	-0.101077
-3.339621	そらも/空燃	-0.045635
-3.339621	そりゅーしょん/ソリューション	-0.239144
-3.339621	そるがむ/ソルガム	-0.045635
-3.213074	そるごー/ソルゴー	-0.045635
-3.339621	それ/それ	-0.239144
-3.339621	そんざい/存在	-0.045635
-3.339621	ぞうちく/増築	-0.045635
-2.138908	た/た	-0.348446
-3.339621	た/立	-0.045635
-3.339621	たい/対	-0.214171
-3.213074	たい/隊	-0.045635
-3.339621	たいい/大尉	-0.045635
-3.339621	たいえき/退役	-0.045635
-3.339621	たいき/待機	-0.045635
-3.339621	たいくつ/退屈	-0.045635
-3.339621	たいせん/大戦	-0.045635
-3.339621	たいぷ/タイプ	-0.045635
-3.213074	たいへい/太平	-0.239144
-3.339621	たえ/絶え	-0.045635
-2.767151	たか/多賀	-0.165523
-3.339621	たかおう/多嘉王	-0.045635
-3.339621	たかくら/高倉	-0.045635
-3.339621	たかさか/高坂	-0.045635
-3.339621	たかはし/高橋	-0.045635
-3.213074	たがい/互い	-0.045635
-3.339621	たけ/嶽	-0.045635
-3.339621	たたか/戦	-0.045635
-3.339621	たたかい/闘い	-0.045635
-3.339621	ただし/ただし	-0.045635
-3.339621	ただちに/直ちに	-0.045635
-3.339621	たち/達	-0.045635
-3.339621	たちあげ/立ち上げ	-0.045635
-3.339621	たつじん/達人	-0.045635
-3.339621	たて/立て	-0.045635
-3.339621	たて/縦	-0.045635
-3.339621	たとえ/喩え	-0.045635
-3.339621	たの/頼	-0.045635
-3.339621	たび/旅	-0.045635
-2.767151	ため/ため	-0.243701
-3.339621	たゆう/太夫	-0.045635
-3.339621	たんじょう/誕生	-0.045635
-3.339621	たんぱく/タンパク	-0.045635
-3.339621	たんぱく/淡白	-0.045635
-3.339621	たんれい/端麗	-0.045635
-2.892027	だ/だ	-0.045635
-3.339621	だ/出	-0.045635
-3.213074	だい/代	-0.045635
-2.892027	だい/大	-0.045635
-2.670279	だい/第	-0.121779
-3.339621	だいかん/代官	-0.045635
-3.339621	だいがく/大学	-0.045635
-3.339621	だいしょうすけ/大賞典	-0.045635
-3.339621	だいひょう/代表	-0.045635
-3.339621	だいよう/代用	-0.045635
-3.339621	だしゃ/打者	-0.045635
-2.892027	だっ/だっ	-0.214171
-3.339621	だっしゅつ/脱出	-0.045635
-3.339621	だぶる/ダブル	-0.045635
-2.892027	だりつ/打率	-0.164647
-3.339621	だれ/誰	-0.045635
-3.339621	だん/弾	-0.045635
-3.339621	だんせい/弾性	-0.045635
-3.339621	ち/ち	-0.045635
-3.339621	ちいき/地域	-0.045635
-3.339621	ちぇすと/チェスト	-0.045635
-3.339621	ちか/近	-0.045635
-3.339621	ちから/力	-0.045635
-3.339621	ちぎょう/知行	-0.045635
-3.339621	ちぐさ/千草	-0.045635
-3.339621	ちちおや/父親	-0.045635
-3.213074	ちゃく/着	-0.045635
-3.339621	ちゃーと/チャート	-0.045635
-3.213074	ちゅう/中	-0.045635
-3.339621	ちゅうか/中華	-0.045635
-3.339621	ちゅうしゃ/駐車	-0.045635
-3.339621	ちゅうだん/中団	-0.045635
-3.339621	ちゅうとう/中東	-0.045635
-2.892027	ちょう/長	-0.045635
-3.339621	ちょうさ/調査	-0.045635
-3.339621	ちょうし/調子	-0.045635
-3.339621	ちょうせん/朝鮮	-0.045635
-3.339621	ちようこ/蝶子	-0.045635
-3.339621	ちんたい/賃貸	-0.045635
-3.339621	ちーむ/チーム	-0.045635
-2.090608	っ/っ	-0.967499
-2.591123	つ/つ	-0.148282
-3.339621	つ/付	-0.045635
-3.339621	つ/就	-0.045635
-3.339621	つうさん/通算	-0.045635
-3.339621	つうしん/通信	-0.045635
-3.213074	つうじょう/通常	-0.045635
-3.213074	つか/使	-0.045635
-3.339621	つかい/つかい	-0.045635
-3.339621	つかえ/使え	-0.045635
-3.339621	つきあ/付き合	-0.045635
-3.339621	つけ/着け	-0.045635
-3.339621	つつ/つつ	-0.045635
-3.339621	つづ/続	-0.045635
-3.339621	つづけ/続け	-0.045635
-3.339621	つとめ/務め	-0.045635
-3.339621	つね/常	-0.045635
-3.213074	つよ/強	-0.239144
-2.114087	て/て	-0.329898
-3.339621	て/手	-0.045635
-3.339621	てい/艇	-0.045635
-3.339621	ていきょう/提供	-0.045635
-3.339621	ていど/程度	-0.045635
-2.524195	てき/的	-0.165147
-3.339621	てばな/手放	-0.045635
-3.339621	てれ/照れ	-0.045635
-3.339621	てんし/天使	-0.045635
-3.339621	てんしよう/天正	-0.045635
-3.339621	てんのう/天皇	-0.045635
-1.661816	で/で	-0.217265
-3.339621	でいりー/デイリー	-0.045635
-3.213074	でき/でき	-0.045635
-3.339621	です/です	-0.045635
-3.339621	でんげき/電撃	-0.045635
-3.339621	でんれい/伝令	-0.045635
-1.746134	と/と	-0.292185
-3.339621	と/問	-0.045635
-3.339621	とうきょう/とうきょう	-0.045635
-3.213074	とうきょう/東京	-0.045635
-3.339621	とうげ/峠	-0.045635
-3.339621	とうげん/桃源	-0.045635
-3.339621	とうさつ/盗撮	-0.045635
-3.339621	とうしゅ/当主	-0.045635
-3.339621	とうじ/当時	-0.045635
-3.339621	とうじょう/登場	-0.045635
-3.339621	とうちゃく/到着	-0.045635
-3.339621	とうなーけん/とうなーけん	-0.045635
-3.339621	とうひょう/投票	-0.045635
-3.339621	とうろく/登録	-0.045635
-3.339621	とおざけ/遠ざけ	-0.045635
-3.339621	とき/とき	-0.045635
-3.213074	とき/時	-0.239144
-3.339621	とくちょう/特徴	-0.045635
-3.339621	とくに/とくに	-0.045635
-3.339621	ところ/ところ	-0.045635
-3.339621	とし/都市	-0.045635
-3.339621	としあき/敏明	-0.045635
-3.339621	としょ/図書	-0.045635
-3.339621	とっぷ/トップ	-0.045635
-3.339621	とつぜん/突然	-0.045635
-3.339621	ととのえ/整え	-0.045635
-3.339621	となえ/唱え	-0.045635
-3.339621	とまつ/塗抹	-0.045635
-3.339621	とも/とも	-0.045635
-3.339621	ともこ/智子	-0.045635
-3.339621	とよみ/豊見	-0.045635
-3.339621	とりしらべ/取り調べ	-0.045635
-3.339621	とりにだーど/トリニダード	-0.045635
-3.339621	とりもど/取り戻	-0.045635
-3.339621	とりわけ/取り分け	-0.045635
-3.339621	とれんとん/トレントン	-0.045635
-3.339621	とろふぉぞいと/トロフォゾイト	-0.045635
-3.339621	とんぼ/とんぼ	-0.045635
-3.339621	ど/度	-0.045635
-3.339621	どいつ/ドイツ	-0.045635
-3.339621	どういん/動員	-0.045635
-3.339621	どうちゅう/道中	-0.045635
-3.213074	どうぶつ/動物	-0.045635
-3.339621	どうろ/道路	-0.045635
-3.339621	どくしょう/独唱	-0.045635
-3.339621	どくだん/独断	-0.045635
-3.339621	どちゃく/土着	-0.045635
-3.339621	どらま/ドラマ	-0.045635
-3.339621	どれん/ドレン	-0.045635
-3.339621	どーぱんと/ドーパント	-0.045635
-2.047146	な/な	-0.274758
-3.339621	ない/内	-0.045635
-3.339621	ないかく/内閣	-0.045635
-3.339621	ないそう/内装	-0.045635
-3.339621	なおひろ/直弘	-0.045635
-3.339621	なか/中	-0.045635
-3.339621	なかの/中野	-0.045635
-3.339621	ながよし/長可	-0.045635
-3.213074	ながら/ながら	-0.045635
-3.213074	なす/ナス	-0.045635
-3.339621	なつば/夏場	-0.045635
-2.670279	など/など	-0.113068
-3.339621	なな/七	-0.045635
-3.339621	なまえ/名前	-0.045635
-3.339621	なん/何	-0.045635
-3.339621	なんて/なんて	-0.045635
-3.339621	なんぶ/南部	-0.045635
-3.339621	なんぼくちょう/南北朝	-0.045635
-3.339621	なーせる/ナーセル	-0.045635
-1.360794	に/に	-0.164796
-3.213074	に/二	-0.131700
-3.339621	にが/苦	-0.045635
-3.339621	にく/肉	-0.045635
-3.339621	にしよどがわ/西淀川	-0.045635
-3.339621	にせんご/２００５	-0.045635
-3.339621	にせんじゅういち/２０１１	-0.045635
-3.339621	にせんじゅうに/２０１２	-0.045635
-3.339621	にせんなな/２００７	-0.045635
-3.213074	にち/日	-0.045635
-3.339621	にちろ/日露	-0.045635
-3.339621	にっぽん/日本	-0.045635
-3.339621	にほん/日本	-0.045635
-3.339621	にゅうせん/入選	-0.045635
-2.892027	にん/人	-0.164647
-3.213074	にんき/人気	-0.045635
-3.339621	にんてい/認定	-0.045635
-3.339621	にんむ/任務	-0.045635
-3.339621	ねっと/ネット	-0.045635
-2.047146	ねん/年	-0.238676
-1.335971	の/の	-0.066107
-3.339621	の/野	-0.045635
-3.339621	のいず/ノイズ	-0.045635
-3.339621	のう/農	-0.045635
-3.339621	のこり/残り	-0.045635
-3.339621	のび/伸び	-0.045635
-1.725931	は/は	-0.150715
-3.339621	は/張	-0.045635
-3.339621	は/波	-0.045635
-3.339621	はあく/把握	-0.045635
-3.339621	はい/入	-0.045635
-3.339621	はい/杯	-0.045635
-3.213074	はいき/排気	-0.239144
-3.339621	はいしん/配信	-0.045635
-3.339621	はいせん/敗戦	-0.045635
-3.339621	はいぞく/配属	-0.045635
-3.339621	はいふ/配布	-0.045635
-3.339621	はいぼく/敗北	-0.045635
-3.339621	はいゆう/俳優	-0.045635
-3.339621	はがー/ハガー	-0.045635
-3.339621	はくい/白衣	-0.045635
-3.339621	はじめ/始め	-0.239144
-3.339621	はせがわ/長谷川	-0.045635
-3.339621	はそん/破損	-0.045635
-3.339621	はた/秦	-0.045635
-3.339621	はだに/ハダニ	-0.045635
-3.339621	はっかく/発覚	-0.045635
-3.339621	はっしゃ/発射	-0.045635
-3.339621	はっぴょう/発表	-0.045635
-3.213074	はつ/初	-0.239144
-3.213074	はつね/初音	-0.239144
-3.339621	はるあき/春秋	-0.045635
-3.213074	はんざい/犯罪	-0.045635
-3.339621	はんすう/半数	-0.045635
-3.339621	はんぱつ/反発	-0.045635
-3.339621	はんもと/版元	-0.045635
-3.213074	ば/ば	-0.045635
-3.339621	ば/場	-0.045635
-2.892027	ばあい/場合	-0.113068
-3.339621	ばくりょう/幕僚	-0.045635
-3.339621	ばす/バス	-0.045635
-3.339621	ばすたー/バスター	-0.045635
-3.339621	ばっく/バック	-0.045635
-3.339621	ばん/版	-0.045635
-3.213074	ばん/番	-0.045635
-3.339621	ばんぞく/蛮族	-0.045635
-3.339621	ばんのう/万能	-0.045635
-3.339621	ばーくれい/バークレイ	-0.045635
-3.339621	ばーぐ/バーグ	-0.045635
-3.339621	ひ/妃	-0.045635
-3.339621	ひ/日	-0.045635
-3.339621	ひ/比	-0.045635
-3.339621	ひがしな/東那	-0.045635
-3.339621	ひがしまつやま/東松山	-0.045635
-3.339621	ひきと/引き取	-0.045635
-3.339621	ひっと/ヒット	-0.045635
-3.339621	ひてい/否定	-0.045635
-3.213074	ひと/ヒト	-0.045635
-3.339621	ひと/一	-0.045635
-3.339621	ひとり/１人	-0.045635
-3.339621	ひめはな/ヒメハナ	-0.045635
-3.339621	ひょう/票	-0.045635
-3.213074	ひょうげん/表現	-0.239144
-3.339621	ひよう/費用	-0.045635
-3.339621	ひろし/寛	-0.045635
-3.339621	ひろし/汎	-0.045635
-3.339621	ひろた/広食	-0.045635
-3.339621	ひろば/広場	-0.045635
-3.339621	ひん/品	-0.045635
-3.339621	び/日	-0.045635
-3.339621	び/美	-0.045635
-3.339621	びょういん/病院	-0.045635
-3.339621	びるぼーど/ビルボード	-0.045635
-3.213074	ぴくる/ピクル	-0.164647
-3.339621	ふ/府	-0.045635
-3.339621	ふ/振	-0.045635
-3.339621	ふぁすべんだー/ファスベンダー	-0.045635
-3.213074	ふぁー/ファー	-0.239144
-3.339621	ふぃじかる/フィジカル	-0.045635
-3.339621	ふうけい/風景	-0.045635
-3.339621	ふぇいす/フェイス	-0.045635
-3.339621	ふぇーざー/フェーザー	-0.045635
-3.339621	ふぉっくす/フォックス	-0.045635
-3.339621	ふきん/付近	-0.045635
-3.213074	ふく/含	-0.239144
-3.339621	ふさわし/ふさわし	-0.045635
-3.339621	ふしぎ/不思議	-0.045635
-3.339621	ふしん/不審	-0.045635
-3.339621	ふたたび/再び	-0.045635
-3.339621	ふたり/二人	-0.045635
-3.339621	ふたり/２人	-0.045635
-3.339621	ふなこし/船越	-0.045635
-3.339621	ふなばし/船橋	-0.045635
-3.339621	ふみひこ/文彦	-0.045635
-3.339621	ふみやす/文保	-0.045635
-3.339621	ふめい/不明	-0.045635
-3.339621	ふるい/ふるい	-0.045635
-3.339621	ふるく/古く	-0.045635
-3.339621	ふん/分	-0.045635
-3.339621	ぶ/ぶ	-0.045635
-3.339621	ぶ/部	-0.045635
-3.213074	ぶか/部下	-0.045635
-3.339621	ぶしゅう/武州	-0.045635
-3.339621	ぶそう/武装	-0.045635
-3.213074	ぶたい/部隊	-0.045635
-3.339621	ぶよう/舞踊	-0.045635
-3.339621	ぶらざーず/ブラザーズ	-0.045635
-3.339621	ぶろー/ブロー	-0.045635
-3.339621	ぶんげい/文芸	-0.045635
-3.339621	ぶんせき/分析	-0.045635
-3.339621	ぷらちな/プラチナ	-0.045635
-3.339621	ぷれてすと/プレテスト	-0.045635
-3.213074	へ/へ	-0.045635
-3.339621	へ/経	-0.045635
-3.339621	へくたーる/ヘクタール	-0.045635
-3.339621	へん/変	-0.045635
-3.339621	へんか/変化	-0.045635
-3.339621	へんじ/返事	-0.045635
-3.339621	べ/べ	-0.045635
-3.339621	べいぐん/米軍	-0.045635
-3.339621	べすと/ベスト	-0.045635
-3.339621	べんぐつそん/ベングツソン	-0.045635
-3.339621	ぺてぃ/ペティ	-0.045635
-2.767151	ぺーじ/頁	-0.131700
-3.339621	ほう/法	-0.045635
-3.339621	ほう/砲	-0.045635
-3.339621	ほうこく/報告	-0.045635
-3.339621	ほうしゅつ/放出	-0.045635
-3.339621	ほうしょう/褒章	-0.045635
-3.339621	ほうしん/砲身	-0.045635
-3.339621	ほうじん/法人	-0.045635
-3.213074	ほうせい/法政	-0.045635
-3.339621	ほくと/ホクト	-0.045635
-3.339621	ほくぶ/北部	-0.045635
-3.339621	ほしょく/捕食	-0.045635
-3.339621	ほぜん/保全	-0.045635
-3.339621	ほっぽう/北方	-0.045635
-3.339621	ほどこ/施	-0.045635
-3.339621	ほんのう/本能	-0.045635
-3.339621	ほんみょう/本名	-0.045635
-3.339621	ほんらい/本来	-0.045635
-3.339621	ぼいす/ボイス	-0.045635
-3.213074	ぼうえい/防衛	-0.045635
-3.339621	ぼうご/防護	-0.045635
-3.339621	ぼうだん/防弾	-0.045635
-3.339621	ぼくし/牧師	-0.045635
-3.339621	ぼこぼこ/ボコボコ	-0.045635
-3.339621	ぼっ/ぼっ	-0.045635
-3.339621	ぼっぱつ/勃発	-0.239144
-3.339621	ぼびー/ボビー	-0.045635
-3.339621	ぽーかー/ポーカー	-0.045635
-3.339621	ぽーとらんど/ポートランド	-0.045635
-3.339621	ま/ま	-0.045635
-3.339621	まいける/マイケル	-0.045635
-3.213074	まえ/前	-0.045635
-3.339621	まき/巻	-0.045635
-3.339621	まさと/正人	-0.045635
-3.339621	まじ/まじ	-0.045635
-3.339621	まじえ/交え	-0.045635
-3.339621	また/また	-0.239144
-3.339621	まち/町	-0.045635
-3.339621	まっしょう/末梢	-0.045635
-3.339621	まっする/マッスル	-0.045635
-3.339621	まっど/マッド	-0.045635
-3.339621	まつ/末	-0.045635
-3.339621	まつい/松井	-0.045635
-3.339621	まつやま/松山	-0.045635
-3.213074	まで/まで	-0.045635
-3.339621	まと/まと	-0.045635
-3.339621	まと/的	-0.045635
-3.339621	まにら/マニラ	-0.045635
-3.339621	まね/招	-0.045635
-3.339621	まま/まま	-0.045635
-3.339621	まりーあ/マリーア	-0.045635
-3.339621	まんが/まんが	-0.045635
-3.339621	まんが/漫画	-0.045635
-3.339621	まんざい/漫才	-0.045635
-3.339621	まーくるんど/マークルンド	-0.045635
-3.339621	まーけっと/マーケット	-0.045635
-3.339621	み/見	-0.045635
-3.339621	み/身	-0.045635
-3.339621	みく/ミク	-0.045635
-3.213074	みちの/美智乃	-0.045635
-3.339621	みっくみく/みっくみく	-0.045635
-3.339621	みの/美濃	-0.045635
-3.339621	みりょう/魅了	-0.045635
-3.339621	みりょく/魅力	-0.045635
-3.339621	みんせい/民生	-0.045635
-3.339621	む/む	-0.045635
-3.339621	むか/向か	-0.045635
-3.213074	むけ/向け	-0.045635
-3.339621	むす/結	-0.045635
-3.339621	むだ/無駄	-0.045635
-3.339621	め/目	-0.045635
-3.339621	めいぎ/名義	-0.045635
-3.213074	めいじ/明治	-0.045635
-3.339621	めがね/眼鏡	-0.045635
-3.339621	めぐろ/目黒	-0.045635
-3.339621	めざ/目指	-0.045635
-3.339621	めだ/目立	-0.045635
-3.339621	めんどう/面倒	-0.045635
-3.339621	めんばー/メンバー	-0.045635
-2.193259	も/も	-0.060067
-3.339621	も/持	-0.045635
-3.339621	も/盛	-0.045635
-3.339621	もう/網	-0.045635
-3.339621	もうり/毛利	-0.045635
-3.339621	もたら/もたら	-0.045635
-3.339621	もと/元	-0.045635
-2.767151	もの/もの	-0.045635
-3.339621	もの/者	-0.045635
-3.339621	ものがたり/物語	-0.045635
-3.339621	ものごと/物事	-0.045635
-3.339621	もも/もも	-0.045635
-3.339621	もよう/模様	-0.045635
-3.339621	もり/森	-0.045635
-2.466216	や/や	-0.045635
-3.339621	やく/役	-0.045635
-3.213074	やく/約	-0.045635
-3.339621	やっと/やっと	-0.045635
-3.339621	やよい/弥生	-0.045635
-3.339621	やん/やん	-0.239144
-3.339621	ゆうしゅう/優秀	-0.045635
-3.339621	ゆうしょう/優勝	-0.045635
-3.339621	ゆうよ/猶予	-0.045635
-3.339621	ゆうれい/ユウレイ	-0.045635
-3.213074	よ/よ	-0.203072
-3.339621	よ/呼	-0.239144
-2.892027	よう/よう	-0.045635
-3.339621	よう/洋	-0.045635
-3.339621	ようかい/妖怪	-0.045635
-3.213074	ようし/容姿	-0.045635
-3.339621	よくちょう/翌朝	-0.045635
-3.339621	よばい/夜這い	-0.045635
-3.339621	よびだ/呼び出	-0.239144
-3.339621	よみ/読み	-0.045635
-3.339621	よろこ/喜	-0.045635
-3.339621	よんじゅういち/四一	-0.045635
-3.339621	よーろっぱ/ヨーロッパ	-0.045635
-2.369325	ら/ら	-0.138751
-3.339621	らいん/ライン	-0.045635
-3.339621	らずふぁーど/ラズファード	-0.045635
-2.591123	られ/られ	-0.101077
-3.339621	らんきんぐ/ランキング	-0.045635
-3.339621	らんくいん/ランクイン	-0.045635
-3.339621	らーる/ラール	-0.045635
-2.767151	り/り	-0.615872
-3.339621	りくじょう/陸上	-0.045635
-3.339621	りくろ/陸路	-0.045635
-3.339621	りつ/立	-0.045635
-3.213074	りま/りま	-0.045635
-3.339621	りゅう/龍	-0.045635
-3.339621	りゅうじ/龍治	-0.045635
-3.339621	りょういき/領域	-0.045635
-3.339621	りよん/リヨン	-0.045635
-3.339621	りりーす/リリース	-0.045635
-3.339621	りん/林	-0.045635
-3.339621	りーぐ/リーグ	-0.045635
-2.068333	る/る	-0.323653
-2.670279	れ/れ	-0.630645
-3.213074	れい/令	-0.045635
-3.339621	れおん/レオン	-0.045635
-3.339621	れきし/歴史	-0.045635
-3.339621	れこーど/レコード	-0.045635
-3.339621	れっど/レッド	-0.045635
-3.339621	れつ/列	-0.045635
-3.339621	ればのん/レバノン	-0.045635
-3.339621	れんぽう/連邦	-0.045635
-3.339621	ろういん/老院	-0.045635
-3.339621	ろく/六	-0.045635
-3.339621	ろせん/路線	-0.045635
-3.339621	ろれーた/ロレータ	-0.045635
-3.339621	ろんぶん/論文	-0.045635
-2.767151	わ/わ	-0.691293
-3.339621	わか/若	-0.045635
-3.339621	わしんとん/ワシントン	-0.045635
-3.339621	わずか/わずか	-0.045635
-3.339621	わた/亘	-0.045635
-3.339621	わたし/私	-0.045635
-3.339621	わたり/渡り	-0.045635
-3.339621	わたる/渉	-0.045635
-3.339621	わよ/和与	-0.045635
-3.339621	わんしょう/腕章	-0.045635
-3.339621	わーなー/ワーナー	-0.045635
-1.450314	を/を	-0.072235
-3.213074	ん/ん	-0.164647
-2.047146	・/・	-0.060067
-3.213074	ー/ー	-0.045635
-2.165234	（/（	-0.083834
-2.223219	）/）	-0.204017
-2.892027	．/．	-0.131700
-3.339621	０/０	-0.045635
-3.339621	０００/０００	-0.045635
-3.213074	１/１	-0.045635
-3.213074	１０/１０	-0.045635
-3.213074	１２/１２	-0.045635
-3.339621	１３/１３	-0.045635
-3.339621	１４/１４	-0.045635
-3.339621	１７/１７	-0.045635
-3.339621	１８/１８	-0.045635
-3.339621	１９０１/１９０１	-0.045635
-3.339621	１９０７/１９０７	-0.045635
-3.339621	１９４２/１９４２	-0.045635
-3.339621	１９４４/１９４４	-0.045635
-3.339621	１９５６/１９５６	-0.239144
-2.466216	２/２	-0.045635
-3.339621	２０００/２０００	-0.045635
-3.339621	２１/２１	-0.045635
-3.339621	２４/２４	-0.045635
-3.339621	２６/２６	-0.239144
-2.670279	３/３	-0.045635
-3.339621	３００/３００	-0.045635
-3.339621	３１/３１	-0.045635
-3.213074	３４/３４	-0.045635
-3.339621	３５/３５	-0.045635
-3.339621	３９/３９	-0.045635
-3.339621	３９３/３９３	-0.045635
-2.892027	４/４	-0.045635
-3.339621	４０/４０	-0.045635
-3.339621	４４/４４	-0.045635
-3.339621	４５/４５	-0.045635
-3.213074	５/５	-0.045635
-3.339621	５０/５０	-0.045635
-3.339621	５０００/５０００	-0.045635
-3.339621	５３３/５３３	-0.045635
-3.339621	５３６/５３６	-0.045635
-3.339621	５３７/５３７	-0.045635
-3.339621	５７/５７	-0.045635
-2.892027	６/６	-0.164647
-3.339621	６２/６２	-0.045635
-3.213074	７/７	-0.045635
-3.339621	７１/７１	-0.045635
-2.892027	８/８	-0.164647
-3.339621	８００/８００	-0.045635
-2.767151	９/９	-0.045635
-3.213074	：/：	-0.045635
-3.213074	＝/＝	-0.045635

\2-grams:
-0.177481	<s> </s>
-2.374765	<s> 「/「
-3.340749	<s> あきひろ/空広
-3.340749	<s> あさくら/朝倉
-3.164028	<s> あと/後
-3.340749	<s> あにめ/アニメ
-3.340749	<s> いってい/一定
-3.301641	<s> いんたい/引退
-3.340749	<s> おうごん/黄金
-3.340749	<s> おおさか/大阪
-3.340749	<s> おぐら/小倉
-3.301641	<s> おりこん/オリコン
-3.340749	<s> かみのうがね/上納金
-3.301641	<s> かれ/彼
-3.301641	<s> かんこく/韓国
-3.340749	<s> かんさい/関西
-3.340749	<s> かんめい/艦名
-3.301641	<s> がいこく/外国
-3.340749	<s> がくえん/学園
-3.340749	<s> く/食
-3.340749	<s> ぐんぶ/軍部
-3.301641	<s> けい/計
-3.301641	<s> けん/剣
-2.501534	<s> げんざい/現在
-2.527978	<s> この/この
-3.301641	<s> これ/これ
-3.340749	<s> こーひー/コーヒー
-3.340749	<s> さいしょ/最初
-3.340749	<s> しいき/市域
-1.857531	<s> しかし/しかし
-3.340749	<s> しまだ/島田
-3.340749	<s> しゃんはい/上海
-3.301641	<s> しゅ/主
-3.340749	<s> しゅうり/修理
-3.164028	<s> しょう/賞
-3.340749	<s> しょけい/処刑
-3.340749	<s> しんだん/診断
-3.034890	<s> じょくん/叙勲
-3.340749	<s> すき/好き
-3.301641	<s> すきー/スキー
-3.340749	<s> せんきゅうひゃくきゅうじゅうきゅう/１９９９
-3.340749	<s> せんきゅうひゃくはちじゅうなな/１９８７
-3.340749	<s> せんきゅうひゃくはちじゅうはち/１９８８
-3.340749	<s> せんたい/船体
-3.164028	<s> ぜん/全
-3.340749	<s> そして/そして
-2.097685	<s> その/その
-3.340749	<s> ただし/ただし
-3.340749	<s> だ/出
-3.034890	<s> だい/第
-3.340749	<s> ちぎょう/知行
-3.340749	<s> ちぐさ/千草
-3.340749	<s> てんしよう/天正
-2.195037	<s> で/で
-3.301641	<s> とうきょう/東京
-3.340749	<s> とりしらべ/取り調べ
-3.340749	<s> とんぼ/とんぼ
-3.301641	<s> なす/ナス
-3.340749	<s> なな/七
-3.340749	<s> にしよどがわ/西淀川
-3.340749	<s> にせんじゅういち/２０１１
-3.340749	<s> にせんなな/２００７
-3.301641	<s> はんざい/犯罪
-3.340749	<s> ばーくれい/バークレイ
-3.340749	<s> ひがしな/東那
-3.340749	<s> びるぼーど/ビルボード
-3.301641	<s> ぴくる/ピクル
-3.340749	<s> ふぇいす/フェイス
-3.340749	<s> ふぇーざー/フェーザー
-3.340749	<s> ぷれてすと/プレテスト
-3.340749	<s> ほんみょう/本名
-3.301641	<s> ぼうえい/防衛
-3.340749	<s> ぼびー/ボビー
-2.534322	<s> また/また
-3.340749	<s> まち/町
-3.301641	<s> めいじ/明治
-3.301641	<s> ようし/容姿
-3.340749	<s> よーろっぱ/ヨーロッパ
-3.340749	<s> れっど/レッド
-3.340749	<s> ろく/六
-3.340749	<s> わか/若
-3.340749	<s> わたし/私
-3.301641	<s> １/１
-2.527978	<s> １２/１２
-3.340749	<s> １９０１/１９０１
-3.340749	<s> １９０７/１９０７
-2.893182	<s> ２/２
-3.340749	<s> ２０００/２０００
-3.340749	<s> ２１/２１
-1.298561	”/“ だぶる/ダブル
-1.087288	”/“ を/を
-2.138208	、/、 あいてむ/アイテム
-2.920707	、/、 あぶらむし/アブラムシ
-2.875489	、/、 あめりか/アメリカ
-2.920707	、/、 ある/ある
-2.138208	、/、 いぎりす/イギリス
-2.920707	、/、 いく/いく
-2.920707	、/、 いたりあ/イタリア
-2.920707	、/、 いわゆる/いわゆる
-2.875489	、/、 いんたい/引退
-2.920707	、/、 うちとみ/内冨
-2.920707	、/、 えいが/映画
-2.920707	、/、 えいだっく/エイダック
-2.920707	、/、 えぎ/榎木
-2.920707	、/、 おおく/多く
-2.875489	、/、 おりこん/オリコン
-2.920707	、/、 おんせん/温泉
-2.875489	、/、 かいしゃ/会社
-2.920707	、/、 かいしゅう/改修
-2.920707	、/、 かげ/影
-2.875489	、/、 がいこく/外国
-2.920707	、/、 がまーる/ガマール
-2.920707	、/、 がめとさいと/ガメトサイト
-2.920707	、/、 がーでぃあん/ガーディアン
-2.720731	、/、 きけん/危険
-2.920707	、/、 きゅうしゅう/九州
-2.920707	、/、 くろす/クロス
-2.920707	、/、 けっせい/結成
-2.875489	、/、 こうつう/交通
-2.920707	、/、 こうれい/高齢
-2.920707	、/、 こども/子供
-2.130415	、/、 この/この
-2.920707	、/、 こみっく/コミック
-2.130415	、/、 これ/これ
-2.920707	、/、 こんこーど/コンコード
-2.920707	、/、 さいあく/最悪
-2.875489	、/、 さいしゅう/最終
-2.920707	、/、 さいしん/最新
-2.875489	、/、 ざざーぐ/ザザーグ
-2.920707	、/、 しっこう/執行
-2.920707	、/、 してい/姉弟
-2.920707	、/、 しぼう/死亡
-2.920707	、/、 しゃりょう/車両
-2.920707	、/、 しゅりゅう/手榴
-2.920707	、/、 しんわ/神話
-2.875489	、/、 しーずん/シーズン
-2.920707	、/、 じゅう/十
-2.920707	、/、 すう/数
-2.920707	、/、 すご/凄
-2.580149	、/、 せかい/世界
-2.920707	、/、 せっこう/浙江
-2.875489	、/、 せるてぃっくす/セルティックス
-2.720731	、/、 せん/戦
-2.920707	、/、 せんとう/戦闘
-2.920707	、/、 せんない/船内
-1.919351	、/、 その/その
-2.920707	、/、 そらも/空燃
-2.920707	、/、 そるがむ/ソルガム
-2.875489	、/、 そるごー/ソルゴー
-2.138208	、/、 それ/それ
-2.920707	、/、 ぞうちく/増築
-2.920707	、/、 たいい/大尉
-2.875489	、/、 たがい/互い
-2.720731	、/、 だい/大
-2.920707	、/、 ちゅうしゃ/駐車
-2.920707	、/、 ちょうせん/朝鮮
-2.875489	、/、 つうじょう/通常
-2.920707	、/、 つづ/続
-2.920707	、/、 てれ/照れ
-2.920707	、/、 でんげき/電撃
-2.920707	、/、 とうさつ/盗撮
-2.138208	、/、 とうじ/当時
-2.920707	、/、 とくに/とくに
-2.920707	、/、 とつぜん/突然
-2.920707	、/、 とも/とも
-2.920707	、/、 とろふぉぞいと/トロフォゾイト
-2.920707	、/、 どれん/ドレン
-2.920707	、/、 ないかく/内閣
-2.920707	、/、 なん/何
-2.920707	、/、 なんぼくちょう/南北朝
-2.920707	、/、 にく/肉
-2.920707	、/、 にせんご/２００５
-2.920707	、/、 にせんじゅうに/２０１２
-2.920707	、/、 ねっと/ネット
-2.920707	、/、 のこり/残り
-2.875489	、/、 はいき/排気
-2.875489	、/、 はつね/初音
-2.920707	、/、 はるあき/春秋
-2.920707	、/、 ばんぞく/蛮族
-2.920707	、/、 ひろば/広場
-2.130415	、/、 ぴくる/ピクル
-2.920707	、/、 ふなばし/船橋
-2.920707	、/、 ぶそう/武装
-2.920707	、/、 ぺてぃ/ペティ
-2.920707	、/、 ぽーとらんど/ポートランド
-2.920707	、/、 まさと/正人
-2.920707	、/、 まにら/マニラ
-2.920707	、/、 めがね/眼鏡
-2.920707	、/、 ものごと/物事
-2.920707	、/、 もも/もも
-2.875489	、/、 やく/約
-2.875489	、/、 りま/りま
-2.920707	、/、 りよん/リヨン
-2.920707	、/、 ればのん/レバノン
-2.920707	、/、 れんぽう/連邦
-2.920707	、/、 わたる/渉
-2.920707	、/、 わーなー/ワーナー
-2.920707	、/、 ０００/０００
-2.875489	、/、 １２/１２
-2.138208	、/、 １９５６/１９５６
-2.920707	、/、 ３９/３９
-2.920707	、/、 ５０００/５０００
-2.720731	、/、 ６/６
-2.920707	、/、 ８００/８００
-2.225241	「/「 あお/青
-2.225241	「/「 うちのめ/打ちのめ
-2.225241	「/「 えさ/餌
-2.225241	「/「 おりじんきー/オリジンキー
-2.225241	「/「 かがく/科学
-2.215194	「/「 かんこく/韓国
-2.225241	「/「 くれない/紅
-2.225241	「/「 しゅうかん/週刊
-2.126974	「/「 せかい/世界
-2.225241	「/「 せの/瀬乃
-2.149944	「/「 たか/多賀
-2.225241	「/「 だれ/誰
-2.225241	「/「 てんし/天使
-2.215194	「/「 ぼうえい/防衛
-2.225241	「/「 ぼっ/ぼっ
-2.225241	「/「 まんざい/漫才
-2.225241	「/「 みっくみく/みっくみく
-2.225241	「/「 よばい/夜這い
-2.101450	」/」 こと/こと
-1.721257	」/」 で/で
-0.615050	」/」 と/と
-1.488690	」/」 に/に
-1.121788	」/」 の/の
-1.061554	」/」 を/を
-2.010376	」/」 （/（
-2.034508	」/」 ）/）
-2.234773	」/」 ５３６/５３６
-2.198353	」/」 ８/８
-0.794931	あ/あ っ/っ
-1.369021	あ/あ り/り
-0.251461	あ/あ る/る
-0.967289	あ/ア ・/・
-0.849921	あいだ/間 の/の
-0.975104	あいて/相手 （/（
-1.180289	あいてむ/アイテム と/と
-1.039024	あいてむ/アイテム の/の
-0.999313	あいりっしゅ/アイリッシュ はいゆう/俳優
-0.923143	あいるらんど/アイルランド で/で
-0.967289	あお/青 い/い
-0.978270	あか/あか ）/）
-0.849921	あかね/茜 の/の
-0.933049	あきひろ/空広 は/は
-0.849921	あこがれ/憧れ の/の
-0.857072	あさ/朝 に/に
-0.999313	あさくら/朝倉 か/家
-0.968841	あた/あた る/る
-0.910729	あたえ/与え 、/、
-0.923143	あたり/あたり で/で
-0.959613	あっか/悪化 さ/さ
-0.998710	あっぷ/アップ ”/“
-0.970398	あつま/集ま っ/っ
-1.139815	あと/後 に/に
-1.126204	あと/後 の/の
-1.408736	あと/後 も/も
-0.967289	あにか/アニカ ・/・
-0.999313	あにめ/アニメ ばん/版
-1.471084	あふりか/アフリカ かんけい/関係
-1.471084	あふりか/アフリカ せつ/説
-1.185966	あふりか/アフリカ を/を
-0.998710	あぶどぅん/アブドゥン ＝/＝
-0.880528	あぶらむし/アブラムシ を/を
-0.999313	あぷろーち/アプローチ なんぶ/南部
-0.999313	あまーすと/アマースト ばーぐ/バーグ
-1.276131	あめりか/アメリカ や/や
-1.298561	あめりか/アメリカ れこーど/レコード
-0.967289	あやし/怪し い/い
-0.999313	あらぶ/アラブ しゅぎ/主義
-0.996106	あらわ/表 す/す
-0.999313	ある/ある ていど/程度
-0.998710	あるばむ/アルバム ”/“
-0.999313	あわー/アワー ばっく/バック
-0.967289	あんな/アンナ ・/・
-1.716156	い/い </s>
-1.917369	い/い 、/、
-2.340843	い/い 」/」
-2.751803	い/い いじ/意地
-1.006104	い/い う/う
-1.956855	い/い が/が
-2.476826	い/い く/く
-2.751803	い/い けいけん/経験
-2.500258	い/い こと/こと
-2.751803	い/い そうび/装備
-1.070536	い/い た/た
-2.641230	い/い ため/ため
-2.751803	い/い たんぱく/タンパク
-2.751803	い/い ちから/力
-1.775436	い/い っ/っ
-0.995433	い/い て/て
-2.751803	い/い なか/中
-1.688132	い/い の/の
-2.751803	い/い まま/まま
-2.641230	い/い もの/もの
-2.751803	い/い もの/者
-2.736509	い/い ようし/容姿
-2.751803	い/い りゅう/龍
-0.584797	い/い る/る
-1.318661	い/位 、/、
-1.192720	い/位 に/に
-1.177376	い/位 の/の
-1.245226	い/位 を/を
-0.984671	い/行 く/く
-1.515968	い/言 っ/っ
-0.532922	い/言 わ/わ
-0.849921	いぇーがん/イェーガン の/の
-0.920353	いか/生か し/し
-0.857072	いがい/以外 に/に
-0.971961	いき/生き て/て
-1.298561	いぎりす/イギリス かいきょう/海峡
-1.158100	いぎりす/イギリス で/で
-0.991168	いく/いく つ/つ
-0.949089	いし/石 </s>
-0.880528	いしょう/衣装 を/を
-0.918965	いじ/意地 が/が
-0.920353	いじゅう/移住 し/し
-0.968841	いた/至 る/る
-0.849921	いたりあ/イタリア の/の
-0.998710	いだ/抱 き/き
-0.994453	いち/一 ごう/号
-0.539969	いち/位置 する/する
-1.200161	いち/位置 に/に
-0.923143	いちよ/一代 で/で
-0.978270	いっしゅ/一種 ）/）
-0.857072	いっしょ/一緒 に/に
-0.849921	いってい/一定 の/の
-0.880528	いのち/命 を/を
-0.967289	いま/今 い/い
-0.949089	いみ/意味 </s>
-1.272988	いりょう/医療 から/から
-1.297359	いりょう/医療 じゅうじ/従事
-0.970398	いわ/祝 っ/っ
-0.999313	いわゆる/いわゆる まっど/マッド
-0.933049	いん/員 は/は
-1.285698	いんたい/引退 ご/後
-1.236949	いんたい/引退 する/する
-0.949089	いんちょう/院長 </s>
-0.999313	いんなー/インナー まっする/マッスル
-0.920353	いんよう/飲用 し/し
-1.662361	う/う </s>
-2.023205	う/う かせつ/仮説
-1.902064	う/う こと/こと
-2.023205	う/う ことば/言葉
-2.023205	う/う しらせ/報せ
-2.016869	う/う せつ/説
-1.974417	う/う たか/多賀
-1.958950	う/う など/など
-2.023205	う/う なんて/なんて
-2.023205	う/う はた/秦
-2.016869	う/う ひょうげん/表現
-0.923143	うぃーくりーらんきんぐ/ウィークリーランキング で/で
-1.039024	うぇい/ウェイ の/の
-1.175259	うぇい/ウェイ は/は
-0.999313	うぇすたん/ウェスタン あぷろーち/アプローチ
-0.923143	うえ/うえ で/で
-0.857072	うえ/上 に/に
-0.996106	うえるず/ウエルズ だっ/だっ
-0.968841	うかがえ/伺え る/る
-0.541734	うけ/受け た/た
-1.414402	うけ/受け て/て
-0.996106	うごか/動か す/す
-0.999313	うち/うち ４５/４５
-0.999313	うちとみ/内冨 ひろし/寛
-0.959613	うちのめ/打ちのめ さ/さ
-0.998710	うっど/ウッド こうつう/交通
-0.968841	うつ/移 る/る
-0.910729	うなぎ/鰻 、/、
-0.998710	うみず/海津 じょう/城
-0.849921	うら/裏 の/の
-0.984671	うれし/うれし く/く
-0.967289	うんえい/運営 する/する
-0.920353	うんこう/運行 し/し
-0.998710	え/え ば/ば
-0.967289	え/得 な/な
-0.910729	えいいちろう/英一郎 、/、
-0.999313	えいが/映画 ふぉっくす/フォックス
-0.880528	えいきょう/影響 を/を
-0.857072	えいじゃっくす/エイジャックス に/に
-1.297359	えいせい/衛生 か/科
-1.298561	えいせい/衛生 わんしょう/腕章
-0.999313	えいぞう/映像 び/美
-0.923143	えいだっく/エイダック で/で
-1.340051	えき/駅 が/が
-1.481315	えき/駅 ・/・
-1.507376	えき/駅 （/（
-1.518255	えき/駅 ）/）
-0.989535	えきがく/疫学 てき/的
-0.999313	えぎ/榎木 こうめい/孝明
-0.973530	えさ/餌 」/」
-0.880528	えぴそーど/エピソード を/を
-0.999313	えら/選 べ/べ
-0.999313	えん/演 じ/じ
-0.918965	えんげき/演劇 が/が
-1.298561	えんじん/エンジン はそん/破損
-1.298561	えんじん/エンジン ぶろー/ブロー
-0.857072	えんだん/縁談 に/に
-1.832566	お/お い/い
-1.945768	お/お たがい/互い
-0.240407	お/お り/り
-0.998710	お/逐 しょう/小
-0.999313	おう/王 そうは/争覇
-0.999313	おうごん/黄金 じゅうし/銃士
-1.404621	おお/多 い/い
-0.544839	おお/多 く/く
-0.996106	おおいた/大分 けん/県
-0.999313	おおきな/大きな しょっく/ショック
-0.849921	おおく/多く の/の
-0.999313	おおさか/大阪 がんつ/ガンツ
-0.999313	おおしま/大島 ともこ/智子
-0.999313	おおつき/大槻 ふみひこ/文彦
-0.999313	おぐら/小倉 だいしょうすけ/大賞典
-0.368201	おけ/おけ る/る
-1.753025	おこな/行 う/う
-1.666781	おこな/行 っ/っ
-0.440870	おこな/行 わ/わ
-0.996106	おそく/遅く だっ/だっ
-0.973530	おとずれ/訪れ た/た
-0.880528	おにごっこ/鬼ごっこ を/を
-1.472877	おふぃす/オフィス かぶしき/株式
-1.472877	おふぃす/オフィス けんさく/検索
-1.413038	おふぃす/オフィス ）/）
-0.967289	おも/思 い/い
-0.849921	おや/親 の/の
-0.999313	および/および うぇすたん/ウェスタン
-0.999313	および/及び ちぇすと/チェスト
-1.298561	おりこん/オリコン うぃーくりーらんきんぐ/ウィークリーランキング
-1.298561	おりこん/オリコン でいりー/デイリー
-0.998710	おりじんきー/オリジンキー ＝/＝
-0.984671	おわ/終わ ら/ら
-0.999313	おん/オン らいん/ライン
-0.967289	おんがく/音楽 ・/・
-0.949089	おんせん/温泉 </s>
-1.150949	おんど/温度 が/が
-1.087288	おんど/温度 を/を
-0.857072	おんなのこ/女の子 に/に
-0.880528	おーすとらりあ/オーストラリア を/を
-1.771150	か/か えら/選
-1.768442	か/か かいしゃ/会社
-0.814112	か/か と/と
-0.762659	か/か の/の
-0.920353	か/化 し/し
-0.999313	か/家 かろう/家老
-0.348192	か/日 に/に
-1.236949	か/書 い/い
-1.269868	か/書 く/く
-1.297359	か/科 たい/隊
-1.297359	か/科 どうぶつ/動物
-0.999313	か/駆 お/逐
-0.973530	かい/会 」/」
-0.999313	かいきょう/海峡 および/および
-1.222773	かいさい/開催 さ/さ
-1.153320	かいさい/開催 し/し
-1.298561	かいしゃ/会社 うつ/移
-1.050127	かいしゃ/会社 に/に
-0.910729	かいしゅう/改修 、/、
-0.935922	かいどう/街道 と/と
-0.857072	かいふく/回復 に/に
-0.971961	かえ/変え て/て
-0.984671	かかわ/かかわ ら/ら
-0.984671	かかわ/関わ ら/ら
-0.989535	かがく/科学 てき/的
-0.857072	かくち/各地 に/に
-0.526105	かくとく/獲得 し/し
-1.404621	かくとく/獲得 する/する
-0.991168	かけ/かけ られ/られ
-0.973530	かけ/懸け た/た
-0.933049	かけい/家系 は/は
-0.849921	かげ/影 の/の
-0.880528	かさい/火災 を/を
-0.996106	かず/数 おお/多
-0.999313	かせぎ/稼ぎ れおん/レオン
-0.918965	かせつ/仮説 が/が
-0.984671	かた/語 ら/ら
-0.263364	かっ/かっ た/た
-0.999313	かつて/かつて そんざい/存在
-0.920353	かつどう/活動 し/し
-0.998710	かなか/かなか しゅつじょう/出場
-0.996106	かねず/かねず きけん/危険
-0.849921	かのう/可能 の/の
-0.998710	かぶしき/株式 がいしゃ/会社
-0.999313	かみのうがね/上納金 ごうだつ/強奪
-0.987907	かめむし/カメムシ や/や
-1.480843	から/から 、/、
-1.983531	から/から あいるらんど/アイルランド
-1.983531	から/から かず/数
-1.977744	から/から しゅっぱん/出版
-1.983531	から/から しゅよう/主要
-1.977744	から/から しーずん/シーズン
-1.983531	から/から ただちに/直ちに
-1.983531	から/から とおざけ/遠ざけ
-1.288128	から/から の/の
-1.983531	から/から のび/伸び
-0.933049	からき/唐木 は/は
-1.039024	かれ/彼 の/の
-1.269868	かれ/彼 ら/ら
-0.857072	かれっじ/カレッジ に/に
-0.949089	かろう/家老 </s>
-0.970398	かわ/変わ っ/っ
-0.967289	かわいらし/可愛らし い/い
-0.999313	かん/間 ろせん/路線
-0.978270	かん/館 ）/）
-1.245683	かんがえ/考え て/て
-1.282486	かんがえ/考え られ/られ
-0.999313	かんきょう/環境 ほぜん/保全
-1.298561	かんけい/関係 し/史
-1.087288	かんけい/関係 を/を
-0.348192	かんこく/韓国 に/に
-0.857072	かんさい/関西 に/に
-0.880528	かんしょ/官所 を/を
-0.880528	かんじゃ/患者 を/を
-0.857072	かんたい/艦隊 に/に
-0.920353	かんちがい/勘違い し/し
-1.297359	かんとりー/カントリー すきー/スキー
-1.236949	かんとりー/カントリー ・/・
-0.933049	かんめい/艦名 は/は
-0.920353	かんりょう/完了 し/し
-0.920353	かんれん/関連 し/し
-0.853506	が/が 、/、
-2.266263	が/が 「/「
-1.260146	が/が あ/あ
-2.581276	が/が あふりか/アフリカ
-2.693979	が/が うかがえ/伺え
-2.693979	が/が えいじゃっくす/エイジャックス
-2.693979	が/が えんだん/縁談
-2.581276	が/が おお/多
-2.449290	が/が おこな/行
-2.693979	が/が おわ/終わ
-2.670481	が/が かいさい/開催
-2.693979	が/が かのう/可能
-2.693979	が/が きょくたん/極端
-2.693979	が/が こうふく/降伏
-2.010407	が/が さ/さ
-2.693979	が/が さるがばば/猿ヶ馬場
-2.670481	が/が ざざーぐ/ザザーグ
-2.693979	が/が しまなか/島中
-2.693979	が/が しんけん/真剣
-2.693979	が/が しんしゅつ/進出
-2.693979	が/が しんりゃく/侵略
-2.693979	が/が せいかつ/生活
-2.693979	が/が せいび/整備
-2.693979	が/が せっち/設置
-2.693979	が/が せんとう/先頭
-2.532686	が/が たか/多賀
-2.693979	が/が つ/付
-2.670481	が/が つか/使
-2.670481	が/が つよ/強
-2.693979	が/が てばな/手放
-2.693979	が/が とうじょう/登場
-2.693979	が/が とくちょう/特徴
-2.693979	が/が とれんとん/トレントン
-1.680402	が/が な/な
-2.670481	が/が に/二
-2.693979	が/が にほん/日本
-2.693979	が/が は/張
-2.670481	が/が ふぁー/ファー
-2.693979	が/が ふるい/ふるい
-2.693979	が/が ふるく/古く
-1.833100	が/が ぼっぱつ/勃発
-2.693979	が/が めだ/目立
-2.693979	が/が もたら/もたら
-2.693979	が/が ゆうれい/ユウレイ
-2.693979	が/が わずか/わずか
-0.372862	がいこく/外国 じん/人
-1.203673	がいしゃ/会社 </s>
-1.251604	がいしゃ/会社 （/（
-0.923143	がいちゅう/害虫 で/で
-0.933049	がいひ/外皮 は/は
-0.910729	がいよう/概要 、/、
-0.857072	がくえん/学園 に/に
-0.849921	がくせい/学生 の/の
-0.372954	がす/ガス おんど/温度
-0.910729	がっかい/学会 、/、
-1.351154	がっこう/学校 で/で
-1.177376	がっこう/学校 の/の
-1.593668	がっこう/学校 へ/へ
-1.245226	がっこう/学校 を/を
-0.860026	がつ/月 に/に
-1.332221	がつ/月 の/の
-1.888724	がつ/月 １０/１０
-1.892583	がつ/月 １３/１３
-1.824133	がつ/月 ２/２
-0.973900	がつ/月 ２６/２６
-0.967289	がまーる/ガマール ・/・
-0.849921	がめとさいと/ガメトサイト の/の
-0.999313	がんつ/ガンツ ちーむ/チーム
-0.857072	がんねん/元年 に/に
-0.999313	がーでぃあん/ガーディアン たち/達
-1.136990	き/き 、/、
-1.248633	き/き た/た
-0.970398	き/切 っ/っ
-0.987907	きいろあざみうま/キイロアザミウマ や/や
-1.297359	きかん/期間 ちゅう/中
-1.050127	きかん/期間 に/に
-0.999313	きかん/機関 ほう/砲
-1.472877	きけん/危険 ぎょうむ/業務
-1.463402	きけん/危険 だ/だ
-1.383785	きけん/危険 な/な
-0.999313	きしゃ/記者 あにか/アニカ
-0.849921	きじゅん/基準 の/の
-0.991168	きせ/着せ られ/られ
-0.935922	きそ/基礎 と/と
-0.998710	きた/北 たいへい/太平
-0.857072	きち/基地 に/に
-0.935922	きちょう/基調 と/と
-0.996106	きつりん/吉林 しょう/省
-0.973530	きめ/決め た/た
-1.150949	きゃらくたー/キャラクター が/が
-1.297359	きゃらくたー/キャラクター にんき/人気
-0.999313	きゅうしゅう/九州 だいがく/大学
-0.880528	きょういく/教育 を/を
-0.935922	きょういん/教員 と/と
-0.918965	きょうえん/共演 が/が
-0.857072	きょうかい/協会 に/に
-0.880528	きょうみ/興味 を/を
-0.999313	きょうわ/共和 こく/国
-0.949089	きょく/局 </s>
-0.857072	きょくたん/極端 に/に
-0.920353	きょしゅ/挙手 し/し
-0.999313	きり/切り けいしき/形式
-0.998710	きれ/きれ ず/ず
-1.388794	きろく/記録 さ/さ
-0.526105	きろく/記録 し/し
-0.999313	きん/金 かせぎ/稼ぎ
-0.989535	きんだい/近代 てき/的
-0.910729	きんむ/勤務 、/、
-1.139815	ぎいん/議員 に/に
-1.126204	ぎいん/議員 の/の
-1.408736	ぎいん/議員 も/も
-0.996106	ぎかい/議会 ぎいん/議員
-0.999313	ぎむざ/ギムザ せんしょく/染色
-0.998710	ぎょうむ/業務 じゅうじ/従事
-0.880528	ぎょらい/魚雷 を/を
-1.710359	く/く </s>
-1.985327	く/く おこな/行
-2.061746	く/く おも/思
-2.061746	く/く かわいらし/可愛らし
-1.944659	く/く こと/こと
-1.811896	く/く する/する
-2.061746	く/く どくだん/独断
-1.109695	く/く な/な
-1.145167	く/く ばあい/場合
-2.061746	く/く ふなこし/船越
-0.849921	く/区 の/の
-0.967289	く/食 い/い
-0.999313	くうはく/　 こうち/高知
-0.992808	くさかげろう/クサカゲロウ など/など
-0.918965	くせ/癖 が/が
-0.999313	くにのみや/久邇宮 たかおう/多嘉王
-1.039024	くび/首 の/の
-1.087288	くび/首 を/を
-0.918965	くぶん/区分 が/が
-0.973530	くみあわせ/組み合わせ た/た
-0.920353	くりかえ/繰り返 し/し
-0.949089	くる/くる </s>
-0.880528	くるせいど/クルセイド を/を
-0.971961	くれ/くれ て/て
-0.975104	くれない/紅 （/（
-0.998710	くろす/クロス かんとりー/カントリー
-0.999313	くん/勲 きょく/局
-0.967289	くんしょう/勲章 ・/・
-0.918965	ぐるー/グルー が/が
-1.298561	ぐん/軍 たゆう/太夫
-1.050127	ぐん/軍 に/に
-0.975104	ぐんぶ/軍部 （/（
-1.158100	けい/計 で/で
-1.298561	けい/計 ３５/３５
-0.880528	けいけん/経験 を/を
-0.923143	けいごうきん/軽合金 で/で
-0.923143	けいしき/形式 で/で
-0.999313	けいじ/刑事 やく/役
-0.918965	けいそう/係争 が/が
-0.849921	けいたい/形態 の/の
-0.998710	けいば/競馬 じょう/場
-0.999313	けいりょう/軽量 か/化
-0.999313	けっきゅう/血球 ない/内
-0.920353	けっこん/結婚 し/し
-0.935922	けっせい/結成 と/と
-0.999313	けつ/血 とまつ/塗抹
-0.880528	けつだん/決断 を/を
-1.050127	けん/剣 に/に
-1.039024	けん/剣 の/の
-1.337810	けん/県 </s>
-1.472877	けん/県 りつ/立
-1.404477	けん/県 （/（
-1.340051	けんきゅう/研究 が/が
-1.343720	けんきゅう/研究 し/し
-1.596048	けんきゅう/研究 りょういき/領域
-1.596048	けんきゅう/研究 ７１/７１
-0.999313	けんさく/検索 さいと/サイト
-0.857072	けんしゅつ/検出 に/に
-0.999313	けんぞう/建造 ひよう/費用
-0.959613	けんとう/検討 さ/さ
-0.999313	げいのう/芸能 じょうほう/情報
-0.996106	げっかん/月間 だりつ/打率
-0.996106	げつれい/月例 しょう/賞
-0.998710	げん/現 ：/：
-1.158100	げんいん/原因 で/で
-1.180289	げんいん/原因 と/と
-0.849921	げんえき/現役 の/の
-1.192720	げんざい/現在 に/に
-1.378223	げんざい/現在 は/は
-1.593668	げんざい/現在 ふぁー/ファー
-1.512781	げんざい/現在 も/も
-0.933049	こ/子 は/は
-0.935922	こう/公 と/と
-0.857072	こうい/行為 に/に
-0.935922	こうえん/公園 と/と
-0.880528	こうし/講師 を/を
-0.935922	こうしゃ/校舎 と/と
-0.857072	こうせい/光成 に/に
-0.959613	こうせい/構成 さ/さ
-0.880528	こうぞう/構造 を/を
-0.999313	こうち/高知 けいば/競馬
-1.298561	こうつう/交通 しすてむ/システム
-1.298561	こうつう/交通 もう/網
-0.976684	こうでら/国府 も/も
-0.999313	こうとう/高等 おんがく/音楽
-0.999313	こうふく/降伏 さんせい/賛成
-0.935922	こうめい/孝明 と/と
-0.910729	こうりゃん/コウリャン 、/、
-0.994453	こうれい/高齢 しゃ/者
-0.971961	こえ/超え て/て
-0.999313	こく/国 きつりん/吉林
-0.989535	こくさい/国際 てき/的
-0.999313	こくりつ/国立 こうとう/高等
-0.857072	こしゅう/湖州 に/に
-1.167684	こと/こと が/が
-1.546734	こと/こと に/に
-1.527598	こと/こと の/の
-1.795041	こと/こと は/は
-2.162532	こと/こと はっぴょう/発表
-2.006646	こと/こと も/も
-0.367655	こと/こと を/を
-0.359792	こと/事 が/が
-0.970398	ことな/異な っ/っ
-0.933049	ことば/言葉 は/は
-0.849921	こども/子供 の/の
-1.546707	この/この こと/こと
-1.596048	この/この たたかい/闘い
-1.596048	この/この とき/とき
-1.596048	この/この はいせん/敗戦
-0.994453	こふん/古墳 じだい/時代
-0.857072	こぼこ/こぼこ に/に
-0.999313	こみっく/コミック まーけっと/マーケット
-1.474153	これ/これ いがい/以外
-0.505697	これ/これ に/に
-1.249314	ころ/頃 、/、
-1.435210	ころ/頃 から/から
-1.472877	ころ/頃 はせがわ/長谷川
-0.933049	こんこーど/コンコード は/は
-0.999313	こんてんつ/コンテンツ はいしん/配信
-0.998710	こんぴゅーた/コンピュータ きゃらくたー/キャラクター
-0.880528	こーひー/コーヒー を/を
-1.401224	ご/後 、/、
-1.768626	ご/後 しょうめん/正面
-1.252976	ご/後 に/に
-1.235394	ご/後 の/の
-1.474363	ご/後 は/は
-1.768626	ご/後 らずふぁーど/ラズファード
-0.673562	ごう/号 せい/生
-1.532346	ごう/号 ）/）
-1.597319	ごう/号 ５３３/５３３
-0.933049	ごうだつ/強奪 は/は
-0.920353	ごうりゅう/合流 し/し
-0.857072	ごと/毎 に/に
-0.857072	ごろ/ごろ に/に
-1.502622	さ/さ せ/せ
-0.066358	さ/さ れ/れ
-0.849921	さい/歳 の/の
-0.849921	さいあく/最悪 の/の
-0.999313	さいえんてぃすと/サイエンティスト たいぷ/タイプ
-0.920353	さいかい/再会 し/し
-1.292195	さいしゅう/最終 せん/戦
-1.279297	さいしゅう/最終 てき/的
-0.857072	さいしょ/最初 に/に
-0.999313	さいしょう/崔鍾 しょく/植
-0.849921	さいしん/最新 の/の
-0.880528	さいと/サイト を/を
-0.920353	さいよう/採用 し/し
-1.180289	さくひん/作品 と/と
-1.298561	さくひん/作品 よみ/読み
-0.923143	さしず/指図 で/で
-0.880528	さっかー/サッカー を/を
-0.999313	さるがばば/猿ヶ馬場 とうげ/峠
-0.999313	さんか/参加 めんばー/メンバー
-0.880528	さんず/サンズ を/を
-0.857072	さんせい/賛成 に/に
-0.999313	さんちょう/山頂 ふきん/付近
-0.973530	さんでー/サンデー 」/」
-0.999313	ざいにち/在日 べいぐん/米軍
-1.180289	ざざーぐ/ザザーグ と/と
-1.175259	ざざーぐ/ザザーグ は/は
-0.880528	ざる/ざる を/を
-0.872747	し/し 、/、
-0.523554	し/し た/た
-2.782243	し/し だい/大
-2.826026	し/し つつ/つつ
-0.448607	し/し て/て
-1.740609	し/し な/な
-2.826026	し/し にんむ/任務
-2.817467	し/し はつ/初
-2.817467	し/し やく/約
-2.826026	し/し よろこ/喜
-2.782243	し/し ８/８
-0.949089	し/史 </s>
-0.933049	し/市 は/は
-0.540851	し/知 っ/っ
-1.441614	し/知 ら/ら
-0.923143	しあい/試合 で/で
-0.991168	しい/強い られ/られ
-0.857072	しいき/市域 に/に
-0.923143	しかい/司会 で/で
-0.968841	しかけ/仕掛け る/る
-1.401224	しかし/しかし 、/、
-1.768626	しかし/しかし しんかい/晋海
-1.714061	しかし/しかし その/その
-1.765089	しかし/しかし ながら/ながら
-1.768626	しかし/しかし なつば/夏場
-1.765089	しかし/しかし みちの/美智乃
-0.967289	しがん/志願 する/する
-0.967289	しき/指揮 する/する
-0.967289	しきゅう/支給 する/する
-0.918965	しじ/指示 が/が
-0.933049	しすてむ/システム は/は
-1.298561	しぜん/自然 こうえん/公園
-1.276131	しぜん/自然 や/や
-0.910729	しぞんと/シゾント 、/、
-0.999313	しっこう/執行 ゆうよ/猶予
-0.880528	しつ/室 を/を
-0.348192	しつ/質 に/に
-0.849921	してい/姉弟 の/の
-0.959613	してい/指定 さ/さ
-0.976684	しどう/指導 も/も
-0.880528	しなりお/シナリオ を/を
-0.849921	しはん/市販 の/の
-0.849921	しひょう/指標 の/の
-1.297359	しほう/司法 せいど/制度
-1.039024	しほう/司法 の/の
-0.992808	しぼう/死亡 じょくん/叙勲
-0.849921	しまい/姉妹 の/の
-0.999313	しまだ/島田 しんすけ/紳助
-0.923143	しまなか/島中 で/で
-0.996106	しめ/示 す/す
-1.357904	しゃ/社 、/、
-0.668468	しゃ/社 から/から
-1.377059	しゃ/社 が/が
-0.804292	しゃ/者 が/が
-0.845869	しゃ/者 じょくん/叙勲
-1.333033	しゃ/者 に/に
-1.316933	しゃ/者 の/の
-0.880528	しゃかい/社会 を/を
-0.970398	しゃべ/喋 っ/っ
-0.999313	しゃりょう/車両 かさい/火災
-0.999313	しゃんはい/上海 どくしょう/独唱
-1.180289	しゅ/主 と/と
-1.298561	しゅ/主 もり/森
-1.298561	しゅい/首位 だしゃ/打者
-1.087288	しゅい/首位 を/を
-0.994453	しゅうかん/週刊 しょうねん/少年
-0.999313	しゅうじ/修二 めいぎ/名義
-0.918965	しゅうだん/集団 が/が
-0.849921	しゅうちゃく/執着 の/の
-0.935922	しゅうへい/州兵 と/と
-0.857072	しゅうへん/周辺 に/に
-0.933049	しゅうり/修理 は/は
-1.285698	しゅうりょう/終了 ご/後
-1.153320	しゅうりょう/終了 し/し
-0.918965	しゅぎ/主義 が/が
-0.999313	しゅじん/主人 こう/公
-0.910729	しゅっこう/出航 、/、
-0.920353	しゅっぱつ/出発 し/し
-1.222773	しゅっぱん/出版 さ/さ
-1.288935	しゅっぱん/出版 しゃ/社
-1.153320	しゅつじょう/出場 し/し
-1.297359	しゅつじょう/出場 でき/でき
-0.967289	しゅよう/主要 な/な
-0.999313	しゅりゅう/手榴 だん/弾
-0.949089	しゅヴぇーげりん/シュヴェーゲリン </s>
-1.298561	しょう/小 かんたい/艦隊
-1.288935	しょう/小 がっこう/学校
-1.472877	しょう/省 こしゅう/湖州
-1.139815	しょう/省 に/に
-1.472877	しょう/省 りくじょう/陸上
-1.472877	しょう/賞 きん/金
-1.472877	しょう/賞 くん/勲
-1.276856	しょう/賞 で/で
-0.967289	しょうかい/紹介 する/する
-0.999313	しょうがく/小学 かん/館
-0.989535	しょうきょく/消極 てき/的
-0.949089	しょうじょ/少女 </s>
-0.933049	しょうせつ/小説 は/は
-0.933049	しょうそく/消息 は/は
-1.597319	しょうねん/少年 さんでー/サンデー
-0.673562	しょうねん/少年 しほう/司法
-1.595360	しょうねん/少年 れい/令
-0.999313	しょうめん/正面 すたんど/スタンド
-1.472877	しょうわ/昭和 １７/１７
-1.472877	しょうわ/昭和 ３１/３１
-1.472877	しょうわ/昭和 ６２/６２
-0.981458	しょく/植 「/「
-0.967289	しょく/食 する/する
-0.918965	しょくいん/職印 が/が
-0.987907	しょくばい/触媒 や/や
-0.849921	しょけい/処刑 の/の
-0.880528	しょっく/ショック を/を
-1.222773	しよう/使用 さ/さ
-1.153320	しよう/使用 し/し
-0.880528	しらせ/報せ を/を
-0.999313	しれい/司令 ぶ/部
-0.967289	しろ/白 い/い
-0.857072	しろう/四郎 に/に
-0.918965	しんかい/晋海 が/が
-0.999313	しんき/新規 さんか/参加
-0.857072	しんけん/真剣 に/に
-0.920353	しんしゅつ/進出 し/し
-0.999313	しんじん/新人 おう/王
-0.935922	しんすけ/紳助 と/と
-0.933049	しんだん/診断 は/は
-0.920353	しんとう/浸透 し/し
-0.920353	しんにゅう/侵入 し/し
-0.920353	しんりゃく/侵略 し/し
-0.989535	しんわ/神話 てき/的
-1.297359	しーずん/シーズン さいしゅう/最終
-1.298561	しーずん/シーズン つうさん/通算
-0.973530	じ/じ た/た
-0.849921	じ/寺 の/の
-0.999313	じ/時 ５７/５７
-1.285698	じ/次 せかい/世界
-1.298561	じ/次 ちゅうとう/中東
-0.999313	じかん/時間 どらま/ドラマ
-0.372214	じぎょう/事業 しゃ/者
-0.967289	じけつ/自決 する/する
-0.998710	じしん/地震 けい/計
-0.490141	じだい/時代 の/の
-1.507732	じだい/時代 ・/・
-0.967289	じっしょう/実証 する/する
-0.923143	じてん/時点 で/で
-0.880528	じぶん/自分 を/を
-0.849921	じゅう/中 の/の
-0.999313	じゅう/十 しろう/四郎
-0.967289	じゅうぐん/従軍 する/する
-0.880528	じゅうげき/銃撃 を/を
-0.998710	じゅうし/銃士 たい/隊
-0.372214	じゅうじ/従事 しゃ/者
-0.999313	じょ/序 れつ/列
-0.923143	じょう/上 で/で
-1.502037	じょう/城 」/」
-1.593668	じょう/城 しゅ/主
-1.596048	じょう/城 せいちょう/政庁
-1.245226	じょう/城 を/を
-1.136990	じょう/場 、/、
-1.158100	じょう/場 で/で
-0.959613	じょうえん/上演 さ/さ
-0.920353	じょうしょう/上昇 し/し
-0.880528	じょうほう/情報 を/を
-0.423850	じょくん/叙勲 、/、
-1.351093	じょくん/叙勲 の/の
-1.552776	じょくん/叙勲 は/は
-0.999313	じょし/女子 がくせい/学生
-0.857072	じょせい/女性 に/に
-0.967289	じょなさん/ジョナサン ・/・
-1.453800	じん/人 じょくん/叙勲
-1.463402	じん/人 だ/だ
-1.439783	じん/人 や/や
-0.880528	じんせい/人生 を/を
-0.923143	じんぶつ/人物 で/で
-0.999313	じんみん/人民 きょうわ/共和
-1.471084	す/す こと/事
-1.472877	す/す しひょう/指標
-1.471084	す/す ひょうげん/表現
-0.999313	すいらい/水雷 てい/艇
-0.967289	すう/数 ねん/年
-0.910729	すえ/末 、/、
-0.967289	すき/好き な/な
-1.298561	すきー/スキー しどう/指導
-1.050127	すきー/スキー に/に
-0.849921	すこてぃあ/スコティア の/の
-0.999313	すご/凄 まじ/まじ
-0.857072	すたんど/スタンド に/に
-0.976684	すぽーつ/スポーツ も/も
-0.557872	する/する </s>
-2.056975	する/する 」/」
-2.229005	する/する か/か
-2.174945	する/する から/から
-1.734725	する/する が/が
-2.290764	する/する ぎいん/議員
-2.174945	する/する こと/こと
-2.335726	する/する こんてんつ/コンテンツ
-2.335726	する/する ぜんこう/全校
-1.421784	する/する ため/ため
-1.320820	する/する と/と
-1.488096	する/する の/の
-2.335726	する/する ひめはな/ヒメハナ
-2.290764	する/する よう/よう
-0.918965	するたん/スルタン が/が
-1.318661	ず/ず 、/、
-1.596048	ず/ず つね/常
-1.596048	ず/ず ふみやす/文保
-1.593668	ず/ず ７/７
-1.400259	せ/せ た/た
-1.396081	せ/せ て/て
-1.387845	せ/せ る/る
-0.998710	せい/制 れい/令
-0.999313	せい/性 ほしょく/捕食
-1.180289	せい/生 と/と
-1.039024	せい/生 の/の
-0.999313	せいかつ/生活 かんきょう/環境
-0.959613	せいこう/成功 さ/さ
-0.999313	せいじ/政治 こうぞう/構造
-0.999313	せいせき/成績 ゆうしゅう/優秀
-0.849921	せいちょう/政庁 の/の
-0.849921	せいと/生徒 の/の
-0.346764	せいど/制度 の/の
-0.367951	せいひん/製品 ・/・
-0.959613	せいび/整備 さ/さ
-0.918965	せいふく/制服 が/が
-0.857072	せいまご/世孫 に/に
-0.857072	せいむ/政務 に/に
-1.691198	せかい/世界 かくち/各地
-1.691198	せかい/世界 きじゅん/基準
-1.691198	せかい/世界 じゅう/中
-1.691198	せかい/世界 たいせん/大戦
-1.691198	せかい/世界 とっぷ/トップ
-0.967289	せかんど/セカンド ・/・
-0.999313	せき/赤 けっきゅう/血球
-0.918965	せき/隻 が/が
-0.959613	せっけい/設計 さ/さ
-0.996106	せっこう/浙江 しょう/省
-0.959613	せっち/設置 さ/さ
-1.050127	せつ/説 に/に
-1.087288	せつ/説 を/を
-0.920353	せつやく/節約 し/し
-0.973530	せの/瀬乃 」/」
-0.984671	せま/迫 ら/ら
-0.998710	せらー/セラー さくひん/作品
-1.180289	せるてぃっくす/セルティックス と/と
-1.050127	せるてぃっくす/セルティックス に/に
-1.391944	せん/戦 っ/っ
-1.139815	せん/戦 に/に
-1.471084	せん/戦 まで/まで
-0.986286	せん/船 から/から
-0.967289	せんきゅうひゃくきゅうじゅうきゅう/１９９９ ねん/年
-0.967289	せんきゅうひゃくきゅうじゅうはち/１９９８ ねん/年
-0.967289	せんきゅうひゃくはちじゅうなな/１９８７ ねん/年
-0.967289	せんきゅうひゃくはちじゅうはち/１９８８ ねん/年
-0.920353	せんし/戦死 し/し
-0.880528	せんしゅ/選手 を/を
-0.857072	せんしょく/染色 に/に
-0.880528	せんす/センス を/を
-1.267480	せんそう/戦争 が/が
-1.276856	せんそう/戦争 で/で
-1.139815	せんそう/戦争 に/に
-0.933049	せんたい/船体 は/は
-0.857072	せんとう/先頭 に/に
-0.998710	せんとう/戦闘 しゅうりょう/終了
-0.849921	せんない/船内 の/の
-0.967289	せんねん/専念 する/する
-0.994453	せんもん/専門 がっこう/学校
-0.967289	せんれつ/鮮烈 な/な
-1.471084	ぜん/全 さくひん/作品
-1.472877	ぜん/全 にっぽん/日本
-1.472877	ぜん/全 ひてい/否定
-0.918965	ぜんいん/全員 が/が
-0.999313	ぜんこう/全校 せいと/生徒
-0.880528	そうこう/走行 を/を
-0.999313	そうだ/操舵 しつ/室
-0.967289	そうだん/相談 な/な
-0.967289	そうちゃく/装着 する/する
-0.996106	そうは/争覇 せん/戦
-0.880528	そうび/装備 を/を
-0.935922	そこく/祖国 と/と
-0.910729	そして/そして 、/、
-0.999313	そだ/育 ち/ち
-0.968841	そだて/育て る/る
-0.949089	そつ/卒 </s>
-0.920353	そつぎょう/卒業 し/し
-2.030202	その/その あと/後
-2.061746	その/その うえ/うえ
-2.061746	その/その えいきょう/影響
-2.061746	その/その かけい/家系
-1.148400	その/その ころ/頃
-1.141080	その/その ご/後
-2.061746	その/その じてん/時点
-2.061746	その/その にが/苦
-2.061746	その/その ば/場
-2.061746	その/その ひ/日
-0.999313	そらも/空燃 ひ/比
-0.352747	そりゅーしょん/ソリューション を/を
-0.849921	そるがむ/ソルガム の/の
-1.050127	そるごー/ソルゴー に/に
-1.251604	そるごー/ソルゴー （/（
-0.372862	それ/それ まで/まで
-0.920353	そんざい/存在 し/し
-0.880528	ぞうちく/増築 を/を
-0.421633	た/た </s>
-1.658668	た/た 、/、
-2.452264	た/た 「/「
-2.348029	た/た 」/」
-2.743222	た/た あと/後
-2.822205	た/た あめりか/アメリカ
-2.842688	た/た うみず/海津
-1.972243	た/た えいせい/衛生
-2.842688	た/た えんげき/演劇
-1.606259	た/た が/が
-2.743222	た/た きけん/危険
-2.743222	た/た けん/県
-2.822205	た/た げんいん/原因
-1.388982	た/た こと/こと
-2.822205	た/た こと/事
-2.842688	た/た し/市
-2.842688	た/た せんしゅ/選手
-2.842688	た/た せんれつ/鮮烈
-2.743222	た/た ぜん/全
-2.842688	た/た たかくら/高倉
-1.560187	た/た ため/ため
-1.648561	た/た と/と
-2.842688	た/た ところ/ところ
-1.454692	た/た の/の
-1.957435	た/た ばあい/場合
-2.842688	た/た ふしん/不審
-2.842688	た/た ふたり/２人
-2.842688	た/た ほうこく/報告
-2.842688	た/た まいける/マイケル
-2.842688	た/た まーくるんど/マークルンド
-2.699460	た/た もの/もの
-2.842688	た/た ろんぶん/論文
-1.869051	た/た （/（
-0.991168	た/立 つ/つ
-0.394560	たい/対 し/し
-1.298561	たい/隊 いん/員
-1.292195	たい/隊 ちょう/長
-0.849921	たいい/大尉 の/の
-0.967289	たいえき/退役 する/する
-0.986286	たいき/待機 から/から
-0.967289	たいくつ/退屈 な/な
-0.918965	たいせん/大戦 が/が
-0.849921	たいぷ/タイプ の/の
-0.372954	たいへい/太平 よう/洋
-0.973530	たえ/絶え た/た
-1.597754	たか/多賀 こうでら/国府
-0.534034	たか/多賀 じょう/城
-0.935922	たかおう/多嘉王 と/と
-0.999313	たかくら/高倉 としあき/敏明
-0.994453	たかさか/高坂 えき/駅
-0.975104	たかはし/高橋 （/（
-1.298561	たがい/互い しゃべ/喋
-1.039024	たがい/互い の/の
-0.998710	たけ/嶽 しぜん/自然
-0.994453	たたか/戦 う/う
-0.918965	たたかい/闘い が/が
-0.910729	ただし/ただし 、/、
-0.999313	ただちに/直ちに じけつ/自決
-0.935922	たち/達 と/と
-0.910729	たちあげ/立ち上げ 、/、
-0.923143	たつじん/達人 で/で
-0.991168	たて/立て られ/られ
-0.857072	たて/縦 に/に
-0.968841	たとえ/喩え る/る
-0.999313	たの/頼 ま/ま
-0.880528	たび/旅 を/を
-0.794225	ため/ため 、/、
-1.895195	ため/ため たいえき/退役
-0.528932	ため/ため に/に
-0.849921	たゆう/太夫 の/の
-0.999313	たんじょう/誕生 び/日
-0.998710	たんぱく/タンパク しつ/質
-0.949089	たんぱく/淡白 </s>
-0.923143	たんれい/端麗 で/で
-1.424492	だ/だ </s>
-1.340051	だ/だ が/が
-1.593668	だ/だ とき/時
-1.177376	だ/だ の/の
-0.996106	だ/出 あふりか/アフリカ
-1.298561	だい/代 かんしょ/官所
-1.298561	だい/代 とうしゅ/当主
-1.472877	だい/大 そつ/卒
-1.472877	だい/大 の/野
-1.472877	だい/大 ひっと/ヒット
-0.709716	だい/第 に/二
-1.770318	だい/第 １８/１８
-1.716547	だい/第 ２/２
-1.754657	だい/第 ６/６
-0.967289	だいかん/代官 ・/・
-0.998710	だいがく/大学 ほうせい/法政
-0.923143	だいしょうすけ/大賞典 で/で
-0.959613	だいひょう/代表 さ/さ
-0.999313	だいよう/代用 きょういん/教員
-0.880528	だしゃ/打者 を/を
-0.404797	だっ/だっ た/た
-0.920353	だっしゅつ/脱出 し/し
-0.967289	だぶる/ダブル ・/・
-1.336166	だりつ/打率 は/は
-0.547967	だりつ/打率 ．/．
-0.991168	だれ/誰 か/か
-0.880528	だん/弾 を/を
-0.999313	だんせい/弾性 は/波
-0.910729	ち/ち 、/、
-0.999313	ちいき/地域 しゃかい/社会
-0.999313	ちぇすと/チェスト ばすたー/バスター
-0.967289	ちか/近 い/い
-0.918965	ちから/力 が/が
-0.987907	ちぎょう/知行 ２/２
-0.999313	ちぐさ/千草 しまい/姉妹
-0.923143	ちちおや/父親 で/で
-1.203673	ちゃく/着 </s>
-1.180289	ちゃく/着 と/と
-0.923143	ちゃーと/チャート で/で
-1.050127	ちゅう/中 に/に
-1.039024	ちゅう/中 の/の
-0.999313	ちゅうか/中華 じんみん/人民
-0.998710	ちゅうしゃ/駐車 じょう/場
-0.999313	ちゅうだん/中団 たいき/待機
-0.996106	ちゅうとう/中東 せんそう/戦争
-1.400259	ちょう/長 」/」
-1.471084	ちょう/長 きかん/期間
-1.458574	ちょう/長 じだい/時代
-0.967289	ちょうさ/調査 ・/・
-0.880528	ちょうし/調子 を/を
-0.994453	ちょうせん/朝鮮 しょうねん/少年
-0.880528	ちようこ/蝶子 を/を
-0.996106	ちんたい/賃貸 おふぃす/オフィス
-0.849921	ちーむ/チーム の/の
-0.226246	っ/っ た/た
-0.523046	っ/っ て/て
-0.936007	つ/つ </s>
-0.817119	つ/つ い/い
-1.844953	つ/つ か/か
-1.598247	つ/つ と/と
-1.344297	つ/つ の/の
-0.959613	つ/付 さ/さ
-0.967289	つ/就 い/い
-0.923143	つうさん/通算 で/で
-0.998710	つうしん/通信 じぎょう/事業
-1.039024	つうじょう/通常 の/の
-1.175259	つうじょう/通常 は/は
-1.298561	つか/使 え/え
-1.288935	つか/使 わ/わ
-0.973530	つかい/つかい 」/」
-0.968841	つかえ/使え る/る
-0.994453	つきあ/付き合 う/う
-0.971961	つけ/着け て/て
-0.910729	つつ/つつ 、/、
-0.967289	つづ/続 い/い
-0.968841	つづけ/続け る/る
-1.248633	つとめ/務め た/た
-1.245683	つとめ/務め て/て
-0.857072	つね/常 に/に
-0.370705	つよ/強 く/く
-1.261214	て/て 、/、
-0.463058	て/て い/い
-2.806331	て/て いき/生き
-2.806331	て/て いんよう/飲用
-1.152203	て/て お/お
-2.806331	て/て おんなのこ/女の子
-2.786652	て/て き/き
-2.806331	て/て ぎょらい/魚雷
-2.806331	て/て くる/くる
-2.806331	て/て くれ/くれ
-2.806331	て/て けんぞう/建造
-2.710451	て/て げんざい/現在
-2.806331	て/て こうせい/構成
-2.786652	て/て し/知
-2.806331	て/て しゅっこう/出航
-2.806331	て/て しんとう/浸透
-2.561108	て/て その/その
-2.806331	て/て たたか/戦
-2.806331	て/て たて/立て
-2.806331	て/て だいよう/代用
-2.806331	て/て だっしゅつ/脱出
-2.786652	て/て つか/使
-2.806331	て/て とうげん/桃源
-2.806331	て/て とうろく/登録
-2.806331	て/て どうろ/道路
-2.256092	て/て な/な
-1.609488	て/て は/は
-2.806331	て/て ひ/妃
-2.806331	て/て ふさわし/ふさわし
-2.806331	て/て みの/美濃
-1.726294	て/て も/も
-2.806331	て/て やよい/弥生
-1.933378	て/て やん/やん
-0.880528	て/手 を/を
-0.992808	てい/艇 ３/３
-0.920353	ていきょう/提供 し/し
-0.999313	ていど/程度 うごか/動か
-1.811967	てき/的 けんきゅう/研究
-1.535446	てき/的 で/で
-0.762015	てき/的 な/な
-0.821692	てき/的 に/に
-0.920353	てばな/手放 し/し
-0.971961	てれ/照れ て/て
-0.849921	てんし/天使 の/の
-0.998710	てんしよう/天正 １０/１０
-0.999313	てんのう/天皇 はい/杯
-1.492866	で/で 、/、
-2.295462	で/で 「/「
-0.742803	で/で あ/あ
-2.651069	で/で あいて/相手
-2.131021	で/で い/い
-2.454645	で/で おこな/行
-2.651069	で/で かいふく/回復
-2.651069	で/で かつどう/活動
-2.651069	で/で からき/唐木
-2.651069	で/で きめ/決め
-2.633193	で/で きろく/記録
-2.651069	で/で けいじ/刑事
-2.651069	で/で けいりょう/軽量
-2.651069	で/で こうし/講師
-2.651069	で/で しなりお/シナリオ
-2.633193	で/で しよう/使用
-2.651069	で/で じょうえん/上演
-2.651069	で/で じょせい/女性
-2.651069	で/で せいせき/成績
-2.651069	で/で せんし/戦死
-2.651069	で/で そだ/育
-2.563308	で/で だりつ/打率
-2.633193	で/で どうぶつ/動物
-1.523886	で/で の/の
-0.818315	で/で は/は
-2.633193	で/で はいき/排気
-2.633193	で/で はつ/初
-2.651069	で/で ほくと/ホクト
-2.651069	で/で ゆうしょう/優勝
-2.651069	で/で わしんとん/ワシントン
-2.563308	で/で ４/４
-2.523988	で/で ９/９
-0.999313	でいりー/デイリー らんきんぐ/ランキング
-1.236949	でき/でき な/な
-1.239841	でき/でき る/る
-0.949089	です/です </s>
-0.999313	でんげき/電撃 おん/オン
-0.918965	でんれい/伝令 が/が
-1.464534	と/と 、/、
-2.688878	と/と あかね/茜
-2.688878	と/と あわー/アワー
-1.006389	と/と い/い
-1.666615	と/と い/言
-2.688878	と/と いち/一
-2.688878	と/と いっしょ/一緒
-2.688878	と/と おおしま/大島
-2.688878	と/と かんちがい/勘違い
-2.688878	と/と き/切
-2.688878	と/と けっこん/結婚
-2.126017	と/と さ/さ
-2.688878	と/と さいかい/再会
-0.668358	と/と し/し
-2.688878	と/と すこてぃあ/スコティア
-2.194397	と/と する/する
-2.688878	と/と せいむ/政務
-2.688878	と/と せんす/センス
-2.688878	と/と そこく/祖国
-2.672438	と/と そるごー/ソルゴー
-2.688878	と/と つきあ/付き合
-2.688878	と/と と/問
-0.932849	と/と な/な
-1.595925	と/と の/の
-2.672438	と/と はつね/初音
-2.293826	と/と も/も
-0.994453	と/問 わ/わ
-0.996106	とうきょう/とうきょう おふぃす/オフィス
-1.292195	とうきょう/東京 おふぃす/オフィス
-1.298561	とうきょう/東京 くるせいど/クルセイド
-0.880528	とうげ/峠 を/を
-0.994453	とうげん/桃源 しゃ/社
-0.880528	とうさつ/盗撮 を/を
-0.999313	とうしゅ/当主 もうり/毛利
-1.272988	とうじ/当時 から/から
-1.039024	とうじ/当時 の/の
-0.949089	とうじょう/登場 </s>
-0.920353	とうちゃく/到着 し/し
-0.978270	とうなーけん/とうなーけん ）/）
-0.923143	とうひょう/投票 で/で
-0.920353	とうろく/登録 し/し
-0.999313	とおざけ/遠ざけ かねず/かねず
-0.857072	とき/とき に/に
-0.348192	とき/時 に/に
-0.923143	とくちょう/特徴 で/で
-0.996106	とくに/とくに ８/８
-0.910729	ところ/ところ 、/、
-0.999313	とし/都市 かん/間
-0.981458	としあき/敏明 「/「
-0.998710	としょ/図書 しゅっぱん/出版
-0.999313	とっぷ/トップ ５０/５０
-0.910729	とつぜん/突然 、/、
-0.991168	ととのえ/整え られ/られ
-0.971961	となえ/唱え て/て
-0.999313	とまつ/塗抹 ぎむざ/ギムザ
-0.857072	とも/とも に/に
-0.849921	ともこ/智子 の/の
-0.999313	とよみ/豊見 おや/親
-0.857072	とりしらべ/取り調べ に/に
-0.935922	とりにだーど/トリニダード と/と
-0.920353	とりもど/取り戻 し/し
-0.999313	とりわけ/取り分け おおきな/大きな
-0.923143	とれんとん/トレントン で/で
-0.910729	とろふぉぞいと/トロフォゾイト 、/、
-0.918965	とんぼ/とんぼ が/が
-0.857072	ど/度 に/に
-0.998710	どいつ/ドイツ じん/人
-0.920353	どういん/動員 し/し
-0.999313	どうちゅう/道中 ちゅうだん/中団
-1.150949	どうぶつ/動物 が/が
-1.298561	どうぶつ/動物 びょういん/病院
-0.910729	どうろ/道路 、/、
-0.999313	どくしょう/独唱 かい/会
-0.923143	どくだん/独断 で/で
-0.849921	どちゃく/土着 の/の
-0.923143	どらま/ドラマ で/で
-0.857072	どれん/ドレン に/に
-0.998710	どーぱんと/ドーパント ふく/含
-0.713557	な/な い/い
-2.542434	な/な いしょう/衣装
-2.542434	な/な うえ/上
-2.542434	な/な えいぞう/映像
-2.542434	な/な えぴそーど/エピソード
-2.542434	な/な おにごっこ/鬼ごっこ
-2.542434	な/な かいどう/街道
-1.241899	な/な かっ/かっ
-2.542434	な/な かなか/かなか
-2.310306	な/な く/く
-2.069316	な/な さ/さ
-2.451867	な/な しょうねん/少年
-2.542434	な/な たび/旅
-0.852915	な/な っ/っ
-2.542434	な/な べすと/ベスト
-2.451867	な/な もの/もの
-1.499734	な/な り/り
-1.571477	な/な る/る
-0.849921	ない/内 の/の
-0.999313	ないかく/内閣 ふ/府
-0.992808	ないそう/内装 など/など
-0.999313	なおひろ/直弘 りゅうじ/龍治
-0.910729	なか/中 、/、
-0.999313	なかの/中野 です/です
-0.918965	ながよし/長可 が/が
-1.136990	ながら/ながら 、/、
-1.298561	ながら/ながら ものがたり/物語
-1.180289	なす/ナス と/と
-1.039024	なす/ナス の/の
-0.857072	なつば/夏場 に/に
-1.401154	など/など 、/、
-1.423318	など/など が/が
-1.271373	など/など に/に
-0.688395	など/など の/の
-0.999313	なな/七 ふしぎ/不思議
-1.175259	なまえ/名前 は/は
-1.087288	なまえ/名前 を/を
-0.984671	なん/何 ら/ら
-0.998710	なんて/なんて かんがえ/考え
-0.923143	なんぶ/南部 で/で
-0.994453	なんぼくちょう/南北朝 じだい/時代
-0.857072	なーせる/ナーセル に/に
-1.735589	に/に 、/、
-1.872722	に/に 「/「
-2.078505	に/に あ/あ
-2.936165	に/に あた/あた
-2.936165	に/に あつま/集ま
-2.936165	に/に い/行
-2.936165	に/に いじゅう/移住
-2.936165	に/に いた/至
-2.119438	に/に いち/位置
-2.763798	に/に お/お
-2.936165	に/に おおいた/大分
-2.125535	に/に おけ/おけ
-2.585107	に/に おこな/行
-2.936165	に/に かけ/かけ
-2.936165	に/に かつて/かつて
-2.936165	に/に かわ/変わ
-2.936165	に/に かんりょう/完了
-2.936165	に/に かんれん/関連
-2.936165	に/に きた/北
-2.936165	に/に きょうみ/興味
-2.936165	に/に きんむ/勤務
-2.936165	に/に くにのみや/久邇宮
-2.898175	に/に くび/首
-2.936165	に/に ごうりゅう/合流
-2.936165	に/に さんちょう/山頂
-1.595356	に/に し/し
-2.936165	に/に しがん/志願
-2.936165	に/に してい/指定
-2.936165	に/に しはん/市販
-2.898175	に/に しゅつじょう/出場
-2.936165	に/に しょうきょく/消極
-2.936165	に/に じゅうぐん/従軍
-2.936165	に/に じょうしょう/上昇
-2.936165	に/に すぽーつ/スポーツ
-2.936165	に/に せいこう/成功
-2.898175	に/に せいひん/製品
-2.936165	に/に せんねん/専念
-2.763798	に/に ぜん/全
-2.936165	に/に た/立
-1.990955	に/に たい/対
-2.898175	に/に たいへい/太平
-2.936165	に/に たとえ/喩え
-2.936165	に/に たの/頼
-2.936165	に/に だいひょう/代表
-1.933613	に/に つ/つ
-2.936165	に/に つ/就
-2.936165	に/に つけ/着け
-2.936165	に/に てんのう/天皇
-2.898175	に/に とうきょう/東京
-2.936165	に/に とりわけ/取り分け
-1.794907	に/に な/な
-2.936165	に/に にゅうせん/入選
-1.043088	に/に は/は
-2.936165	に/に はい/入
-2.936165	に/に はいぞく/配属
-2.936165	に/に はいふ/配布
-2.936165	に/に はいぼく/敗北
-2.936165	に/に はくい/白衣
-2.936165	に/に はんぱつ/反発
-2.898175	に/に ひと/ヒト
-2.936165	に/に ふ/振
-2.936165	に/に ぶんげい/文芸
-2.936165	に/に へんじ/返事
-2.936165	に/に ほうしゅつ/放出
-2.936165	に/に ほんのう/本能
-2.936165	に/に ぼうだん/防弾
-2.898175	に/に みちの/美智乃
-2.936165	に/に みりょう/魅了
-2.936165	に/に むか/向か
-2.898175	に/に むけ/向け
-2.936165	に/に め/目
-1.505409	に/に も/も
-2.936165	に/に やっと/やっと
-1.157151	に/に よ/よ
-2.125535	に/に よびだ/呼び出
-2.936165	に/に らんくいん/ランクイン
-2.936165	に/に らーる/ラール
-2.119438	に/に りま/りま
-2.936165	に/に わた/亘
-2.936165	に/に わたり/渡り
-1.581718	に/二 い/位
-1.581718	に/二 ごう/号
-0.673562	に/二 じ/次
-0.967289	にが/苦 い/い
-0.910729	にく/肉 、/、
-0.999313	にしよどがわ/西淀川 く/区
-0.967289	にせんご/２００５ ねん/年
-0.967289	にせんじゅういち/２０１１ ねん/年
-0.967289	にせんじゅうに/２０１２ ねん/年
-0.967289	にせんなな/２００７ ねん/年
-1.435210	にち/日 から/から
-1.472877	にち/日 くうはく/　
-1.126204	にち/日 の/の
-0.996106	にちろ/日露 せんそう/戦争
-0.999313	にっぽん/日本 しんじん/新人
-0.999313	にほん/日本 さっかー/サッカー
-0.949089	にゅうせん/入選 </s>
-0.503263	にん/人 の/の
-1.240203	にん/人 を/を
-1.298561	にんき/人気 とうひょう/投票
-1.276131	にんき/人気 ２/２
-0.959613	にんてい/認定 さ/さ
-0.857072	にんむ/任務 に/に
-0.999313	ねっと/ネット じょう/上
-1.713814	ねん/年 、/、
-2.277857	ねん/年 げんざい/現在
-2.239038	ねん/年 ご/後
-2.318941	ねん/年 せい/制
-0.907664	ねん/年 に/に
-2.310930	ねん/年 まえ/前
-0.989335	ねん/年 （/（
-0.714663	ねん/年 ）/）
-2.239038	ねん/年 ３/３
-2.277857	ねん/年 ６/６
-2.258014	ねん/年 ９/９
-2.281158	の/の 「/「
-2.912179	の/の あ/ア
-2.912179	の/の あいだ/間
-2.912179	の/の あこがれ/憧れ
-2.912179	の/の あさ/朝
-2.068757	の/の い/い
-2.912179	の/の いぇーがん/イェーガン
-2.867414	の/の いち/位置
-2.912179	の/の いっしゅ/一種
-2.912179	の/の いのち/命
-2.912179	の/の いみ/意味
-2.867414	の/の いりょう/医療
-2.912179	の/の いんちょう/院長
-2.912179	の/の いんなー/インナー
-2.912179	の/の うち/うち
-2.638409	の/の えき/駅
-2.912179	の/の えきがく/疫学
-2.912179	の/の おそく/遅く
-2.518130	の/の か/か
-2.867414	の/の かれ/彼
-2.867414	の/の かんけい/関係
-2.867414	の/の かんとりー/カントリー
-2.912179	の/の がいちゅう/害虫
-2.912179	の/の がいひ/外皮
-2.912179	の/の がいよう/概要
-2.912179	の/の きそ/基礎
-2.912179	の/の きょういく/教育
-2.912179	の/の きょうえん/共演
-2.912179	の/の きょしゅ/挙手
-2.867414	の/の くび/首
-2.912179	の/の くぶん/区分
-2.912179	の/の けんしゅつ/検出
-2.912179	の/の げいのう/芸能
-2.912179	の/の げっかん/月間
-2.912179	の/の げつれい/月例
-2.867414	の/の げんいん/原因
-2.912179	の/の こ/子
-2.912179	の/の こうい/行為
-2.912179	の/の こうしゃ/校舎
-2.912179	の/の ことな/異な
-2.867414	の/の ころ/頃
-2.912179	の/の こんぴゅーた/コンピュータ
-2.912179	の/の さしず/指図
-2.912179	の/の しかい/司会
-2.867414	の/の しぜん/自然
-2.912179	の/の しぞんと/シゾント
-2.867414	の/の しつ/質
-2.867414	の/の しゅい/首位
-2.912179	の/の しゅうだん/集団
-2.912179	の/の しゅうちゃく/執着
-2.912179	の/の しゅうへい/州兵
-2.912179	の/の しょうじょ/少女
-2.912179	の/の しょうそく/消息
-2.912179	の/の しょくいん/職印
-2.912179	の/の しんき/新規
-2.912179	の/の じしん/地震
-2.912179	の/の じゅうげき/銃撃
-2.912179	の/の じょなさん/ジョナサン
-2.912179	の/の じんせい/人生
-2.912179	の/の すいらい/水雷
-2.912179	の/の すえ/末
-2.912179	の/の せいじ/政治
-2.867414	の/の せいひん/製品
-2.912179	の/の せんもん/専門
-2.912179	の/の そうだん/相談
-2.468542	の/の その/その
-2.638409	の/の たか/多賀
-2.912179	の/の たつじん/達人
-2.912179	の/の たんじょう/誕生
-2.574119	の/の だい/第
-2.912179	の/の ちいき/地域
-2.912179	の/の ちちおや/父親
-2.912179	の/の ちょうし/調子
-2.912179	の/の ちようこ/蝶子
-2.912179	の/の ちんたい/賃貸
-2.912179	の/の つうしん/通信
-2.912179	の/の つかい/つかい
-1.709045	の/の で/で
-2.867414	の/の とき/時
-2.912179	の/の どちゃく/土着
-2.068757	の/の な/な
-2.912179	の/の ないそう/内装
-2.127846	の/の なまえ/名前
-1.587126	の/の は/は
-2.867414	の/の はんざい/犯罪
-2.713898	の/の ばあい/場合
-2.912179	の/の ひと/一
-2.912179	の/の ひとり/１人
-2.912179	の/の ひろた/広食
-2.912179	の/の ふぃじかる/フィジカル
-2.127846	の/の ふたり/二人
-2.120166	の/の ぶか/部下
-2.867414	の/の ぶたい/部隊
-2.912179	の/の ぶんせき/分析
-2.912179	の/の へん/変
-2.912179	の/の へんか/変化
-2.912179	の/の ほうしん/砲身
-2.912179	の/の ほくぶ/北部
-2.912179	の/の ぼいす/ボイス
-2.867414	の/の まえ/前
-2.912179	の/の まと/的
-2.912179	の/の みんせい/民生
-2.912179	の/の めんどう/面倒
-2.088402	の/の よう/よう
-1.994589	の/の ようかい/妖怪
-2.912179	の/の りくろ/陸路
-2.912179	の/の れきし/歴史
-2.424040	の/の ２/２
-2.912179	の/の ２４/２４
-2.912179	の/の ４４/４４
-2.120166	の/の ５/５
-0.999313	の/野 たけ/嶽
-0.973530	のいず/ノイズ 」/」
-0.994453	のう/農 がっこう/学校
-0.849921	のこり/残り の/の
-0.999313	のび/伸び きれ/きれ
-0.739096	は/は 、/、
-1.449719	は/は 「/「
-2.747098	は/は あいりっしゅ/アイリッシュ
-2.747098	は/は あまーすと/アマースト
-2.747098	は/は うなぎ/鰻
-2.747098	は/は おおつき/大槻
-2.747098	は/は かた/語
-2.747098	は/は けいごうきん/軽合金
-2.747098	は/は けつだん/決断
-2.747098	は/は こくさい/国際
-2.747098	は/は しょくばい/触媒
-2.747098	は/は しろ/白
-2.747098	は/は じぶん/自分
-2.747098	は/は じょし/女子
-2.747098	は/は せいふく/制服
-2.526227	は/は せかい/世界
-2.721342	は/は せるてぃっくす/セルティックス
-2.747098	は/は ぜんいん/全員
-2.446021	は/は その/その
-2.747098	は/は たえ/絶え
-2.747098	は/は たかさか/高坂
-2.747098	は/は たんぱく/淡白
-1.854998	は/は だい/第
-2.747098	は/は だいかん/代官
-2.624678	は/は だりつ/打率
-2.747098	は/は ちゅうか/中華
-1.849311	は/は と/と
-2.747098	は/は とりにだーど/トリニダード
-2.747098	は/は どいつ/ドイツ
-2.747098	は/は どうちゅう/道中
-1.628642	は/は な/な
-2.747098	は/は なかの/中野
-2.747098	は/は にちろ/日露
-2.747098	は/は はんもと/版元
-2.747098	は/は ひきと/引き取
-2.747098	は/は ふめい/不明
-2.721342	は/は ぶか/部下
-2.747098	は/は ほうじん/法人
-2.747098	は/は ほっぽう/北方
-2.747098	は/は ほんらい/本来
-2.747098	は/は ぽーかー/ポーカー
-2.747098	は/は まっしょう/末梢
-2.747098	は/は まんが/漫画
-2.747098	は/は めぐろ/目黒
-2.747098	は/は もと/元
-2.747098	は/は よくちょう/翌朝
-2.624678	は/は ．/．
-2.747098	は/は １４/１４
-2.747098	は/は １９４４/１９４４
-2.747098	は/は ３００/３００
-0.970398	は/張 っ/っ
-0.933049	は/波 は/は
-0.920353	はあく/把握 し/し
-0.968841	はい/入 る/る
-0.923143	はい/杯 で/で
-0.372954	はいき/排気 がす/ガス
-0.998710	はいしん/配信 がいしゃ/会社
-0.933049	はいせん/敗戦 は/は
-0.959613	はいぞく/配属 さ/さ
-0.959613	はいふ/配布 さ/さ
-0.920353	はいぼく/敗北 し/し
-0.935922	はいゆう/俳優 と/と
-0.999313	はがー/ハガー および/及び
-0.880528	はくい/白衣 を/を
-0.362741	はじめ/始め と/と
-0.999313	はせがわ/長谷川 しゅうじ/修二
-0.975104	はそん/破損 （/（
-0.967289	はた/秦 ・/・
-0.910729	はだに/ハダニ 、/、
-0.920353	はっかく/発覚 し/し
-0.920353	はっしゃ/発射 し/し
-0.920353	はっぴょう/発表 し/し
-0.346764	はつ/初 の/の
-0.372954	はつね/初音 みく/ミク
-0.992808	はるあき/春秋 じょくん/叙勲
-1.298561	はんざい/犯罪 きしゃ/記者
-1.298561	はんざい/犯罪 しょうせつ/小説
-0.849921	はんすう/半数 の/の
-0.880528	はんぱつ/反発 を/を
-0.880528	はんもと/版元 を/を
-1.136990	ば/ば 、/、
-1.298561	ば/ば かんじゃ/患者
-0.933049	ば/場 は/は
-1.401154	ばあい/場合 、/、
-1.271373	ばあい/場合 に/に
-1.462975	ばあい/場合 は/は
-0.758680	ばあい/場合 も/も
-0.996106	ばくりょう/幕僚 ちょう/長
-0.880528	ばす/バス を/を
-0.999313	ばすたー/バスター けいたい/形態
-0.933049	ばっく/バック は/は
-0.857072	ばん/版 に/に
-1.298561	ばん/番 て/手
-1.297359	ばん/番 にんき/人気
-0.918965	ばんぞく/蛮族 が/が
-0.923143	ばんのう/万能 で/で
-0.933049	ばーくれい/バークレイ は/は
-0.998710	ばーぐ/バーグ へ/へ
-0.935922	ひ/妃 と/と
-0.849921	ひ/日 の/の
-0.849921	ひ/比 の/の
-0.996106	ひがしな/東那 けん/県
-0.994453	ひがしまつやま/東松山 えき/駅
-0.984671	ひきと/引き取 ら/ら
-0.967289	ひっと/ヒット する/する
-0.959613	ひてい/否定 さ/さ
-1.297359	ひと/ヒト か/科
-1.039024	ひと/ヒト の/の
-0.991168	ひと/一 つ/つ
-0.923143	ひとり/１人 で/で
-0.999313	ひめはな/ヒメハナ かめむし/カメムシ
-0.978270	ひょう/票 ）/）
-0.362741	ひょうげん/表現 と/と
-0.880528	ひよう/費用 を/を
-0.999313	ひろし/寛 ほう/法
-0.999313	ひろし/汎 あらぶ/アラブ
-0.999313	ひろた/広食 せい/性
-0.992808	ひろば/広場 など/など
-0.880528	ひん/品 を/を
-0.880528	び/日 を/を
-0.918965	び/美 が/が
-0.849921	びょういん/病院 の/の
-0.849921	びるぼーど/ビルボード の/の
-1.200161	ぴくる/ピクル に/に
-0.503263	ぴくる/ピクル の/の
-0.996106	ふ/府 しょう/賞
-0.984671	ふ/振 ら/ら
-0.933049	ふぁすべんだー/ファスベンダー は/は
-0.372954	ふぁー/ファー うぇい/ウェイ
-0.935922	ふぃじかる/フィジカル と/と
-0.880528	ふうけい/風景 を/を
-0.999313	ふぇいす/フェイス はがー/ハガー
-0.999313	ふぇーざー/フェーザー きかん/機関
-0.994453	ふぉっくす/フォックス しゃ/社
-0.849921	ふきん/付近 の/の
-0.372954	ふく/含 む/む
-0.984671	ふさわし/ふさわし く/く
-0.849921	ふしぎ/不思議 の/の
-0.999313	ふしん/不審 せん/船
-0.999313	ふたたび/再び わよ/和与
-1.039024	ふたり/二人 の/の
-1.175259	ふたり/二人 は/は
-0.918965	ふたり/２人 が/が
-0.999313	ふなこし/船越 えいいちろう/英一郎
-0.999313	ふなばし/船橋 しゅうへん/周辺
-0.918965	ふみひこ/文彦 が/が
-0.999313	ふみやす/文保 がんねん/元年
-0.996106	ふめい/不明 だっ/だっ
-0.857072	ふるい/ふるい に/に
-0.986286	ふるく/古く から/から
-0.910729	ふん/分 、/、
-0.999313	ぶ/ぶ とし/都市
-0.978270	ぶ/部 ）/）
-1.267480	ぶか/部下 が/が
-1.276856	ぶか/部下 で/で
-1.306265	ぶか/部下 と/と
-0.999313	ぶしゅう/武州 まつやま/松山
-0.920353	ぶそう/武装 し/し
-1.150949	ぶたい/部隊 が/が
-1.050127	ぶたい/部隊 に/に
-0.994453	ぶよう/舞踊 がっこう/学校
-0.857072	ぶらざーず/ブラザーズ に/に
-0.978270	ぶろー/ブロー ）/）
-0.999313	ぶんげい/文芸 としょ/図書
-0.923143	ぶんせき/分析 で/で
-0.999313	ぷらちな/プラチナ にんてい/認定
-0.992808	ぷれてすと/プレテスト ご/後
-1.298561	へ/へ しんにゅう/侵入
-1.039024	へ/へ の/の
-0.971961	へ/経 て/て
-0.918965	へくたーる/ヘクタール が/が
-0.880528	へん/変 を/を
-0.880528	へんか/変化 を/を
-0.880528	へんじ/返事 を/を
-0.973530	べ/べ 」/」
-0.999313	べいぐん/米軍 きち/基地
-0.999313	べすと/ベスト せらー/セラー
-0.880528	べんぐつそん/ベングツソン を/を
-0.999313	ぺてぃ/ペティ ぐるー/グルー
-0.653409	ぺーじ/頁 </s>
-1.357904	ぺーじ/頁 、/、
-1.523111	ぺーじ/頁 （/（
-0.849921	ほう/法 の/の
-0.849921	ほう/砲 の/の
-0.918965	ほうこく/報告 が/が
-0.959613	ほうしゅつ/放出 さ/さ
-0.998710	ほうしょう/褒章 せいど/制度
-0.933049	ほうしん/砲身 は/は
-0.998710	ほうじん/法人 むけ/向け
-1.298561	ほうせい/法政 がっかい/学会
-1.288935	ほうせい/法政 けんきゅう/研究
-0.999313	ほくと/ホクト するたん/スルタン
-0.857072	ほくぶ/北部 に/に
-0.994453	ほしょく/捕食 しゃ/者
-0.999313	ほぜん/保全 りん/林
-0.857072	ほっぽう/北方 に/に
-0.920353	ほどこ/施 し/し
-0.999313	ほんのう/本能 じ/寺
-0.999313	ほんみょう/本名 あんな/アンナ
-0.849921	ほんらい/本来 の/の
-0.933049	ぼいす/ボイス は/は
-1.292195	ぼうえい/防衛 しょう/省
-1.292195	ぼうえい/防衛 だい/大
-0.998710	ぼうご/防護 でき/でき
-0.880528	ぼうだん/防弾 を/を
-0.935922	ぼくし/牧師 と/と
-0.857072	ぼこぼこ/ボコボコ に/に
-0.999313	ぼっ/ぼっ こぼこ/こぼこ
-0.367951	ぼっぱつ/勃発 する/する
-0.967289	ぼびー/ボビー ・/・
-0.998710	ぽーかー/ポーカー ちゅう/中
-0.849921	ぽーとらんど/ポートランド の/の
-0.992808	ま/ま れ/れ
-0.967289	まいける/マイケル ・/・
-1.298561	まえ/前 ごろ/ごろ
-1.050127	まえ/前 に/に
-0.992808	まき/巻 ３/３
-0.880528	まさと/正人 を/を
-0.967289	まじ/まじ い/い
-0.998710	まじえ/交え ながら/ながら
-0.358325	また/また 、/、
-0.849921	まち/町 の/の
-0.999313	まっしょう/末梢 けつ/血
-0.880528	まっする/マッスル を/を
-0.999313	まっど/マッド さいえんてぃすと/サイエンティスト
-0.857072	まつ/末 に/に
-0.998710	まつい/松井 ぐん/軍
-0.994453	まつやま/松山 えき/駅
-1.463402	まで/まで お/お
-1.126204	まで/まで の/の
-1.471084	まで/まで ひと/ヒト
-0.970398	まと/まと っ/っ
-0.949089	まと/的 </s>
-0.987907	まにら/マニラ や/や
-0.984671	まね/招 く/く
-0.999313	まま/まま そうこう/走行
-0.967289	まりーあ/マリーア ・/・
-0.999313	まんが/まんが かれっじ/カレッジ
-0.849921	まんが/漫画 の/の
-0.967289	まんざい/漫才 する/する
-0.849921	まーくるんど/マークルンド の/の
-0.918965	まーけっと/マーケット が/が
-0.968841	み/見 る/る
-0.857072	み/身 に/に
-1.050127	みく/ミク に/に
-1.039024	みく/ミク の/の
-1.150949	みちの/美智乃 が/が
-1.050127	みちの/美智乃 に/に
-0.973530	みっくみく/みっくみく 」/」
-0.857072	みの/美濃 に/に
-0.959613	みりょう/魅了 さ/さ
-0.857072	みりょく/魅力 に/に
-0.999313	みんせい/民生 ひん/品
-1.203673	む/む </s>
-1.285698	む/む せかい/世界
-0.970398	むか/向か っ/っ
-1.245683	むけ/向け て/て
-1.039024	むけ/向け の/の
-0.999313	むす/結 ぶ/ぶ
-0.857072	むだ/無駄 に/に
-0.918965	め/目 が/が
-0.923143	めいぎ/名義 で/で
-1.472877	めいじ/明治 まつ/末
-1.471084	めいじ/明治 ３４/３４
-1.472877	めいじ/明治 ４０/４０
-0.987907	めがね/眼鏡 や/や
-0.999313	めぐろ/目黒 も/盛
-0.920353	めざ/目指 し/し
-0.991168	めだ/目立 つ/つ
-0.880528	めんどう/面倒 を/を
-0.949089	めんばー/メンバー </s>
-1.570991	も/も 、/、
-1.398138	も/も あ/あ
-2.306949	も/も いま/今
-2.247909	も/も おお/多
-2.169635	も/も おこな/行
-2.295242	も/も か/書
-2.306949	も/も かかわ/かかわ
-2.306949	も/も かかわ/関わ
-2.306949	も/も けいそう/係争
-2.306949	も/も けんとう/検討
-2.306949	も/も げんえき/現役
-2.306949	も/も せかんど/セカンド
-2.306949	も/も そうだ/操舵
-2.146393	も/も その/その
-2.306949	も/も ととのえ/整え
-1.908461	も/も な/な
-2.306949	も/も はっかく/発覚
-2.306949	も/も ばんのう/万能
-2.295242	も/も ふく/含
-2.306949	も/も ふたたび/再び
-2.124331	も/も ２/２
-0.970398	も/持 っ/っ
-0.999313	も/盛 とよみ/豊見
-0.976684	もう/網 も/も
-0.999313	もうり/毛利 よんじゅういち/四一
-0.920353	もたら/もたら し/し
-0.999313	もと/元 ろういん/老院
-1.340051	もの/もの が/が
-1.386277	もの/もの と/と
-1.378223	もの/もの は/は
-1.245226	もの/もの を/を
-0.857072	もの/者 に/に
-0.933049	ものがたり/物語 は/は
-0.880528	ものごと/物事 を/を
-0.999313	もも/もも うら/裏
-0.949089	もよう/模様 </s>
-0.999313	もり/森 ながよし/長可
-1.890079	や/や あやし/怪し
-1.885406	や/や えんじん/エンジン
-1.890079	や/や おーすとらりあ/オーストラリア
-1.890079	や/や くさかげろう/クサカゲロウ
-1.890079	や/や なおひろ/直弘
-1.890079	や/や はだに/ハダニ
-1.890079	や/や ふうけい/風景
-1.890079	や/や ろれーた/ロレータ
-0.918965	やく/役 が/が
-1.298561	やく/約 はんすう/半数
-1.297359	やく/約 ５/５
-0.999313	やっと/やっと とうちゃく/到着
-0.994453	やよい/弥生 じだい/時代
-0.372862	やん/やん よ/よ
-0.967289	ゆうしゅう/優秀 な/な
-0.967289	ゆうしょう/優勝 する/する
-0.998710	ゆうよ/猶予 きかん/期間
-0.849921	ゆうれい/ユウレイ の/の
-0.731087	よ/よ っ/っ
-1.007024	よ/よ り/り
-1.119623	よ/よ る/る
-2.015437	よ/よ れ/れ
-1.899813	よ/よ （/（
-1.918674	よ/よ ）/）
-0.372862	よ/呼 ん/ん
-1.596048	よう/よう しじ/指示
-1.596048	よう/よう せっけい/設計
-1.351154	よう/よう で/で
-1.481315	よう/よう な/な
-1.292195	よう/洋 せんそう/戦争
-1.297359	よう/洋 ぶたい/部隊
-1.472877	ようかい/妖怪 じょ/序
-1.276856	ようかい/妖怪 で/で
-1.306265	ようかい/妖怪 と/と
-1.298561	ようし/容姿 たんれい/端麗
-1.158100	ようし/容姿 で/で
-0.998710	よくちょう/翌朝 だい/代
-0.973530	よばい/夜這い 」/」
-0.366705	よびだ/呼び出 さ/さ
-0.999313	よみ/読み きり/切り
-0.998710	よろこ/喜 ん/ん
-0.849921	よんじゅういち/四一 の/の
-0.967289	よーろっぱ/ヨーロッパ ・/・
-1.926749	ら/ら か/か
-1.986867	ら/ら ざる/ざる
-0.930945	ら/ら ず/ず
-1.982155	ら/ら せ/せ
-0.926861	ら/ら れ/れ
-1.446919	ら/ら を/を
-0.857072	らいん/ライン に/に
-0.857072	らずふぁーど/ラズファード に/に
-1.432582	られ/られ 、/、
-0.832990	られ/られ た/た
-1.643640	られ/られ て/て
-1.624649	られ/られ な/な
-1.630888	られ/られ る/る
-0.923143	らんきんぐ/ランキング で/で
-0.920353	らんくいん/ランクイン し/し
-0.849921	らーる/ラール の/の
-0.124514	り/り 、/、
-2.102850	り/り 「/「
-2.170018	り/り ぷらちな/プラチナ
-0.999313	りくじょう/陸上 ばくりょう/幕僚
-0.880528	りくろ/陸路 を/を
-0.999313	りつ/立 のう/農
-1.267480	りま/りま が/が
-1.139815	りま/りま に/に
-1.126204	りま/りま の/の
-0.973530	りゅう/龍 」/」
-0.910729	りゅうじ/龍治 、/、
-0.935922	りょういき/領域 と/と
-0.999313	りよん/リヨン こくりつ/国立
-0.920353	りりーす/リリース し/し
-0.857072	りん/林 に/に
-0.998710	りーぐ/リーグ しゅい/首位
-0.346580	る/る </s>
-2.384693	る/る 「/「
-2.719478	る/る あたり/あたり
-2.536491	る/る か/か
-1.898284	る/る が/が
-2.719478	る/る きいろあざみうま/キイロアザミウマ
-2.703071	る/る きゃらくたー/キャラクター
-2.719478	る/る きんだい/近代
-2.638423	る/る ぎいん/議員
-2.719478	る/る くせ/癖
-2.719478	る/る くんしょう/勲章
-1.665146	る/る こと/こと
-2.719478	る/る ごと/毎
-2.719478	る/る さいしょう/崔鍾
-2.719478	る/る ざいにち/在日
-2.601722	る/る しょうねん/少年
-2.719478	る/る じんぶつ/人物
-2.719478	る/る せき/赤
-2.601722	る/る ため/ため
-2.719478	る/る だんせい/弾性
-1.548054	る/る と/と
-2.567883	る/る など/など
-1.650319	る/る に/に
-2.719478	る/る ひろし/汎
-2.719478	る/る まんが/まんが
-2.601722	る/る もの/もの
-2.719478	る/る もよう/模様
-2.638423	る/る よう/よう
-0.858520	れ/れ 、/、
-2.425084	れ/れ 「/「
-0.731674	れ/れ た/た
-0.540372	れ/れ て/て
-2.568490	れ/れ ば/ば
-0.795470	れ/れ る/る
-1.285698	れい/令 だい/第
-1.251604	れい/令 （/（
-0.933049	れおん/レオン は/は
-0.973530	れきし/歴史 」/」
-0.999313	れこーど/レコード きょうかい/協会
-0.999313	れっど/レッド うっど/ウッド
-0.992808	れつ/列 だい/第
-0.976684	ればのん/レバノン も/も
-0.999313	れんぽう/連邦 ぎかい/議会
-0.849921	ろういん/老院 の/の
-0.998710	ろく/六 ばん/番
-0.999313	ろせん/路線 ばす/バス
-0.857072	ろれーた/ロレータ に/に
-0.976684	ろんぶん/論文 も/も
-0.098614	わ/わ れ/れ
-0.984671	わか/若 く/く
-0.998710	わしんとん/ワシントン ぐん/軍
-0.999313	わずか/わずか いちよ/一代
-0.970398	わた/亘 っ/っ
-0.849921	わたし/私 の/の
-0.998710	わたり/渡り しょう/小
-0.935922	わたる/渉 と/と
-0.918965	わよ/和与 が/が
-0.880528	わんしょう/腕章 を/を
-0.967289	わーなー/ワーナー ・/・
-2.835668	を/を あたえ/与え
-2.835668	を/を あっか/悪化
-2.835668	を/を あらわ/表
-2.798337	を/を い/言
-2.835668	を/を いか/生か
-2.835668	を/を いだ/抱
-2.798337	を/を いりょう/医療
-2.835668	を/を いわ/祝
-1.887884	を/を うけ/受け
-2.835668	を/を うれし/うれし
-2.835668	を/を うんえい/運営
-2.835668	を/を うんこう/運行
-2.835668	を/を え/得
-2.835668	を/を えん/演
-2.488993	を/を おこな/行
-2.835668	を/を おとずれ/訪れ
-2.798337	を/を か/書
-2.798337	を/を かいさい/開催
-2.835668	を/を かえ/変え
-1.887884	を/を かくとく/獲得
-2.835668	を/を かけ/懸け
-2.798337	を/を かんがえ/考え
-2.835668	を/を きせ/着せ
-2.835668	を/を きちょう/基調
-2.016629	を/を きろく/記録
-2.835668	を/を くみあわせ/組み合わせ
-2.835668	を/を くりかえ/繰り返
-2.798337	を/を けん/剣
-2.598595	を/を けんきゅう/研究
-2.835668	を/を こうせい/光成
-2.835668	を/を こえ/超え
-2.835668	を/を さいよう/採用
-2.016629	を/を し/知
-2.835668	を/を しい/強い
-2.835668	を/を しかけ/仕掛け
-2.835668	を/を しき/指揮
-2.835668	を/を しきゅう/支給
-2.835668	を/を しめ/示
-2.798337	を/を しゅうりょう/終了
-2.835668	を/を しゅじん/主人
-2.835668	を/を しゅっぱつ/出発
-2.835668	を/を しょうかい/紹介
-2.835668	を/を しょく/食
-2.798337	を/を しよう/使用
-2.835668	を/を じっしょう/実証
-2.835668	を/を せつやく/節約
-2.835668	を/を せま/迫
-2.835668	を/を そうちゃく/装着
-2.835668	を/を そだて/育て
-2.835668	を/を そつぎょう/卒業
-2.835668	を/を たいくつ/退屈
-2.835668	を/を たちあげ/立ち上げ
-2.835668	を/を たて/縦
-2.665886	を/を ちょう/長
-2.835668	を/を ちょうさ/調査
-2.798337	を/を つうじょう/通常
-2.835668	を/を つかえ/使え
-2.835668	を/を つづけ/続け
-2.022583	を/を つとめ/務め
-2.798337	を/を つよ/強
-2.835668	を/を ていきょう/提供
-2.835668	を/を でんれい/伝令
-2.835668	を/を となえ/唱え
-2.835668	を/を とりもど/取り戻
-2.835668	を/を どういん/動員
-2.835668	を/を はあく/把握
-2.022583	を/を はじめ/始め
-2.835668	を/を はっしゃ/発射
-2.835668	を/を へ/経
-2.835668	を/を ほどこ/施
-2.835668	を/を ぼうご/防護
-2.835668	を/を ぼくし/牧師
-2.835668	を/を まじえ/交え
-2.835668	を/を まと/まと
-2.835668	を/を まね/招
-2.835668	を/を み/見
-2.835668	を/を み/身
-2.835668	を/を むす/結
-2.835668	を/を むだ/無駄
-2.835668	を/を めざ/目指
-2.187163	を/を も/も
-2.835668	を/を も/持
-2.022583	を/を よ/呼
-2.835668	を/を りりーす/リリース
-0.547967	ん/ん だ/だ
-1.317306	ん/ん で/で
-2.306949	・/・ あっぷ/アップ
-2.247909	・/・ あふりか/アフリカ
-2.306949	・/・ あぶどぅん/アブドゥン
-2.306949	・/・ あるばむ/アルバム
-2.306949	・/・ うえるず/ウエルズ
-2.220220	・/・ けんきゅう/研究
-2.306949	・/・ こふん/古墳
-2.306949	・/・ さんず/サンズ
-2.306949	・/・ しゅヴぇーげりん/シュヴェーゲリン
-1.410145	・/・ そりゅーしょん/ソリューション
-2.306949	・/・ たかはし/高橋
-2.306949	・/・ ちゃーと/チャート
-2.306949	・/・ ふぁすべんだー/ファスベンダー
-2.306949	・/・ ぶしゅう/武州
-2.306949	・/・ ぶよう/舞踊
-2.306949	・/・ ぶらざーず/ブラザーズ
-2.306949	・/・ べんぐつそん/ベングツソン
-2.306949	・/・ ほうしょう/褒章
-2.306949	・/・ まつい/松井
-2.306949	・/・ まりーあ/マリーア
-2.306949	・/・ りーぐ/リーグ
-1.298561	ー/ー ３９３/３９３
-1.288935	ー/ー ９/９
-2.270471	（/（ あか/あか
-2.260263	（/（ えんじん/エンジン
-2.270471	（/（ げん/現
-2.270471	（/（ こうりゃん/コウリャン
-2.270471	（/（ しょうがく/小学
-1.230829	（/（ しょうわ/昭和
-2.270471	（/（ しれい/司令
-2.270471	（/（ せんきゅうひゃくきゅうじゅうはち/１９９８
-2.270471	（/（ とうきょう/とうきょう
-2.270471	（/（ とうなーけん/とうなーけん
-2.270471	（/（ どーぱんと/ドーパント
-2.260263	（/（ ほうせい/法政
-2.270471	（/（ ぼこぼこ/ボコボコ
-2.270471	（/（ みりょく/魅力
-1.368078	（/（ めいじ/明治
-2.270471	（/（ １９４２/１９４２
-2.270471	（/（ ５３７/５３７
-1.272590	）/） </s>
-1.217570	）/） 、/、
-1.308820	）/） 」/」
-2.116130	）/） こと/こと
-1.724240	）/） で/で
-0.849739	）/） に/に
-1.964242	）/） ねん/年
-1.134232	）/） の/の
-1.135378	）/） は/は
-2.249295	）/） ：/：
-0.671030	．/． ３/３
-1.595360	．/． ３４/３４
-1.586978	．/． ４/４
-0.967289	０/０ ねん/年
-0.999313	０００/０００ いし/石
-1.298561	１/１ じ/時
-1.292195	１/１ ４/４
-1.297359	１０/１０ か/日
-1.236949	１０/１０ ねん/年
-1.449077	１２/１２ がつ/月
-1.471084	１２/１２ だい/代
-1.471084	１２/１２ ばん/番
-0.998710	１３/１３ にち/日
-0.994453	１４/１４ い/位
-0.975104	１７/１７ （/（
-0.999313	１８/１８ か/駆
-0.967289	１９０１/１９０１ ねん/年
-0.967289	１９０７/１９０７ ねん/年
-0.978270	１９４２/１９４２ ）/）
-0.967289	１９４４/１９４４ ねん/年
-0.367951	１９５６/１９５６ ねん/年
-1.449252	２/２ 、/、
-1.853648	２/２ い/位
-1.885406	２/２ か/日
-1.890079	２/２ じかん/時間
-1.885406	２/２ ちゃく/着
-1.830433	２/２ つ/つ
-1.890079	２/２ ど/度
-1.885406	２/２ ー/ー
-0.967289	２０００/２０００ ねん/年
-0.999313	２１/２１ さい/歳
-0.996106	２４/２４ ．/．
-0.372862	２６/２６ にち/日
-1.401224	３/３ 、/、
-1.722794	３/３ がつ/月
-1.740805	３/３ ごう/号
-1.768626	３/３ せき/隻
-1.768626	３/３ へくたーる/ヘクタール
-1.765089	３/３ ７/７
-0.999313	３００/３００ ちか/近
-0.967289	３１/３１ ねん/年
-1.236949	３４/３４ ねん/年
-1.288935	３４/３４ ９/９
-0.996106	３５/３５ にん/人
-0.987907	３９/３９ ２/２
-0.994453	３９３/３９３ ぺーじ/頁
-1.449077	４/４ がつ/月
-1.185966	４/４ を/を
-1.471084	４/４ １/１
-0.967289	４０/４０ ねん/年
-0.999313	４４/４４ しあい/試合
-0.994453	４５/４５ しゃ/社
-1.249314	５/５ 、/、
-1.472877	５/５ せいまご/世孫
-1.463402	５/５ にん/人
-0.998710	５０/５０ じぎょう/事業
-0.999313	５０００/５０００ ０/０
-0.994453	５３３/５３３ ぺーじ/頁
-0.994453	５３６/５３６ ぺーじ/頁
-0.999313	５３７/５３７ ひょう/票
-0.999313	５７/５７ ふん/分
-0.546624	６/６ がつ/月
-1.463204	６/６ ごう/号
-0.967289	６２/６２ ねん/年
-1.297359	７/７ ちゃく/着
-1.285698	７/７ ３/３
-0.999313	７１/７１ まき/巻
-0.546624	８/８ がつ/月
-1.472784	８/８ ー/ー
-0.996106	８００/８００ にん/人
-1.577156	９/９ い/位
-1.564719	９/９ がつ/月
-1.577156	９/９ ぺーじ/頁
-1.245226	９/９ を/を
-1.297359	：/： なす/ナス
-1.298561	：/： ひがしまつやま/東松山
-1.298561	＝/＝ なーせる/ナーセル
-1.298561	＝/＝ のいず/ノイズ

\end\
